GenomeID	D2V01	D2V02	D2V03	D2V04	D2V05	D2V06	D2V07	D2V08	D2V09	D2V10	D2V11	D2V12	D2V13	D2V14	D2V15	D2V16	D2V17	D2V18	D2V19	D2V20	D2V21	D2V22	D2V23	D2V24	D2V25	D2V26	D2V27	D2V28	D2V29	D2V30	D2V31	D2V32	D2V33	D2V34	D2V35	D2V36	D2V37	D2V38	D2V39	D2V40	D2V41	D2V42	D2V43	D2V44	D2V45	D2V46	D2V47	D2V48	D2V49	D2V50
GCF_000021425.1	0.009337954	-0.0065553854	0.0012221665	0.006460982	0.0049625975	0.0044522453	0.009249151	-0.0048998147	0.0010013249	-0.002037948	0.004286185	-0.00960007	0.005211677	0.007685979	-0.0057393163	-0.006451196	0.0024266653	-0.0028585112	-0.0048480094	0.009257055	0.0038375366	-0.0063847797	0.0073915054	0.004453821	0.0056755324	-0.0019049802	-0.004263063	0.009969179	0.009253055	0.007921642	-0.0060221367	-0.002426492	-0.007876464	0.004867784	0.009469565	0.00025602395	0.008251014	-0.001102551	0.005120834	8.6504006e-05	0.000634599	0.0032405565	0.0030219078	-0.0048450897	-0.006681069	-0.009227623	0.0076227426	0.0040637488	-0.00658511	-0.004141944
GCF_000022705.1	-0.0064431056	0.0063873553	0.004409729	-0.0034153713	0.0036144236	-0.0090483595	-0.009393464	-0.0045805327	-0.0008377352	-0.0071127107	-0.009760486	-0.0047146883	0.008803693	-0.00279586	-0.002489426	-0.0068244096	-0.007981487	-0.0051292297	-0.00380177	0.003960106	0.008833289	0.0008408537	-0.0072437716	0.007169248	-0.0018940881	-0.0037970212	-0.0074717216	-0.009250329	0.0014126628	0.007777793	0.0070139463	-0.0059521478	-0.002717992	0.0017307441	-0.008837688	0.004439484	0.0063280016	-0.00964504	-0.006018148	0.0044872058	0.0019187771	0.00896918	0.0029956717	-0.0011329894	0.0037265145	0.008739533	-0.007784908	0.003912197	0.007863759	-0.0038145753
GCF_000025245.2	0.005174678	0.00025364262	0.0013445226	0.0010314063	-0.0063559897	-0.0051703737	0.0031948527	0.0022611395	0.007901182	-0.0030630613	-0.0055482197	0.0020750046	0.001632694	-0.0028391893	-0.008767579	-0.0022840179	-0.006603181	0.0061789877	-0.0042484133	0.008603738	-0.0023832847	-0.00052538456	-0.0008913871	0.006761292	-0.0016947277	-0.0024376123	0.005750336	0.0040807636	0.0007512595	0.008121588	0.0010923899	-4.6507466e-05	-0.002641898	0.0021270108	0.0053478554	-0.001041131	-0.0066844854	-0.00024429424	-0.007953227	-0.0011463661	-0.0075143487	0.0038253113	-0.006264757	-0.00022355572	0.0020693894	0.004079531	0.0060582976	0.0034391806	0.008112593	-0.005112989
GCF_000069945.1	-0.008351507	-0.0046996963	-0.009714954	0.0021493768	0.0014657226	-0.007015477	0.0019027061	-0.0076335557	0.005081928	-0.005770438	0.0040372144	0.007965339	0.0084399255	0.0009783274	-0.005466687	-0.00623798	-0.009817125	-0.0090037305	-0.0048595443	0.00025849036	0.0011409505	-0.0015611075	-0.008442837	-0.0028267438	-0.008456416	-0.0072658174	0.008811643	-0.0038688995	0.005644846	-0.0050477083	0.00016414886	0.008551898	-0.0024212317	-0.0023620545	0.0053565423	-0.005970183	0.0038158977	-0.0048421714	-0.005619651	0.004692058	-0.0053021847	-0.008533923	0.006157801	0.0034026743	-0.004985887	0.0010446343	-0.004828344	0.005297707	-0.004709875	0.004616262
GCF_000092765.1	0.0034388402	-0.00076927146	-0.007330053	-0.0016376408	0.0046123154	-0.0041010026	-0.0026061393	0.006599073	-0.00738878	-0.009096107	-0.0051421267	0.0050846823	-0.0019561292	-0.005361945	0.0077139866	0.007815158	-0.004787851	0.009432108	-0.0036443328	-0.005785822	-0.0013373913	-0.008363922	0.009525473	-0.0030008408	-0.0032761563	0.0060945633	0.0079317	-0.0057367207	0.002695782	0.005471703	0.0074333115	0.009061457	0.0027575372	0.0020458105	0.0048690895	-0.0015044787	0.0016017016	-0.0072710486	-0.00883758	0.003461291	-0.004251417	-0.0006034339	-0.0099244295	0.008663899	-0.0006908645	-0.0067692166	-0.0016200892	0.0023139087	0.003029695	-0.00025637186
GCF_000154105.1	-0.0032398156	-0.0021699253	-0.00817133	-0.00013511062	-0.0056312587	0.00066770124	-0.009480739	0.0042775176	-0.009068056	0.008625371	-0.0073102093	-0.007938358	-0.0026016296	-0.0068964693	-0.005684524	-0.005640672	-0.0040013185	0.009154403	-0.0021063671	0.0058443383	-0.009793454	-0.0034013984	0.00013787218	0.0011543739	0.0011755946	0.004656462	-0.0034376073	-0.0019285193	0.0061050477	-0.00450762	0.009418876	-0.0027186556	-0.001766741	0.008466301	-0.0076281466	0.006003364	-0.009759082	0.0051361346	-0.009330236	-0.0009811076	-0.0060806256	0.0090764435	0.003665673	0.0059981355	0.0004298206	-0.0051924516	0.0041597416	8.606422e-05	-0.007355196	-0.009633166
GCF_000154525.1	-0.0010618432	-0.0065464796	0.0052560717	0.004730127	-0.008123118	-0.0032992137	0.0038860347	-0.0004838685	0.0031814878	-0.00783639	0.008975745	-0.0042185737	-0.0013963178	0.005842667	0.0015199444	0.0027647882	0.005124083	0.0012565871	0.00035106973	-0.0042894883	-0.009760729	-0.005447057	-0.008162184	0.00062230835	-0.002663	-0.008955769	0.0073553943	-0.008598674	0.00926115	0.00895037	0.0021951967	-0.0029567385	-0.009005988	0.003358079	-0.004628049	-0.006120011	0.0010734475	-0.0076671997	0.0058572614	-0.0069103637	0.0060722395	-0.008705417	-0.0039723865	0.008479475	-0.005028432	0.00880581	-0.0007239696	-0.0075953687	0.0062749214	-0.001793517
GCF_000158635.1	0.0034082728	0.0031000648	0.008250446	-0.002865125	0.001593533	0.0068771555	-0.009317281	0.0071633034	-5.8046047e-05	0.0012273564	-0.0072800196	0.008420387	0.009785604	0.0011504568	0.0010695832	-0.0028058137	-0.008737183	0.0018957547	0.006375189	-0.009976986	-0.0049266475	-0.007847875	-0.0093484055	-0.0044924445	0.0012023078	0.001285787	-0.008250638	0.00416797	0.0055123777	0.00945169	-0.0011166264	-0.00072549086	-0.0047588744	-0.005230161	-0.0040150033	0.0071238177	-0.0018243878	0.00485242	-0.00736384	0.0026987256	-3.523852e-05	0.0046253935	-0.00027076603	-0.003950357	0.0052940804	0.002118705	-0.0035330974	-0.008752685	-0.0077988235	-0.004435007
GCF_000169015.1	-0.0058436287	0.0015004617	0.002642155	-0.005342385	0.0018238458	0.0049743443	-0.00092283083	0.00047555353	0.00660377	0.00541289	-0.004540022	-0.00270283	-0.0055488735	0.008431242	-0.003378623	0.008389309	-0.009778312	-0.0038929458	0.0020416155	0.007729114	-0.0061960425	-0.001794753	-0.006561222	0.0007398074	-0.009279111	0.0051233345	-0.0071513597	-0.008007861	-0.002723372	-0.0012528208	-0.0031440512	0.005333984	0.007962334	0.0094119515	0.00952779	0.0014944728	-0.004065639	0.0049722837	0.0077579226	0.0012882276	-0.006330656	0.0017286218	-0.008779161	0.008303619	-0.005869444	-0.0030870151	0.009475951	-0.00212553	-0.008342099	-0.008576547
GCF_000172535.1	-0.008763811	-0.0022961735	0.004958123	-0.0021823419	0.0017027095	-0.0011849122	0.009896583	0.0020993864	0.0025567487	-0.006195756	-0.003781259	0.004386443	-0.002792132	0.0012713043	0.0035688535	-0.007433045	-0.0053179343	0.00675275	0.0087097995	-0.0021878302	-0.0032245012	0.0018792306	-0.0097854305	-0.003899574	-0.0010075753	-0.0070781484	0.0025039217	0.0010410253	-0.0018750961	-0.007932926	0.008778528	-0.0094744535	0.009842522	0.0021731409	-0.0009824848	0.0034621588	0.0070824646	0.00012284167	0.003412992	0.009214425	-0.004455581	0.0031402474	-0.009450534	0.0034419615	-0.006050925	-0.005240577	-0.00080036354	0.0061019845	-0.007820593	0.004449644
GCF_000175375.1	0.005792597	-0.00807159	-0.00264426	-0.0050725574	-0.0093480265	0.008827592	0.0026134439	-0.0064464286	0.008129022	-0.00014374357	0.006584177	-0.0043281503	-0.0092313355	-0.008639471	0.0003736335	-0.0004008051	-0.009046504	0.000505786	0.0068449834	-0.0007963932	0.008815286	0.006985365	0.008741509	-0.00033384655	-0.008631668	-0.0022102208	0.0042368723	-5.2162733e-05	0.0036174054	-0.0030038103	-0.009463047	-0.0006117633	-0.0060830126	-0.0013715208	0.0065219556	0.00066190376	0.007913785	-0.0058746394	-0.006332566	0.0021134703	-0.007218897	-0.003657937	-0.001759591	0.003929218	-0.0073894598	0.0061850534	0.00053901	-0.0014848291	0.00215296	0.006498432
GCF_000191885.1	0.0027167483	-0.008510362	0.00043435176	-0.0074808053	-0.0052782157	0.005695988	0.009898866	-0.003838484	0.00053303456	-0.005005874	-0.007543353	0.008154961	0.00598901	-0.0088947145	0.0027531278	0.009128654	-0.008082591	0.005148619	0.0021807784	0.0010814571	0.0013090842	-0.00023548245	-0.0055809575	-0.006194839	0.0016283576	-0.0048386343	-0.0021862774	0.007849419	-0.000684309	-0.00993667	-0.00023289441	0.0014970959	-0.004394583	-0.0091605885	-0.0018687358	0.0011591171	-0.0072945436	0.0061546084	0.0040588994	-0.0032285159	0.0028960032	-0.0011251451	-0.004718332	-0.0073621008	0.0030736902	0.007235376	0.0025714375	0.0044315606	-0.009675658	-0.0073900423
GCF_000219915.2	-0.005680853	0.0028863025	0.008981296	0.0037137489	0.0088379895	-0.004426064	0.0060969903	0.0013230024	0.008870407	0.007243613	0.0009479381	-0.009887721	0.0053103585	-0.007188921	0.0086034145	-0.00861148	0.008380563	0.0063216505	0.008670051	0.00073895877	-0.0031941228	-0.0035931733	0.0036909166	0.009521558	0.0031540482	0.0036189982	-0.0078521	-0.009794885	0.009406089	0.0041734776	-0.0077546975	-0.0046507986	0.004796826	0.009440746	0.00422993	0.0011133855	0.0043603475	-0.0019221298	-0.0009087315	-0.0049263975	0.004513482	0.00655953	-0.00010502787	-0.00523477	0.0010076595	0.0015415893	0.006721224	-0.0049008355	-0.002370546	-0.0021337438
GCF_000220885.1	-0.0057924716	-0.0006303004	-0.0054948283	-0.002311121	-0.0076538757	0.00011080174	-0.0002178229	0.0017284269	-0.0012959404	0.00012544726	-0.008100426	-0.0028365867	-0.0011138	0.002755373	-0.005070858	-0.0037328377	-0.0070334566	-0.0016973752	-0.005679879	0.002079241	0.0025136743	-0.0018810187	-0.0024105234	0.0066699106	0.0044257063	0.008497162	-0.0004019971	0.0061009116	-0.006687328	0.007738146	0.0046108584	0.0034084318	-0.0042728106	0.006503604	-0.0084250765	0.0070760683	0.0066995155	0.009196862	-0.004053548	0.0060483553	-0.0015803473	0.0024529286	-0.00050179637	0.00705672	0.005256251	0.0059668855	-0.008086821	0.008552879	0.004394792	-0.003383877
GCF_000224965.2	-0.006579992	-0.0016556174	-0.008374441	0.009911462	-0.00070202985	-0.0050341976	0.0085948	-0.0062064384	0.006659472	-0.0020275943	0.0030206859	0.002369755	-0.001539316	-0.0011376224	0.0023700476	-0.0049828673	0.009488876	0.0076045105	-0.0051648426	-0.009407054	-0.0035807698	0.007944937	0.00977288	-0.009463725	-0.006402344	-0.008038404	0.004758424	-0.0027949521	-0.003159838	-0.009358165	-0.0036614954	-0.0062464075	0.0032819929	0.0018762182	0.008605277	-0.0052881697	-0.007041992	-0.0035079035	-0.008941418	0.0014266119	-0.0061248313	0.0052680275	0.009761021	0.0012162472	0.008243722	-0.0077126785	0.006051044	0.0012807302	-0.005196265	0.0059553864
GCF_000235585.1	0.0031121576	0.0016615813	-0.005248094	0.008882402	0.002610524	0.0039124563	0.00900981	-0.006537305	0.0036383015	-0.008089397	0.0024255842	-0.00698405	0.00081392925	0.0042577875	-0.008402382	0.0060717883	0.0039899265	0.005451902	0.0027836368	-0.0052446923	-0.005070618	-0.0044153105	0.0033003492	-0.0014009373	0.00026897024	-0.0074667884	0.0029308414	-0.0085865995	-0.0053222547	-0.0014043597	0.0024786184	0.006057534	0.008382699	-0.00060417526	-0.008851922	0.006691746	-0.00093998393	-0.0008843019	0.0049459096	0.0045464286	-0.0061836885	-0.00088358717	0.008902864	0.009267289	0.00050562044	0.00014382822	0.0061329706	-0.0070557864	0.0036415963	-0.0014346514
GCF_000240765.1	0.000643143	-0.0028645946	-0.0019073252	-0.0049678707	0.0021412163	0.007387806	-0.0004049906	-0.003190353	0.0065593254	-0.0038748821	0.004997145	0.0041961977	-0.00044183165	-0.0029867399	0.0010410507	0.0079309475	0.00444941	-0.0038734924	-0.0051194387	0.000964614	-0.009030674	-0.005660231	-0.004699519	-0.00366394	0.009011505	-0.007333661	-0.00488157	0.009269983	0.0008511983	0.0010895712	0.0020339545	0.009717136	-0.0068994104	0.00770747	-0.009371291	-0.009300102	-0.006071126	-0.0012124851	-0.008860635	0.004509802	0.007377685	-0.0057975603	-0.0041635386	-0.003300058	-0.004119064	2.7471282e-05	0.006022228	0.005082449	0.0035054185	0.0030842558
GCF_000250735.1	0.0030125147	-0.006268734	0.0059552905	0.008334736	0.007015081	0.0024956858	-0.0019960022	-0.0017716577	0.0071254843	-0.0060624853	0.0026293767	0.00920428	0.009743947	0.0044410443	-0.009338316	-0.009829036	-0.0007177286	-0.0009819476	0.0065581496	0.0096515985	0.006865977	-0.008795739	-0.0014947922	0.0011980342	-0.003465604	0.00084082445	0.0020139401	-0.0064996667	0.002150699	-0.0035125962	-0.006311546	0.0016202467	-0.0005882366	0.0035354805	0.005824919	0.0023985312	-0.0071332976	-0.005973905	-0.002396839	0.0032327909	0.009060821	0.0060767317	-0.008152322	0.003384375	-0.007751536	0.0054543987	-0.0019903444	0.0041870545	0.0071302354	0.0027744654
GCF_000259075.1	-0.005916402	-0.009700171	-0.008318833	-0.0019068503	0.0027113773	-0.005401598	0.007854623	-0.003322945	-0.0062673194	0.0005040788	0.0004262247	-0.009401061	0.0026078632	0.006696532	0.007166639	-0.0031073666	-0.00842698	0.00895291	-0.009208013	0.0034565679	-0.0036669997	-0.0005780291	0.0002572142	0.008103347	-0.004099184	0.0019161226	0.0061271153	-0.0037840637	-0.0019035649	-0.004957354	-0.009842953	-0.0022805103	0.00060559716	-0.0069469134	-0.009138197	0.00023948133	0.0021526963	0.0066598463	-0.006810562	-0.007607762	-0.009898376	-0.0018288757	-0.007899922	0.008241269	0.0006128455	0.002457771	0.006123371	-0.0057054427	0.009547375	0.0064039337
GCF_000260715.1	0.0029199368	-0.0049162	-0.0015103203	0.006337629	-0.007237878	-0.0072656637	0.0010012885	0.007092176	-0.0013910687	-0.0046233186	0.0067287534	0.00027518749	0.009054313	-0.0054608798	0.006718212	0.003930539	0.0035408635	-0.0033309825	-0.005461454	-0.0019650485	0.0083828	0.0064050765	0.005035506	-0.004374728	-0.004939487	-0.009875294	-0.0023637044	0.0029761842	-0.00734816	-0.0021888004	-0.008411329	-0.004043009	0.001650417	-0.00554342	0.0020078719	-0.0006528445	-0.0047876583	-0.0028347366	0.003339135	-0.0043493696	-0.00012803487	-0.0032680715	-0.0051597646	0.0031823001	-0.005555779	-0.007905116	-0.0038164447	-0.002643614	-0.0052067307	0.005960771
GCF_000273725.1	0.0011895887	-0.004099426	0.0055076876	-0.008166184	-0.0020771113	0.00063934975	0.0024692733	-0.007661093	0.006775598	0.0018456588	-0.007979119	0.00027984654	0.0021917936	0.0079848245	-0.007045893	-0.0058358326	-0.008072054	-0.0011008771	-0.003659275	-0.0069607645	-0.0011375959	0.006425994	-0.0016049811	0.008203565	-0.00073593284	0.0064306967	0.008921	-0.007049198	-0.003975107	-0.0048343497	-0.001135794	-0.002996679	0.007625368	-0.00989504	0.0012528413	-0.0075523057	0.005570638	-0.005529686	-0.0025360552	0.006367236	0.009788839	-0.008496731	0.0013172891	0.0009638162	0.0034770719	-0.000594275	0.0095596695	0.006919533	-0.0019831287	0.00870433
GCF_000277325.1	0.008922173	0.0035281593	0.003762184	-0.007283124	0.006012012	-0.0083266385	-0.009822999	-0.009081392	0.006316961	0.0023777448	-0.008012831	-0.0025503116	-0.003233882	-0.00051297544	-0.0033038151	0.004353555	0.00040419315	-0.0015130573	-0.0058633764	-0.002013348	0.002688979	0.004714553	-0.001636953	0.005734042	0.0011560363	-0.0044680308	0.0031073196	0.00581416	-0.0038717163	0.00537283	0.0030053845	-0.007008421	0.007818471	-0.005162443	0.009484194	-0.0032982074	-0.009675428	-0.0032607077	0.0050530136	-0.009860122	-0.0012705151	-0.008883605	0.0016019354	0.0052324776	-0.0046205334	-0.0006145956	0.0061472612	-0.0026201091	0.0046986085	-0.00081015885
GCF_000277345.1	-0.0059692324	-0.0070863254	0.005614557	-0.00961639	0.006273745	0.0063496395	0.002672275	0.0022703067	-0.0024183013	-0.009701583	9.055841e-05	-0.006408781	-0.0082283225	-0.009959297	0.004958032	-0.0047735316	-0.0024840904	0.005342921	0.008640405	0.0051591843	-0.0016933485	0.0078473855	0.00843786	0.0056573297	0.0007138439	-0.007743548	-0.009884956	-0.0042347675	0.009246057	0.0071851597	-0.0042786123	0.00629642	0.0007751592	0.00647782	0.001618903	-0.00025582805	0.0070343334	-0.009027628	-0.0042226985	0.003900261	-0.00053766934	0.0089969905	0.009973912	0.00046781966	-0.0074953814	-0.0061413012	0.0056020143	-7.439089e-05	0.0071420986	0.0052521685
GCF_000307345.1	-0.0056044958	0.000567761	-0.0031167974	0.009233774	-0.006940329	0.004306552	-0.007911459	-0.007756009	8.931324e-05	-0.006259936	0.00056826236	-0.0047195284	-0.0077455095	0.008434123	0.0014847041	-0.00041793004	0.0067976094	0.0019201478	-0.00431914	-0.0055161407	-0.0054602567	-0.0016791156	0.009227892	-0.004167419	-4.9521666e-05	0.0040478003	0.009660343	-0.005114663	0.00791915	0.0043701	-0.008165963	-0.0039146272	-0.0011818187	-0.0037361535	0.0061665615	0.00500179	0.0010165812	0.0033862793	0.0054680295	-0.0054962267	0.009659279	0.0021557724	0.008378085	0.005058902	-0.0008947098	-0.0032760154	0.005847617	-0.008500798	-0.0031411713	0.0020492033
GCF_000307495.1	0.007880446	-0.006787498	-0.0053990926	-0.0010388967	0.0029145936	0.004414693	-0.0061741048	-0.0056594023	0.004396239	0.0045347447	-0.0002488306	0.0030089803	-0.0038645077	0.0067728413	0.008162629	-0.005316219	-0.009016662	0.0029064096	0.0022777445	-0.002626529	-0.00056232035	-0.0009905759	-0.0070297266	0.0028342535	-0.0057509854	-0.008937487	0.006522223	-0.0005571793	-0.00223078	-0.008574103	0.0012149068	0.0023614601	0.00060249225	-0.0027257188	0.009727229	-0.009857252	0.005148431	0.0041253823	-0.009112445	0.00240915	0.00438681	0.0032689595	0.007799654	0.008061795	0.006461641	-0.0004063453	-0.006427343	-0.00482274	-0.007621934	-0.005909922
GCF_000338095.1	0.0050204676	-0.004805363	-0.0017284952	0.009733319	-0.0091694845	-0.004184732	0.0024454084	-0.0027818417	-0.0010229519	0.005423415	0.007986015	-0.002854466	0.0008603434	-0.0040446804	-0.008638982	0.00071347	-0.0043413094	-0.007845139	-0.006888169	-0.0029834828	-0.004640366	-0.00893407	0.0092206355	0.0010141031	-0.007313603	-0.0008166664	-0.0061823498	-0.005365673	0.0016834638	-0.0063894824	0.00950014	2.0448997e-05	-0.004206503	0.008874242	0.0017339434	-0.008955382	-0.003416887	-0.005090804	-7.0491726e-05	0.0052928105	0.0005237108	-0.00091291807	0.00092337263	-0.009414063	0.005482698	-0.0020581596	0.00191501	-0.003342464	0.007062674	-0.007514344
GCF_000341345.1	0.00016430987	-0.0011368259	0.008677247	-0.003203987	-0.0002971309	-0.0009529963	-0.009787444	-0.0023523888	-0.005817371	0.0069958414	-0.0071909954	-0.0046414007	0.0034005402	-0.0030177005	0.009294436	-0.00092084205	0.008436218	-0.0011857349	-0.008222373	-0.002436696	-0.008073209	-0.0057052393	0.007909059	0.006789042	0.00057788775	0.0067306487	0.00867367	-0.0077220686	0.009556208	-0.007597282	0.002532193	0.008828816	-0.009864682	0.0011067444	-0.0020406605	-0.0027468882	-0.005769843	-0.0020208822	0.0019765324	-0.009117346	-0.009514924	0.00046518916	0.00745834	-0.0022252235	-0.008778536	-0.0049605533	-0.0044489386	-0.00788371	-0.0054423893	-0.0038405322
GCF_000413395.1	0.0006212335	-0.009291337	-0.0072501693	0.0062461165	5.757981e-05	0.00012368333	-0.0023912417	-0.00918294	0.009011418	0.0030223692	0.0023853306	0.007384256	-0.006392062	0.009285786	0.007864732	-0.0054551726	-0.00759533	0.005949048	0.007285295	0.0038863742	-0.005900569	-0.0041043796	0.002486785	-0.008310539	-0.0023663775	-0.00954074	-0.0005785538	0.001175494	0.00043759006	-0.008266716	-0.003382168	-0.00087374606	0.0040914933	-0.0034491254	0.0073801936	-0.0030292668	0.00071319216	-0.0026665116	0.0048358124	-0.0060589947	0.0034258883	0.007256847	-0.008135823	-0.009653371	0.007968323	-0.0016505484	0.006559818	-0.008127213	-0.0026050783	-0.007293032
GCF_000414215.1	-0.0047664056	0.008066976	-0.0051840823	0.004947025	0.008582651	-0.0023638986	-0.00692162	0.007200109	-2.3037203e-06	0.0035777495	0.0089199105	-0.002741287	-0.0066462643	0.002414554	0.008552597	0.006079171	-0.0049991496	-0.0085184015	-0.0051848246	0.0049474724	-0.0027348583	0.0072999196	-0.0027540042	-0.007849693	-0.005203434	0.009706305	-0.009352473	0.0035014176	-0.0056171813	-0.0019787343	-0.008325787	-0.002384896	-0.006951541	-0.00578306	0.006911703	0.0007606589	0.009353083	0.006322819	-0.0016082706	-0.0066535724	0.007633305	-0.000917981	0.009769504	0.008783477	0.0069597354	-0.006073018	-0.0025421726	0.001863524	0.0013400023	0.0034164437
GCF_000421685.1	0.0054296767	-0.0039013468	-0.007984289	0.00048538123	0.00026334537	-0.0024257104	-0.00861378	0.009475925	-0.007943546	-0.0060586887	-0.0079995	-0.009614663	-0.0039007328	0.0091279205	-0.0069473768	-0.006566823	-0.009126433	0.0010224034	0.0064197625	-0.00020002834	-0.004098109	0.007123787	-0.0056035463	-0.006107212	-0.0009210115	-0.00065789855	0.0063248095	-0.0039698468	0.007892098	-0.00939609	-0.0016295005	-0.007135032	0.0010763552	0.00662121	0.007764647	-0.008224506	0.0034602648	-0.0012254571	0.0046412083	0.009608296	0.0016569685	-0.0063456637	-0.0049419184	0.0015017388	-0.009202245	0.0015693036	-0.007658736	0.007704954	0.0037666953	-0.007575304
GCF_000425445.1	-0.0039620013	0.0028463814	0.003909763	-0.009213097	0.008003546	-0.0051621776	-0.009294261	0.007937779	0.0073796757	0.00789865	-0.0021286905	-0.004917345	0.0041029216	0.008640249	-0.00049185724	0.008122113	0.00071607006	0.00395289	-0.0060368218	-0.0026330922	0.00063210883	-0.009878349	0.008869776	-0.008305299	0.007694674	0.008946473	0.0059394734	0.009997426	0.008085083	-0.007034268	-0.0046807835	-0.0037774756	-0.001198689	-0.0030228551	-0.00036335428	-0.0017843737	-0.0017229092	0.0033834004	0.005693118	0.0011170433	-0.0038667214	0.0015853441	-0.005901651	0.002981734	-0.00627351	-0.0019343848	-0.0003023802	-0.0064224256	-0.009318816	-0.00850617
GCF_000426405.1	0.007151699	0.007075581	0.0069283512	0.0032997977	-0.007912575	-0.0031964532	0.0041364687	-0.009992435	-0.002404778	-0.007143472	0.009454703	-0.0033378883	0.0052779955	-0.0050935894	-0.007267418	-0.0011513926	-0.0034035638	0.0020247495	-0.0076458156	-0.0058715334	-0.0029877673	-0.0069876155	0.004957295	-0.0031404428	0.008635056	0.0021058798	-0.009258458	-0.008164855	-0.009291096	0.0059254984	0.0006304759	0.0059408885	-0.009958314	-0.0098383585	0.00068936934	-0.0072677596	-0.008045185	0.004450144	0.0008299761	0.004169373	2.8949675e-05	-0.0029700506	0.0064209877	0.0016965442	-0.008840056	-0.0077295005	0.007074669	-0.0021193663	-0.004810239	-0.0069743632
GCF_000442645.1	-0.0062865647	-0.004880349	-0.007177478	-0.007944248	-0.002391733	-0.005597046	0.0019744888	-0.0021053434	0.0035360262	0.008520454	0.0056957426	-0.006647214	-0.0005960683	-0.00837337	-0.006830237	0.002366566	-0.0028692426	-0.0012803348	-0.008628694	0.00197071	0.006526245	0.00997389	-0.00072966976	0.008787304	0.006507407	-0.008714083	-0.0032929159	0.007565927	0.00948391	0.0027347158	-0.0034727918	0.0067511518	-0.006084834	-0.0030624988	-0.007525704	0.0017181556	-0.0025024808	0.0038930795	-0.005210525	-0.004102109	0.005894157	-0.009290449	-0.009838588	0.0069249696	0.008734735	0.009464595	0.0032175423	0.00601559	0.0068930206	0.008620049
GCF_000471945.1	0.0020266387	0.005834183	0.008296464	0.0014743921	0.003859196	-0.009769145	0.006598389	0.007510875	0.0025234246	0.0048415097	0.0032283636	0.0035241775	-0.0055928347	-0.00038206758	-0.0056520575	0.0085590435	-0.008748399	0.0093361065	-0.008516733	0.0074197375	0.0015731124	-0.004393446	-0.00047912798	0.0046391506	-0.008920659	0.0071931924	-0.0025971613	0.0036605978	-0.0022773936	-0.0027023535	-0.000782604	0.001519871	-0.006308751	-0.0060745683	0.0035970248	-0.0085691195	-0.009177094	-0.0005487106	0.0039770044	-0.008910794	-0.0007680271	0.0070477114	0.004600045	-0.003634773	-0.0076798527	-0.007202674	0.0030569765	-0.008686586	-0.004018432	0.009477776
GCF_000506985.1	-0.0066598332	0.006811312	-0.004036196	-0.0077419165	-0.0032407444	-0.002022218	-0.00057332206	0.0019141021	0.007673727	-0.00055708014	-0.0063922456	-0.005819459	0.0066945045	0.003125098	0.004818118	0.000283005	-0.0015130363	0.008487382	0.004656659	-0.0015749134	0.007712937	0.00426799	0.005600883	0.00065740093	-0.0028988898	-0.0037441284	0.008784243	0.005633584	0.0025850018	0.0022151254	0.0039522685	0.0018373134	0.009982694	-0.003382071	0.0030503136	-0.00036636548	-0.0019260059	0.008168121	0.0018054448	-0.004168486	0.007741408	-0.006762074	-0.0075668027	-0.0055734613	-0.0094318725	-0.009160493	0.0057507064	-0.0025280989	-0.009947461	0.001769932
GCF_000511935.2	-0.008160954	0.006602697	-0.0074985153	-0.0012501158	0.0085014915	-0.009798876	-0.008855535	-0.0034246703	0.009471697	-0.0062573585	-0.0073340177	0.0065265205	-0.0019754951	-0.009699009	0.008870116	-0.006949901	-0.009074252	0.0051737074	0.0039159018	-0.0009836114	-0.0025611003	-0.007210606	0.007127331	0.0021312924	-0.0059768497	-0.0012286578	-0.005525717	0.0068823462	-0.0026817708	0.0051542763	-0.0032812967	0.0069621354	-0.008231241	-0.0015058876	0.0052280505	0.008727798	0.0031205737	0.0097129475	0.006353592	-0.005966036	0.0038503658	-0.006478136	-0.0014686955	-0.001242349	0.006149274	-0.0026755012	-0.0032387788	-0.0024059152	0.006787063	0.0075164014
GCF_000517065.1	-0.006430531	0.005173523	0.005087436	-0.007366302	-0.006072062	-0.0039127707	0.007047005	0.00484042	0.00079669844	-0.009599655	0.00029748087	-0.005523607	0.00048350584	-2.2922606e-05	-0.0051295124	-0.0062781796	-0.0073102145	-0.0055037695	-0.00835388	0.0044403155	0.009045133	0.008375867	0.0067789555	0.008423756	0.0021308921	-0.009054084	0.004065751	0.008231841	0.0066938405	-0.004716772	-0.002553581	0.003237612	-0.0036987497	-0.005963144	-0.0041836076	0.00048466976	-0.003364019	-0.007956551	-0.0036259673	-0.007913217	-0.0033219536	-0.0067261113	-0.0021586488	0.0033113838	0.008651929	-0.0041892366	-0.0017687221	-0.002994143	-0.008547466	-0.007221559
GCF_000521505.1	0.0015753933	0.00391913	-0.004519351	0.0056020315	0.008974544	-0.004384659	0.007575959	-0.0022347365	0.0072536976	-0.008844711	0.0029222097	-0.0012847325	-0.0061849323	0.0026010869	-0.0075029396	0.009823898	-0.002576035	-0.0037636836	-0.0023670618	0.007436893	-0.008060003	6.0911032e-05	-0.008436535	-0.0010894755	-0.0050257	-0.0070386883	-0.002462669	0.0016767866	-0.0014056856	0.00747274	-0.0073693227	0.004424769	0.00088486436	0.00091440516	-0.0025288502	-0.0057103517	0.0034213394	-0.0017690203	-0.0006384262	-0.004138355	0.007733687	0.009136814	0.0043051336	0.007403866	-0.0054221745	0.0064411084	0.00937019	-0.007857633	-0.0077115	-0.0026060354
GCF_000585335.1	-0.0060899123	0.003048525	-0.0004959234	0.00021405808	0.009669537	-0.0032990752	0.0013386668	-0.0036134117	0.0028195004	0.0046508415	-0.007958264	-0.004074825	-0.0024977394	0.009264479	-0.0039809444	0.0057741073	0.0062943515	0.0063544232	-0.0022677085	0.003952158	-0.0048005185	0.007241489	-0.0022329849	0.008137712	0.008743603	-0.006072333	-0.002886705	-0.0007452927	-0.0003771249	0.0044811876	-0.0061526545	-0.004824654	0.0015292041	0.0066662338	-0.0050823577	0.00021467234	0.0028114943	-0.00081081904	-0.0074921716	-0.008192522	-0.0012438224	0.0011174979	-0.0011924857	-0.006591307	0.0064031193	-0.0059831063	-0.004950022	0.008278082	-0.0012489164	0.003988835
GCF_000612705.1	0.0032015326	0.00815836	0.002495693	0.0050551854	-0.006236288	-0.001342821	0.0057717143	0.0038011037	-0.00977126	0.0058522383	-0.004015092	-0.00045675496	-0.0048870845	0.002580203	-0.008721436	0.0074475836	-0.00085582887	0.0040691104	0.008704164	0.00046159755	-0.007243993	-0.002977635	-0.0047570774	-0.0057732495	-0.005843453	0.0016129512	-0.0057378667	-0.0032692587	-0.0003765254	0.00079084164	-0.008599656	0.009917197	-0.0011144415	0.0033398592	-0.007979083	-0.009802387	-0.008996853	-0.008780904	-0.0004503167	0.00015089475	7.52749e-06	0.0008785278	0.0017754528	0.00017427614	-0.00073513977	0.0060163126	0.003527131	-0.0013518305	-0.008286819	0.0027187949
GCF_000614895.1	-0.004558483	0.008708671	-0.0030637123	0.0026232107	-0.00999274	-0.008835644	0.0011933671	0.0015013077	0.0056119584	-0.0026459664	0.008798675	-0.002294601	0.009850423	-0.0031806694	0.007275072	-0.0030263371	0.009802487	0.007064314	-0.00036704534	-0.00950166	-0.0060000774	-0.00876547	0.007621996	0.007832625	0.0095920125	0.00809251	0.009774438	-0.006970229	-0.00037803937	0.0006816516	0.0029078086	-0.0046875873	0.009115774	0.0092056785	-0.0025778792	0.009640048	0.0057869283	0.007359502	0.0073402943	-0.0011081791	-0.0035095382	-0.0052294224	0.008195746	-0.0066729076	-0.0038166845	-0.004108298	0.008991717	-0.00932866	0.004916296	-0.0074568503
GCF_000688435.1	0.003373401	0.00916809	0.004646635	-0.0070839473	0.0035949727	0.008220478	0.005525169	-0.0024688735	-0.0023555655	-0.0007389293	-0.006446788	0.002581673	-0.009987981	-0.0023596284	-0.0015136143	-0.0043390235	-0.0071311286	0.0003931171	-0.002648547	-0.0073939194	0.007087985	0.007002641	0.007412083	-0.004077175	-0.0060601803	-0.009647675	-0.0071177096	-0.004269637	0.005910407	0.00914023	0.0038274243	0.0075643826	0.0062277815	0.009025313	0.0033987628	-0.0058460147	-0.0019940604	-0.0043509053	-0.0053544426	0.002162867	0.006859574	-0.0015588329	0.009527108	-0.0006701206	-0.00430722	-0.004197581	0.0063838935	0.0036896989	-0.00805116	-0.005344287
GCF_000695895.1	0.0072660525	0.009336658	-0.004054971	0.00047456304	-0.005348376	-0.004974177	-0.0069666174	0.0033984217	0.0044166073	-0.005643954	0.004787925	-0.0063498304	-0.0016316739	0.0035921133	0.0032703013	-0.005884474	0.0014562794	-0.0009786749	-0.004833918	0.0007107513	-0.008945339	0.004007432	0.00832846	0.0035351606	0.006712779	-0.005751593	-0.003414069	-0.009241328	-0.006044489	0.001496676	0.007989071	0.007516307	0.0082281465	-0.0077679656	0.006822273	0.00998945	-0.009724096	-0.008346528	-0.009066334	0.007898476	0.001393469	0.005837736	-0.00018445536	0.0016009526	-0.0027325677	-0.009504482	0.0056502633	-0.0016561709	0.008121135	0.00937611
GCF_000712295.1	-0.007085046	0.0025873506	-0.007523502	-0.009648596	0.0010872679	-0.001791958	0.0017981336	-0.005864856	-0.008178329	-0.0014265584	-0.0045722625	0.001516726	0.0056465403	-0.0077089327	0.0034018042	0.00345322	0.008108362	0.0048443535	-0.00044171038	-0.0021106126	-0.008913737	0.008259409	0.0043876725	0.0018919305	0.00089216675	-0.008151748	-0.009152059	0.0037545413	-0.005994	-0.00741794	-0.009930036	-0.0069678854	0.0027805525	-0.00589027	0.009100661	0.0018579848	-0.005520466	-0.0064475094	-0.0015718769	-0.0043619587	-0.0016900654	-0.0051697553	-0.0035559228	0.0010795438	0.00070210756	0.0010582083	-0.0023357344	-0.0010512659	-0.0057163304	-0.008759391
GCF_000741485.1	-0.0035262527	-0.0099693155	0.0021316395	-0.0051938402	0.00010102449	0.0027752812	0.004905472	0.008084492	-0.007944731	0.0007295013	-0.004813696	-0.0010089632	0.00041777376	0.0037179114	0.005563159	0.006112673	0.0015162891	-0.00040815535	-0.0073568895	-0.0010739571	0.0013715829	-0.0027463052	-0.005750523	-0.007164946	0.0069511333	-0.0059455168	-0.0013466112	-0.004307239	-0.004169841	-0.00054393266	-0.002270603	0.00064389844	-0.00088463945	-0.0023942995	-0.00090891257	0.0046012322	-0.004657728	0.0043770764	-0.005938134	-0.0058606085	0.0029650822	0.0029730343	0.0037312615	-0.00683571	-0.0010385409	0.0041157305	-0.0061758687	-0.006447335	0.0006054108	0.0031539411
GCF_000741645.1	-0.006994705	-0.0045551746	-0.004620967	0.005946084	-0.0017436931	-0.0009272108	0.009233428	0.0035404945	0.0057379976	0.0011711873	0.009826154	0.000195558	0.0016616147	0.0075811394	0.0048743314	0.008080928	-0.0022586223	0.009948581	-0.0060479706	-0.0030184798	0.0056658834	-0.0016524533	-0.007404985	0.007584054	-0.008815754	-0.007886568	-0.003081061	0.0056501273	0.0073467935	0.006675581	-0.005054596	0.004615758	0.0014817734	-0.006783395	-0.009208922	0.001130294	-0.0023100863	-0.002275716	0.008742822	0.007099295	0.0071799015	-0.009998365	0.0047852355	-0.007085548	0.004452376	0.0021986207	-0.00100656	0.007430365	0.0044352193	0.00022523844
GCF_000741775.1	-0.0046918695	-0.008115808	0.0027935482	0.007067977	0.003917387	0.004621865	-0.0015701164	0.0012677911	-0.0074455086	-0.003784973	0.00603071	-0.008918135	0.0021435074	0.008806762	0.008363609	0.007181249	0.009214252	0.00039516567	0.001126668	0.00528453	-0.0043583643	0.0053435164	0.0053263716	-0.008396724	-0.009067204	-0.003786116	-0.0056795776	0.008735678	0.0032284555	-0.0069839633	0.007985568	0.006082234	-0.004833534	0.0003782175	-0.002222688	-0.006676736	-0.005689784	-0.00984194	0.0031055603	-0.0059909034	-0.009022855	-0.009779382	0.004203827	-0.001812901	0.0041748593	-0.0040295487	0.0014960873	-0.0064321407	-0.008453983	0.009385153
GCF_000771185.1	-0.001968387	0.0011393593	0.004696008	-0.009674515	-0.0032339	0.0026645088	-0.005635165	-0.009364478	-0.0010223918	-0.006872943	-0.007485898	0.004380102	0.0068945973	-0.0074638613	0.005344674	-0.0070597683	0.0017799136	0.008475045	-0.0047521754	-0.0039472044	-0.006867308	0.0068434067	0.0034180966	-0.00039813545	0.0071565215	-0.0033481247	-0.009678689	-0.0032015196	0.0028907557	-0.008557661	0.0038079526	-0.002756264	0.0002135958	0.007869121	-0.008992104	-0.0058352826	0.004674339	0.0038116474	-0.0046537435	-0.0006340327	-0.0074018	-0.0055362317	-0.006647516	0.008807401	0.008416226	0.0092112245	-0.007869162	-0.008243882	0.0016608849	0.0019572882
GCF_000771245.1	-0.0018127819	0.00077795377	-0.007829055	-0.007983761	-0.0073836436	-0.0068974267	0.0065343035	-0.0034319174	0.0009680864	-0.0050612777	-0.0061655534	-0.007929425	-0.0016366629	-0.007509549	-0.0052936156	-0.005021501	-0.0035101022	0.008567371	0.009809376	-0.0032666854	-0.00013295094	0.0064393533	-0.009062192	0.00654836	-0.004321912	0.002727567	-0.005685162	0.009780628	-0.0034426346	-0.0032799458	-0.005573566	-0.0050027277	-0.00824223	0.004381736	0.00640148	-0.0055926978	-0.008766003	-0.0035396153	-0.00040625446	-0.009127192	-0.009392648	-0.0033245266	-0.005016414	-0.0019818111	0.0026317802	-0.009374931	0.004823804	-0.0012026045	-0.0050197053	0.0068258694
GCF_000816205.1	0.005301066	-0.0011753642	-0.0046551977	-0.0059702136	0.005727047	-0.0052860235	0.0086131375	-0.0067946403	0.0099645015	-0.00797301	0.009961578	-0.0043767565	0.005053593	0.004007933	-0.0026075256	0.0031436982	-0.00081232295	-0.0016330102	0.0056093615	-0.00038950326	-0.0070996387	0.008913019	-0.006973902	-0.0024707944	-0.009067094	-0.0002875032	0.0061120344	0.009210106	0.0031076686	0.00061984814	-0.00037069133	0.0010446159	0.0035295505	-0.0037360156	0.008648143	-0.004612724	-0.002419148	-0.0019440922	0.00046356412	0.00050469115	-0.0038840189	0.004202897	-0.0083335545	0.0015875257	-0.006675671	0.009429658	0.0026946336	0.0012731268	0.0042535723	0.00863814
GCF_000817045.1	0.0074929	0.0009001826	0.004878107	0.000522535	0.0077821678	-0.0055328887	0.0073078806	0.0052037216	-0.003429462	0.004129601	0.0042896485	-0.009239641	0.008555329	0.0021055609	-0.0049356427	-0.0013993026	-0.007869634	0.0073042936	-0.0043730484	0.007554767	0.0057451334	0.0020520021	0.00675107	0.0006653099	-0.0015623444	0.0030132104	-0.001370679	-0.0041974667	0.004015901	-0.008756289	-0.0066066585	0.0040597557	-0.0018209177	0.0059706154	0.00622869	-0.0019318328	0.0017103716	-0.0003921897	-0.0038641104	0.001983714	0.0042955894	0.0018133468	-0.003072283	-0.00332294	-0.009401412	-0.0035583877	0.004779704	-0.00368729	0.008695706	-0.0031547502
GCF_000818055.1	0.0022488039	-0.0011707718	0.005370304	-0.008850515	-0.00597765	-0.0009685398	0.002296633	-0.009397266	0.009868988	-0.0018386141	-0.00018404702	-0.008457847	0.002888931	-0.0010129554	-0.0037195892	-0.005485555	-0.0053032776	-0.007848443	-0.0074393647	0.00016416555	0.008345494	-0.0011576033	0.0077511836	-0.0073506082	-0.007787998	-0.0029458504	-0.004030992	-0.006493992	-0.008438552	0.0067303004	-0.005904231	-0.005959418	0.0097026	-0.0013660841	0.006249437	0.0059306496	0.009941188	-0.0028251926	-0.0022251236	-0.0030668548	0.0057998896	0.009682964	-0.008459158	0.004432791	0.0013779581	-0.0025163349	0.005520351	0.0015176137	-0.0037047258	-0.0085582705
GCF_000819445.1	-0.0028871798	-0.0027841032	-0.007910784	0.005381049	0.009122835	-0.00999517	0.008943507	-0.004907074	-0.00587882	-0.0046418263	-0.009393581	-0.0029080794	0.009009927	-0.0014599937	0.002894575	-0.0026554489	0.0041717445	0.0038566308	-0.0028857815	-0.0012572405	-0.0031456323	0.0015131987	0.0055769794	-0.000773863	0.0054048095	0.0044822213	-0.006706032	0.004685381	0.0057693482	-0.0039548953	0.007891398	-0.0043634796	-0.0071635027	-0.0049228533	0.008305589	0.005786654	-0.00825437	0.006811962	0.0036779966	0.0077139623	0.0034881178	-0.0015954338	0.0025495733	-0.0056683584	-0.007782193	-0.0041651386	0.0039748345	0.0029704915	0.0050875703	0.004872057
GCF_000835165.1	-0.0055931755	0.0046889805	-0.008078672	-0.0006955848	0.00070912257	-0.009507413	0.00034143758	0.0015613465	0.00020007572	0.006683235	0.0085834125	0.005618858	-0.0024716938	-0.008807799	-0.0012247002	-0.008922563	-0.009174907	-0.005890314	-0.0002532831	-0.00265017	0.00043229823	-0.006313686	-0.0015422924	0.0054985895	-0.0007644143	-0.0017579836	0.0066598617	-0.0008865312	0.0039065527	-0.0018766283	0.00642684	0.00082893256	-0.005901805	0.0027121212	0.004778853	0.008084147	-0.008438625	-0.007624444	0.0056174626	-0.0039005093	0.0076596164	0.00027637204	0.0032372605	-0.0027387412	-0.0002066746	-0.0037642785	0.009519169	0.00936038	0.007942431	0.002392307
GCF_000943545.1	0.007222786	-0.002803261	0.008095357	0.0027689727	0.00039353006	0.0029530372	0.00036771578	-0.009770475	-0.008123553	-0.00677033	0.0026292258	0.005972251	0.00920558	-0.00014943235	-0.009171802	-0.0055339364	-0.0042764707	-0.0034532258	-0.009555694	0.00043037813	-0.002907062	-0.009699323	0.0016672388	-0.0003406766	0.004938633	-0.0012357638	0.0022506977	0.0005184315	-0.0052041523	-0.0032192094	0.008894415	-0.0035001698	0.005579088	0.0005267163	0.007865966	0.0044792853	0.0075208494	-0.0071552168	-0.009951208	-0.000599838	-0.005617473	0.009956475	0.0044387416	-0.008895074	0.0008117935	-0.0003390677	-0.008048017	-0.0025402284	-0.00061751256	0.008525239
GCF_000974365.1	-0.0041981926	0.004501385	-0.00046453078	-0.0019919423	0.0061863433	0.0006627036	-0.006093499	0.0031247747	-0.0064982437	-0.009762312	0.007544373	-0.005583861	0.003479589	-0.0036975883	0.0011450091	-0.0024161553	0.008497806	0.00028721322	-0.0072612525	0.0077411276	0.009383915	0.009473991	-0.003596412	0.007061094	-0.0069798846	0.0012888184	0.005837661	-0.0022263408	-0.005200252	0.0061682407	0.001010559	-0.0038097943	0.008221532	-0.007328174	-0.0020266436	-0.008722002	-0.0035978665	-0.009996371	-0.0049358127	0.0075945817	-0.0065137437	0.004863128	-0.00038451047	-0.003410033	0.0011147701	-0.002870595	0.0006828899	0.003549672	-0.0011759372	-0.004810937
GCF_001021045.1	-7.866361e-05	-0.0076366123	-0.0031726416	0.006469807	0.0032746887	-0.0021311117	0.0071932552	-0.009133266	0.0054892474	-0.0036468594	-0.0045424826	-0.002117006	0.0046980116	0.0041565592	0.008076532	-0.0003825322	-0.005609679	0.0094005335	0.0038785331	0.0026804565	0.0035137157	-0.0086620785	0.007816659	-0.0067125093	0.0034335705	0.00016945713	0.008748182	-0.008034691	-0.0075806095	0.005023469	-0.0009490465	0.005141819	-0.0013466699	0.0079672	-0.0032631618	5.6145203e-05	-0.0028344437	0.003965327	0.00086375204	0.0019357011	-0.0075730258	-0.0069306795	0.0012165135	-0.00015504334	0.0055560176	-0.0075427555	-0.008688802	0.0021905478	-0.0070312736	0.006973944
GCF_001039715.1	0.0035867752	-0.0037992327	-0.0013580634	0.0077800537	0.0074609243	0.0041407216	0.009260891	-0.0025145514	-0.0040189265	0.0023030196	0.002614185	0.008524129	-0.00020899235	0.004281401	0.0022659525	0.0026772756	0.00059175276	-0.007795309	-0.0070243203	-0.0015543654	0.0036490825	-0.0037342806	-0.0035178445	0.0070909807	-0.0036149165	-0.0011944404	-0.0075726705	-0.0011744931	-0.008214855	-0.009066347	-0.0043666484	-0.00045681174	0.0019730045	0.00756587	0.0061245244	0.0063493717	0.0009662185	-0.009204499	-0.002283125	0.004082681	0.00542867	-0.0016824969	-0.0012562447	0.009394821	-0.0042612096	-0.0021012952	0.0023021144	-0.00028120365	-0.0051083	-0.0021174743
GCF_001053765.1	-0.0068419958	-0.0026563355	-0.006991309	-0.0019453637	0.0008384715	-0.008677698	0.0060695796	-0.0026537618	0.00710228	0.002555094	-0.00018597355	-0.0046499013	0.00012999156	0.0049606245	0.00557186	0.0054271575	0.0023031805	-0.00024597306	0.0050361827	0.0009821928	-0.008116009	0.004220527	0.0054453793	-0.0031141501	0.005667256	-0.0060700383	-0.005667784	-0.006487523	-0.0084753	0.008155033	-0.0066785943	0.009386177	0.00863809	0.0012388701	-0.0033663153	0.009727858	0.0034815448	0.0017540962	0.008874891	-0.00034364717	-0.0029146073	-0.0072105816	0.0064194067	0.007671822	0.0009460445	0.0016168498	0.001357779	0.007825968	0.006029284	0.0057757786
GCF_001056295.1	0.009566404	0.000120402125	-0.0075835926	0.0061083077	-0.0020296955	-0.004815803	-0.0026467163	0.0065653455	0.0034238715	-0.007684709	0.0030329868	0.0034226659	-0.006756247	-0.007767926	-0.007249624	-0.002958149	-0.0040607345	0.003598768	-0.005275426	0.0059928657	-0.008751145	-0.0024080197	0.0046848985	0.007266848	0.0012482248	-0.006064448	0.00053639355	-0.009834002	0.005564832	0.0020828315	-0.009560234	-0.009261164	-0.009891671	-0.004543081	-0.0045425245	0.004807228	-0.0038759022	0.008295161	-0.0020303475	0.0007380265	-0.006065692	0.0019265794	-0.0042936713	0.004648163	-0.0015805591	-0.005656844	-0.0068897535	-0.0048142453	0.008141061	0.008033233
GCF_001263835.1	0.0008536003	0.0087372735	-0.0032127313	0.0047400813	0.004784638	-0.0011765964	0.004535389	-0.0034269444	-0.005929722	-0.0021942114	-0.0070618405	-0.0006700226	-0.003478503	0.0019772565	0.006726723	0.005267418	-0.0015899423	-0.0016161975	0.0026122325	0.005706907	0.0024414153	0.009368053	0.009806042	0.0023170009	-0.0023499264	0.0013728094	0.0048590405	-0.0033237517	-0.001371827	0.0029633206	-0.008910229	-0.0089091575	-0.008725119	-0.0060041333	0.00060913514	0.0045083617	0.00070648745	-0.009903408	-0.0035465893	0.009501567	-0.0050132754	-0.0052603674	-0.009927232	0.009961764	0.00073514046	0.0077282246	-0.009776624	0.0073117022	0.009447334	-0.0051378477
GCF_001263865.1	0.0060169166	0.007641305	-0.0043474496	0.004311881	-0.0006445923	0.0023568969	-0.0010695623	-0.0023582908	0.0074773347	0.0061347275	-0.003888443	-0.008704303	0.0074151484	-0.0055297418	2.0929307e-05	0.008315833	0.0033559233	0.008834632	0.008989251	0.0006342067	-0.005962416	-0.008091269	-0.001999679	0.00032040026	0.0069048046	-0.0026722858	-0.0005449108	-0.0054729744	-0.009040067	-0.00960415	0.0037011455	-0.002043063	0.007997519	-0.008602728	-0.009018055	-0.0017332736	0.007452235	2.3262144e-05	0.0010253056	0.007782668	0.0021141896	0.0018075218	0.007273089	0.006503128	0.0013026391	0.0012869665	0.0058912574	-0.0044157943	-0.0010614768	0.0042530815
GCF_001263945.1	-0.004203231	0.0035545111	0.006642004	0.0052148965	-0.00019677076	-0.0057205283	-0.008605251	0.007819796	-0.0028488168	-0.003234779	-0.0073018246	-0.00790185	-0.0047602057	0.004554946	-0.005788475	-0.0034399233	0.0040205168	-0.0040804585	0.0019703375	0.0006247122	-0.0030216633	-0.0016776283	-0.0006000063	0.005821393	0.0011541852	-0.0059782513	-0.0058190846	-0.0076348153	-0.0013799882	-0.0020634735	-0.0068081133	-0.0075895377	0.0076868944	0.0023356976	0.008064685	0.0031066395	-0.0023537264	0.008785314	-0.0067854635	-0.009909433	-0.003397297	0.0068521607	0.0020277014	0.007182007	0.0037823927	0.009881414	-0.0097729685	0.0025029657	-0.009930784	0.00024171623
GCF_001263975.1	0.0036093015	0.006597552	0.006431868	0.008109508	0.0013461775	0.008133408	0.007022331	-0.002215945	-0.00890353	-0.004101378	-0.0047276667	-0.0016418004	0.00083418086	0.009474606	0.0010950961	0.009216715	0.0007488882	0.0038157671	0.009625434	0.007390782	-0.0010837753	-0.008239869	0.006007969	0.0060855555	-0.001654683	0.001116367	0.00066459563	-0.009682714	-0.004579587	0.00067887834	-0.005425174	-0.00063952385	0.0026070585	-0.007058803	0.0059480346	0.00418356	0.00787918	-0.0050870907	-0.0033415735	0.0011851195	-0.0023369116	0.004606755	0.007901207	0.0010128246	-0.0008672201	-0.006971485	0.003910521	-0.0072201383	0.0048615183	0.009161608
GCF_001263985.1	0.009858053	0.0047841766	0.008386481	-0.0024925922	0.00062548765	0.006217988	3.4198703e-05	0.006216113	0.00021690853	0.0045118085	0.0050850487	-0.003757191	-0.009954329	0.00083066884	-0.00067134615	-0.008417549	-0.002556162	0.0036660247	0.0014685296	-0.003925195	0.00342359	-0.003083613	0.0038021666	0.0010941593	0.009334531	-0.0088878395	0.008849541	-0.0026145752	-0.007230721	0.0055484204	-0.006742875	0.008516524	-0.0016885002	-0.0067152097	0.00051154004	-0.007942911	0.00088199275	0.0054464396	0.0045338636	-0.0064363307	0.008311934	-0.0017599802	0.0070144017	-0.0032459926	-0.005995698	0.0056509147	-0.006687535	-0.006871891	-0.003812293	0.003883608
GCF_001264015.1	0.0018852486	-0.00629758	0.00029805978	-0.004686571	-0.006886593	-0.0037446606	0.0073714936	0.006553114	-0.0061898655	-0.0048688115	0.004931355	0.00942243	-0.0077489014	0.008605277	0.0042132046	0.009309724	0.00108786	-0.00938468	-0.0077638063	-0.0034795338	0.0030994497	0.0066487654	0.0004053178	-0.006107168	-0.002434381	0.00096122606	0.004699335	0.009848237	0.008894868	-0.006724543	0.006705218	0.009646839	0.0050889477	0.0002673422	0.008577551	0.009376171	-0.008228883	-0.008038717	0.0025922444	0.0025177496	0.004327382	0.009263555	0.0030889239	0.0031519341	-0.0054887272	0.00796515	-0.0013008652	-0.0054989695	-0.007335987	-0.0026486877
GCF_001264055.1	-0.00033941682	0.0032728473	0.008875948	-0.00033631825	-0.0009938737	0.0046262434	0.0015700228	0.008543836	0.00842558	-0.009856734	0.008205778	-0.00026319394	0.0031996234	0.0013614872	-0.0058533736	-0.0037321204	-0.0012871439	0.003936493	0.0065572737	-0.004917651	0.0040098643	-0.00229269	0.0042739636	0.006695088	0.0019164046	0.0063486123	-0.009689621	-0.0037699835	0.003958851	0.004789659	-0.0029398473	-0.0015609224	-0.008124529	0.009579747	-0.005285848	-0.0076934216	0.007793374	-0.0074483715	0.00077038526	-0.002140097	0.005634831	-0.009271935	0.005571398	-0.0017017651	-0.00015657167	-0.009253677	0.00015898338	0.0049897484	-0.0019657842	-0.009704859
GCF_001310955.1	-0.009728188	-0.005893849	-0.007518133	0.0021101406	-0.007008183	0.0010851828	0.008419483	-0.008285286	-0.0065295906	-0.002260406	0.0005007843	-0.00016640144	0.0091352295	-0.0013600553	-0.0034587139	0.006618873	-0.009276682	-0.0089285	-0.0025181556	0.0030492009	0.0070022712	0.004305456	0.0022090306	-0.002876841	0.005537617	-0.007238766	-0.008778725	-0.0046989913	-0.005226341	0.0053137946	-0.009509814	-0.009236397	-0.00022037674	-0.0051158643	-0.008185257	0.00845982	0.0038264208	0.001597306	0.002230196	-0.0003387541	0.008712976	-0.0041256654	0.008324708	-0.0063371696	0.006537655	0.004182856	0.004462783	-0.003807633	0.0075592105	-0.006993657
GCF_001404575.1	0.0076765493	-0.0009687742	0.008154227	-0.0047649355	-0.009610304	-0.0067599397	-0.0015916831	0.0020859805	0.0031993177	0.0031896757	0.008802473	0.0015624266	0.00045493446	0.0016145251	0.0006118483	0.009260056	0.005930666	-0.009646602	0.0010683461	0.0068008807	-0.008821052	-0.0014209811	-0.0049492014	-0.0025175826	-0.0061945184	-0.0028213135	0.0045313756	0.0014476116	0.007036751	-0.0022356121	0.008982327	-0.0050831717	-0.0006609875	-0.0027993086	-0.0075145066	-0.009100065	0.007255229	0.0051131737	-0.004279167	0.0083254455	-0.0029100631	0.0031689403	-0.0028027433	0.0077860784	0.0057052765	-0.0041954955	0.0083293	0.009368512	-0.006073313	0.0017163727
GCF_001405515.1	-0.00828079	-0.0014992349	-0.00039712043	0.002950656	-0.005516281	0.0045573977	-0.0020041203	-0.007507001	-0.00096270494	0.0028145565	0.004339265	-0.0037633723	0.0045906524	0.0053840578	0.003175439	-0.0014856451	-0.0058117704	0.0036286775	0.0042835553	-0.007632585	-0.009588639	-0.0029396378	0.008612862	0.005386142	-0.0050569396	-0.0015779001	0.0048088143	-0.0032202674	-0.0054286025	0.0003566938	-0.004941751	0.0033709297	-0.002448666	-0.0012323289	0.009292783	0.004082458	-0.0001766153	-0.009179699	-0.0054814457	0.0075256894	-0.009322944	-0.0027456474	-0.000326984	-0.0040687416	-0.007855822	0.0034964585	0.0064822943	0.0011780097	0.0010571405	-0.00026438842
GCF_001405955.1	0.004497811	0.0015124462	0.0021456112	-0.0067708925	0.008594164	0.005372419	-0.0036958314	0.0055556847	-0.0031300143	-0.00928554	-0.0010604751	0.0047666314	-0.0072064986	-0.004449821	-0.00249832	0.005186422	-0.00722438	1.7688693e-05	-0.0043039387	-0.0029661504	-0.0040838784	0.0038062166	0.009613143	-0.0024627736	-0.007421823	-0.006600842	0.009558961	0.0009213564	-0.0030101237	0.0034194721	-0.0042776573	-0.00025139304	0.0038307933	0.0028275226	-0.007828252	0.0066661853	0.0018764217	0.0045060082	0.0027471238	-0.0012967078	-0.004059192	-0.0027854394	0.00957452	-0.00927806	0.0092587685	-0.006659534	-0.00031358073	-0.007108404	0.006181455	0.0028517195
GCF_001535605.1	-0.0023184302	-0.005856747	-0.004483466	0.003324262	0.00039369985	0.0027951202	0.0060193227	-0.008604943	0.009158689	-0.008100347	0.007551982	-0.006784251	0.0019130941	-0.004743836	-0.006955479	-0.00033554703	-0.005985392	0.008103019	0.00650215	-0.006178898	0.0065617524	0.0042924536	0.005194875	0.006866267	0.008164021	-0.0025461393	0.0026789308	-0.0017509934	-0.009731739	-0.0009255722	0.0012811208	0.004305124	0.00689935	-2.8344513e-05	-0.007863973	-0.0058053248	0.0035205542	0.007874259	-0.0041708522	0.006819777	-0.0068377326	0.0012964088	-0.006057886	0.00783658	0.0024957133	0.0049132793	-0.004469243	-0.0023668006	0.0064602257	0.0045089293
GCF_001551835.1	-0.00032976328	-0.004285597	-0.0058364007	-0.00052884384	-0.0006011606	-0.009853638	-0.0060675037	-0.007413566	-0.0011424983	0.0014040607	-0.006559264	0.004591832	0.0098186275	0.0063868975	-0.0048076506	0.008983508	0.007877076	0.008493378	-0.009069812	-0.0016955162	0.001277961	-0.0015652105	-0.0073206527	-0.0054124286	0.009570524	0.0035648916	0.009804674	-0.0061334176	0.007041557	-0.009253123	-0.0025393723	0.00017794454	0.0074056196	0.00088458305	-0.007439127	-0.004379297	-0.008992418	-6.784937e-05	0.002400492	-0.00488272	-0.0006841327	0.0013901021	-0.003407843	-0.0007289462	0.0015613752	-0.0047113537	0.0019573933	-0.0058812746	-0.0019752006	-0.0076499972
GCF_001571025.1	0.0015670767	0.0033645942	0.0019183187	0.0063966843	-0.007475635	0.009205922	0.00805138	-0.0030673647	0.008351382	0.008923212	-0.0034416355	-0.0048097777	-0.008049657	0.0011177715	0.0048284894	-0.0010284844	0.008776467	0.00580185	-0.007863868	-0.00056579104	-0.0024174124	0.0077569885	0.0034066334	0.005257015	-0.00872592	0.0010300986	0.008691527	-0.0017528395	0.008436899	-0.009324222	-0.008373266	-0.003364046	-0.004617951	0.009775517	5.64705e-05	0.0069283834	-0.009546728	0.0038619665	0.005991329	0.0051822504	0.0006334225	-4.8306545e-05	-0.0053416975	0.0007757458	0.0035772792	-0.0070649353	-0.00044092667	-0.0030802798	-0.0010898715	-0.0091532385
GCF_001571425.1	-0.0018047773	-0.00097471825	0.003946108	-0.00807601	-0.008420038	0.0014112807	-0.0009965326	0.0023943915	0.0026693775	-0.0059705935	0.004393346	0.0036562644	-0.002561736	-0.0032922288	-0.009862056	0.0053806067	-0.0032263123	-0.007213782	-0.00023647894	0.0070563015	-0.009716477	-0.0064546247	-0.004300599	0.009729915	0.0035654642	0.0019963887	0.00036320256	0.008290061	0.001040998	-0.008681214	0.0048873387	-0.0021014581	-0.004242768	-0.008685387	0.0009871618	-0.006474247	0.005200687	-0.0048911143	0.0011176927	0.0023112628	-0.004844056	0.0064936923	0.004073768	0.0009774591	-0.008641613	-0.0039546145	-0.008132959	0.007272359	-0.0041433945	-0.0051898733
GCF_001652705.1	0.004513015	0.0074773445	-0.0040518017	0.004914432	0.0058221985	-0.0049561653	-0.0012090215	0.0050487267	0.0037649954	0.0034679607	-0.008797528	0.009851115	0.005064154	-0.0018088471	-0.0045415424	0.005640743	0.008643909	-0.009843713	0.008579371	-0.00890526	0.0017422995	0.0069266493	0.00636564	0.004051153	-0.008074591	0.003297103	0.009619366	-0.0034053843	-0.0049534757	-0.0029098098	0.0013597291	0.0033017853	0.00046747964	0.0010308857	0.002594942	-0.0012639455	0.008656111	8.834204e-05	-0.003558923	0.006287128	-0.0051287226	-0.005352654	0.0012299275	0.009118986	-0.00062724866	0.0076570376	-0.007103877	0.0061214603	0.0027539656	-0.008673502
GCF_001678855.1	-0.008656274	-0.0029250279	-0.004806014	0.0031370532	-0.0029229675	-0.0060585956	0.007127347	0.0051289736	0.008374617	-0.005619195	0.009655039	0.0042800424	-0.0074687414	0.007560535	0.0012462976	0.006950281	-0.00066116307	-0.005068952	0.008385924	0.0011183809	0.005099528	0.008591245	-0.006829483	0.0012019139	0.009874215	0.0040757335	0.0038771557	0.009567216	-0.0006074572	-0.0055150823	0.009577808	-0.0014329969	0.007317796	0.00044586448	0.0010580376	0.004926025	0.008488234	-0.0025281077	-0.00814838	-0.006748978	0.0034452514	-0.0045506647	0.006396957	-0.0067360117	0.003217509	-0.005224309	-0.006709779	0.0022075318	-0.0021886616	0.0023073447
GCF_001688645.2	0.0008664181	0.008668281	0.007591814	0.009044435	-0.0020118176	0.002556894	0.008501188	-0.007167912	-0.004014955	-0.0037008899	-0.0062399097	-0.007106192	0.005550622	0.0017003834	0.0076892134	0.0075304927	0.0050173416	0.004429193	0.009156815	0.009062546	0.0050483732	0.003083351	0.0010074074	-0.004981401	-0.008388185	-0.0022908007	-0.0037336855	0.0066231317	-0.0049130353	0.0038840072	0.009318649	-0.0060065323	-0.0028807805	-0.0021199004	0.002448821	-0.0056094066	0.0026657737	0.0017344379	-0.005123388	-0.0014378866	0.00923431	0.003947782	-0.008367832	0.0006517979	0.009043857	-0.0037747144	-0.006873691	0.0003720028	0.0064302622	0.0020331999
GCF_001701045.1	-0.006558228	-0.0064616427	-0.0038925593	0.0070567164	0.0033461554	0.0061223446	-0.004604806	-0.004171569	-0.004233238	-0.005000029	0.008831159	0.0088289	0.007186631	-0.0027169215	-0.0041972646	0.0038832126	-0.005372897	0.0093774395	-0.0056823925	-0.0016836172	0.005183435	-0.0017527574	0.0076135006	-0.00020180421	0.0029829335	0.0040917154	0.0090420535	0.0077995467	-0.0026822486	-0.0011890722	0.0036830374	0.004181095	0.0018388942	-0.003310494	-0.009472135	0.0025556474	0.006566257	0.0058022966	0.006481048	-0.008692865	-0.0015538654	-0.0058203675	0.0038970625	-0.002009907	0.007850458	-0.004141928	-0.007199932	0.007519383	0.0027480144	0.0038212196
GCF_001757415.1	-0.0034519036	-0.0077668675	0.003085769	-0.0016439388	-0.0031503055	-0.006574827	0.00024322681	-0.0063474146	-0.0015982097	0.0074761393	0.009466947	-0.006705459	0.0052303323	0.0039529367	0.009441518	0.0030424625	-0.009869033	0.0043347105	0.0060180463	-0.0021405974	-0.0054196888	0.0051979367	-0.0050447234	0.0052554463	-0.0030928566	-0.0057167923	0.005741138	-0.0015411511	-0.0050051217	-0.008743413	0.006221425	-0.008253436	-0.0054640113	-9.08226e-05	-0.009887074	-0.008483601	-0.0069966614	-0.0029913771	-0.001248033	-0.006593783	0.0023726136	-0.006767984	-0.0041455342	-0.0036673131	0.00045105699	-0.005583263	0.0015889236	0.0030772767	0.005493642	0.0054857642
GCF_001757465.1	-0.008150255	0.0017594169	-0.0038666355	-0.009335704	-0.0068135746	-0.0045975875	0.0047509247	0.0010003068	-0.008037453	0.009713613	0.0026614976	-0.0053460826	-0.00958083	0.004080973	0.0011313775	0.009124079	0.008323681	-0.0002905822	0.0055067837	-0.0013274401	0.009059852	-0.009934256	0.0026605257	-0.009628617	0.0053423997	-0.006150799	0.007831773	0.0042632953	-0.0075941468	-0.00083503796	-0.008572591	0.006669428	-0.006772632	-0.006740149	-0.0013129831	-0.006144071	-0.004314656	-0.0066401064	0.009957035	0.00936149	-0.0076054023	0.00026043042	0.008238894	0.007137809	-0.0053490135	0.009810091	0.0019514767	0.0015823214	-0.004657652	-0.00934288
GCF_001757485.1	0.006354401	0.0061227507	0.0025003755	0.007068258	0.0056209737	0.009101408	-0.0018937285	-0.008536736	-0.00015067855	0.006020721	-0.008003368	-0.006258747	-0.0002537749	-0.006936269	0.002690147	-0.002812298	0.0052163796	-0.008731412	0.00011428302	-0.0038487026	0.004022728	-0.0030726227	-0.007187783	-0.004866777	-0.00030884886	0.001632613	0.003974219	-0.0037699111	-0.0036885457	-0.009751959	-0.0061091264	-0.0069301897	0.005217282	0.0035985373	0.009319264	-0.009083756	-0.0067225248	0.00964935	-0.0010433379	-0.004882543	-3.265164e-05	-0.0030259425	0.00060103275	-0.009350772	0.009321504	0.0091397315	0.004013867	0.00023020538	-0.009044096	0.0010141337
GCF_001757495.1	0.008653341	0.008361033	-0.0058463663	0.0035966341	-0.009860399	3.784037e-05	0.0052416376	-0.006301497	0.0016832972	-0.008247319	0.0060312236	-0.0070491857	-0.0051562246	-0.0013705485	0.003781645	0.008860636	-0.0032089446	0.0049631097	0.0002647473	-0.008662559	0.006914526	0.0022303318	0.00014902158	0.0020386712	0.002762851	0.0066667204	-0.002089618	0.0025207752	-0.002346804	0.0057041515	-0.002277411	-0.008619581	0.00015178896	0.008805421	-0.009709995	0.0028648723	0.0014001081	-0.0022619336	0.0049024764	-0.0041704993	-0.009512018	-0.006771139	-0.004818887	-0.008339794	-0.0011480772	-0.0033302691	-0.0018013812	0.008226206	-0.004143839	-0.0072646234
GCF_001757565.1	0.00071746105	0.0052164234	-0.0047457265	-0.0033265583	-0.007184824	-0.0051286924	-0.00861679	-0.007386367	-0.00032931965	-0.009661482	-0.0056963833	0.00778161	-0.00954307	-0.0055367206	-0.0052285884	-0.008133289	0.008345032	0.006402247	-0.001216858	-0.0047590137	-0.0057188626	0.002990782	-0.0010065034	0.009214868	0.0051580956	0.0047978796	0.00912093	0.008815637	0.009484044	-0.00052682066	0.0034078804	-0.008581016	0.0037416518	0.0057049915	-0.0005010226	-0.008313816	0.0038982523	0.0009328047	-0.0011446826	-0.001962476	-0.008172403	-0.0032828436	0.002658154	0.0008626676	0.00093543046	-0.0028154436	-0.0034755133	0.001310768	0.008833666	0.008898931
GCF_001892925.1	0.009601032	0.00033087202	-0.007353141	-0.0022413302	0.0005202289	0.003383017	-0.0075920713	0.003859633	-0.00046369206	-0.005626024	0.0019109361	-0.008215859	0.007002542	-0.0058205947	-0.006515077	0.0035161958	-0.0025513784	-0.0077881278	-0.0059241084	-0.003334781	0.0074065216	-0.0064806268	-0.005780041	-0.0044898847	0.0042218366	-0.003428424	-0.0024523824	-0.008716905	-0.00085465953	0.00029123688	-0.00024122898	-0.0030343893	-0.0068125813	-0.008952018	0.0029811538	0.0018760907	0.004536383	0.0052283728	0.009592094	0.006158012	-0.0053642895	0.0010456276	-0.007908941	0.0019308508	0.004574217	-0.0032769085	0.0029705719	-0.008126034	-0.0011735479	-0.009493957
GCF_002078355.1	-0.0012083778	-0.0038616078	0.0067572678	0.0072001703	0.005614109	-0.0072953496	0.0014649002	0.009895168	-0.006115873	0.0014762401	0.0081682755	-0.003446885	0.005925068	0.0056856	0.0012090377	0.008386293	-0.00854181	-0.006914344	0.0041030617	-0.006160766	0.0007861755	-0.0015316173	-0.008517493	-0.008508381	-0.0043301187	0.0027200088	0.004505717	0.003571004	-0.0018048523	-0.0019510051	-0.008014404	-0.0036988407	-0.0066257603	-0.00022104787	-0.0077114427	-0.004538286	0.007906233	0.00036966664	-0.00083017716	-0.0005592082	0.0023595325	0.002222057	-0.0050670994	-0.008060411	0.002791966	-0.0069814892	-0.00080428214	0.005829704	0.007812155	-0.009863263
GCF_002201795.1	0.0073575946	-0.0080896625	-0.0023911174	-0.009040269	0.0018357943	0.0017260355	0.00969454	-0.008868699	0.0029831938	0.0076204385	-0.0073604607	-0.009344635	-0.00111998	0.0055379863	-0.0045258845	0.009444779	-0.009473877	-0.0010565524	-0.002989006	0.0038376367	-0.00044774445	-0.0046654157	0.009451071	0.0008258501	0.008810899	0.0018789399	0.0008046644	-0.009977606	0.006469852	-0.0024255554	-0.0044279224	0.00054810225	-0.0031002325	-0.00517251	0.006954903	0.007788188	-0.004365486	0.0035353522	-0.006523285	-0.0007373942	-0.0043002185	0.003714001	0.0011972794	-0.0014572864	0.0046558385	0.00091359724	-0.008777884	0.007163086	0.0039811563	0.0006332528
GCF_002220485.1	0.009252227	-0.00724898	0.002961762	-0.0015707155	0.007964195	0.0010673571	0.0007392833	0.0027054609	0.004663368	0.005284435	-0.009909719	0.008471261	0.00012677834	-0.005428756	-0.004748432	-0.002294735	-0.0028844196	-0.00766948	0.0045054313	0.009415815	0.009329633	0.0026595825	0.006323589	0.0067845457	0.00092400744	-0.00012114022	5.7064353e-05	-0.0004408496	-0.004105707	-0.005140995	-0.007997546	-0.0035133169	0.0036055127	-0.0010197411	-0.0034454605	-0.0038936092	0.009696465	0.006045719	0.008029113	-0.006494089	-0.008072856	-0.008157641	-0.005620358	-0.0072543775	-0.0073394123	-0.008565692	-0.0015523089	0.004275047	0.0033109083	0.0082242545
GCF_002221565.2	-0.008070594	-0.00318078	0.005027106	0.0013371399	0.0019334097	0.0022607585	0.00034741155	-0.0024019987	0.0033756658	0.0038072374	0.006849933	-0.0023513588	0.00058757525	-0.00036204825	-0.0045770174	-0.0037342734	-0.0068669776	0.008261431	-0.0053302557	-0.008867472	-0.0036782974	0.0060732123	0.004636635	0.0045069726	0.006506521	0.0012325745	-0.0017025005	-0.0034139575	0.0092495065	0.003844285	-0.0031437583	0.0032536224	0.0058461055	-0.0057935147	-0.002993896	0.007596047	0.009158605	0.008978301	0.008016945	0.003912542	-0.0072898366	-0.0051146247	-0.0058648065	-0.003138365	-0.0030539383	-0.00520609	0.0006182635	-0.0038106018	0.008603835	-0.0041268035
GCF_002222615.2	-0.008894245	0.005342991	-0.00018590777	0.0056732805	-0.007790636	0.005252953	-0.003025875	0.009952872	0.004307408	-0.009364139	-0.004445091	-0.009290384	-0.0067453063	0.0015992917	-0.0043992344	0.0033727165	0.0041261464	-0.00541618	-0.0011137523	0.007664474	0.0034850258	-0.0061647384	0.003767231	-0.009030167	0.007810187	-0.008228524	0.00037174777	2.3444013e-06	-0.006662725	0.008598832	0.00377905	-0.009767918	-0.009029395	-0.0042671557	0.0034730965	-0.0024127571	0.008364284	0.005100776	-0.008015985	0.006989232	0.0031364902	0.0047792196	-0.006208185	0.009299442	0.006153322	-0.0051684272	0.0022797044	-0.009977409	0.004664742	-0.007542905
GCF_002914815.1	0.0035369128	-0.0013278178	0.004406517	-0.006522309	0.0013330362	0.005540261	0.0035902276	-0.0036839298	0.0029877515	-0.008544225	0.008380534	-4.2764703e-05	-0.0037998774	-0.0054821987	-0.007272279	-0.0009961281	0.0028678433	-0.008890371	0.0043152226	0.003828475	0.0057400037	0.0016426198	-0.0003654216	0.007007341	0.003781159	0.0075642825	-0.0086900415	-0.006638807	0.0064223935	-0.0006785708	-0.0034152425	-0.0068247775	-0.008087244	0.0039914465	0.009509468	-0.0049273227	-0.009034965	0.0062473905	-0.005799818	0.00482719	0.0044581434	0.008309064	0.0074395	-0.0017928629	-0.006605111	-0.003365286	0.008349214	0.0007620902	-0.0007840286	0.0031339705
GCF_002914895.1	-0.0013975349	-0.001621025	0.002575275	0.0030168493	-0.009086488	0.004578438	-0.005436627	0.00034547818	0.0009125197	-0.0028967457	0.0050661066	-0.002127288	0.0004960903	0.0020520985	0.0013011483	0.0048532025	-0.00435405	-0.008468216	0.003686354	0.0028070014	-0.0037173913	-0.00025676546	-0.007243626	-0.0032012784	0.008270807	0.00195898	-0.008124068	0.0011884312	0.009105299	-0.009749317	0.009547523	0.005674681	0.007497432	-0.008847517	-0.0005836065	-0.0053964388	0.0023725478	-0.00802274	-0.009293557	0.0022347842	0.004728225	-0.0006904246	0.0070588286	0.0029357541	-0.002454581	-0.0006782909	0.004558004	0.0031276364	-0.0050044386	-0.002604261
GCF_002959715.1	0.0057299435	0.005607578	0.0032346474	0.009397181	-0.0042905267	-0.0027076975	0.009830594	0.0035501565	0.0075435243	-0.0031155099	0.0015620135	0.009500198	0.0007669891	0.008636939	-0.0041079526	0.00350196	0.0006300316	0.0067169946	-0.008211519	0.0075268885	-0.0063354257	0.009000793	0.0084275	0.006789219	0.008384049	-0.0046439553	-0.007934819	0.009828869	-3.927062e-05	-0.0018672989	0.008302875	0.0034904995	0.000231025	0.0032040018	0.0035325259	-0.0002547016	-0.008498991	-0.009373714	-0.0063071502	0.0027017873	-0.008976436	0.0056507494	-0.007067743	0.007842737	0.0046533495	-0.006271345	0.0019646022	0.0008348428	0.004693748	-0.004462875
GCF_003003035.1	0.0077926223	-0.0041603716	0.0009690709	0.00476567	0.0061839847	0.006413753	-0.008825958	0.0057038595	0.009340818	-0.006777722	0.0015438829	-0.0058372053	0.0040472685	-0.0040780506	0.005949594	0.003660866	0.0012733206	-0.0017913898	0.007840329	0.0034263944	0.005249542	-0.0071354904	0.0043293727	0.0018547171	0.00343002	0.007480153	-0.009696103	-0.008543587	-0.001256708	0.0029121453	0.009378101	-0.007958489	0.009742338	-0.007875638	-0.007744932	0.008544836	0.0007629921	0.0067420644	-0.0012293562	-0.004813198	0.004905381	4.74057e-05	-0.0012727089	-0.009641912	0.0026705314	0.002194483	0.009935041	0.006303271	0.008236846	0.00036419762
GCF_003030465.1	-0.006672683	-0.007897229	0.005833868	-0.008921145	0.0025762918	-0.004416636	-0.0039261756	0.0015241356	0.005512369	0.007519339	-0.003501506	-0.009248137	0.0032169605	0.006903383	0.008690692	-0.003188445	-0.005352873	-0.0010937147	0.006874592	0.003049972	0.0011374305	-0.0023734693	0.0035010786	0.002202824	-0.0033050524	-0.00094784755	0.0011131958	0.003001831	-0.0015478322	0.009009768	0.000894035	-0.008717815	0.0008252188	0.009523223	-0.0024753555	-0.004417768	0.0056571825	-0.0007552955	-0.0024903778	0.0040922626	0.008642648	0.0076253344	0.0034075943	0.006584909	-0.0005786264	-0.0011202404	0.0015778017	-0.0055569313	-0.0075882575	0.000920255
GCF_003094775.1	0.0075960294	0.0038510428	0.007561874	-9.552479e-05	0.007298647	0.009225804	0.0011960316	-0.0045118527	-0.0029361765	-0.0020045715	-0.008482095	0.0003345515	0.0031110486	0.0065179807	0.0021478424	0.009705338	0.0057350276	-0.008413109	0.0034575912	-0.0013665968	-0.009500135	0.0045003463	0.0048460993	-0.0023258787	-0.005379209	-0.0040527643	-0.0069340016	-0.0030879888	0.0074858563	-0.0006903831	-0.006622815	0.0021837219	-0.008485112	-0.00022597345	0.0012781224	0.00040621648	0.0017287374	-0.003795607	0.008641004	-0.0060253763	0.0069665955	0.0025134948	-0.0069965227	0.009661498	0.00022877869	-0.0036680917	0.0033861913	0.0072750906	-1.0164229e-05	-0.009011338
GCF_003094815.1	0.0054068724	-0.0031874347	-0.007786176	-0.0032443805	0.0033553236	-0.00827169	0.00094356353	0.0039112573	0.0003474506	0.0023236442	-0.007976742	0.0053618466	0.0047626644	-0.0011420377	-0.0072344793	0.005570432	0.004380788	-0.009664099	0.0019989249	-0.005398013	-0.005883741	-0.0035652812	-0.007169204	0.006345394	-0.004251609	0.0087416945	0.0045089307	-0.0043328097	0.007830665	0.008818744	0.0044363146	0.0001858595	0.006907835	0.0022119952	-0.007174852	0.009541959	-0.0014442973	-0.0049852454	0.004975036	0.0062669264	0.0024355548	-0.00024004251	-0.006319604	-0.006888162	0.004352292	-0.009310634	-0.0046381974	0.009114086	0.0009038547	-0.0047669336
GCF_003094835.1	0.0017535824	-0.0011107973	0.009926565	5.6392808e-05	0.00022137628	0.0081289075	-0.00090015103	-0.0013837657	0.0009858934	-0.008728293	-0.006133739	0.0055812337	0.005015931	-0.00041437164	0.0034239718	-0.0074975034	0.0021455314	-0.0008844556	-0.008012424	-0.008985216	0.0016254481	0.009193968	0.009846629	0.0049073207	-0.004493053	0.00044932147	0.0036445668	-0.004042099	0.0047431733	-0.0002071253	0.0088048335	-0.004244957	-0.005758347	0.004032288	-0.005539061	-0.0029344847	0.0034687696	0.00035492718	-0.00048027866	0.00067213865	0.0034550903	-0.0010867787	0.0071977186	0.0010739068	0.003367469	-0.00033895788	-0.0005093569	-0.0011648353	0.009903865	0.008408867
GCF_003094875.1	0.0043882877	0.0094105	-3.864968e-05	0.0056078862	-0.0047953683	-0.0040681413	0.0031864292	0.0067842426	-0.009200464	-0.003883768	0.0046487343	0.003771978	0.007625038	-0.0055825324	-0.0011691406	0.0061145183	-0.006520605	0.001685821	0.00038609194	0.0032669634	-0.0004979663	0.0019037859	0.0038908708	0.005748112	-0.00047475623	-0.0048588905	-0.0075573837	-0.008081473	0.0060633942	0.0070596104	0.0009344653	0.0015717399	-0.0032007638	0.0057488726	0.007060164	0.0040538097	-0.004201273	0.0027259425	0.002816102	-0.0025667506	-0.00931859	0.009838064	-0.0007754309	-0.008801696	-0.0007788931	0.000267676	-0.001998309	-0.0014944623	-0.005829116	-0.0045700176
GCF_003094895.1	-0.0091142235	0.006378514	-0.006014397	0.0071585625	-0.0031645284	-0.008085565	0.004245242	0.003723454	-0.00720455	-0.005216394	-0.0035738088	0.0045367787	0.0011624396	-0.003023501	0.0029093828	0.0016994004	-0.00804396	0.006437116	-0.003849068	0.003754606	0.0065545742	0.0045797178	-0.0041711396	-0.008385012	0.009787122	-0.009283389	0.004713437	-0.0015080109	0.006554922	-0.008344463	-0.0035768384	-0.008252547	-0.009077458	-3.4897732e-06	-0.0094025675	0.0034176246	0.006802187	-0.005721736	0.0068039945	-0.00067387015	-0.007678278	0.0072130673	0.0018358447	-0.006998041	-0.003819543	-0.0016510272	-0.0007430727	0.0070506874	-0.00034826403	-0.0045146383
GCF_003094915.1	-0.0062305583	-0.008915416	0.004954039	-0.005207184	0.005000972	-0.0037489294	-0.0012641902	0.009049121	0.009450707	0.0076948176	0.007292869	-0.008503382	0.004285074	0.0065091774	-0.0060210302	0.0099340575	-0.005007012	0.00021263899	0.00020159097	0.0034486784	-0.00023275054	0.0014158787	-0.004246201	0.0084955245	-0.0016466075	0.0006716021	0.0005415465	-0.008703179	-0.0017230089	-0.007276176	0.0030119312	0.0020721236	-0.00094547734	0.0076494766	-0.0046321545	-0.0035925172	-0.0009318183	0.009363116	-0.009080688	-0.0027948453	-6.0571623e-05	-0.005767748	-0.0035587046	0.0008273808	-0.0018067821	0.002509846	0.009485538	0.00372121	0.008287996	-0.0054412703
GCF_003095015.1	0.0033143202	-0.008733134	0.0021761875	0.0073807794	-0.0061836205	0.0003449501	-0.0007831248	-0.0034433499	0.00568682	0.007930814	0.0025877538	-0.0022740602	0.008487197	0.0015193116	0.0023724595	0.0037702802	0.009486004	-0.007397363	0.0076954043	-0.002150012	0.0063669328	0.0026034457	0.0023160756	0.0026586184	0.0002194763	0.003915359	0.0031323112	0.0028577389	0.005277857	-0.009025634	0.0061412845	0.0039104987	0.00816776	0.0010381612	-0.0005501509	0.0006164529	4.1402336e-06	0.003778957	0.008356945	-0.009744778	-0.009042625	-0.009124224	0.0030462346	-0.0014243716	-0.0040021213	0.008020513	0.0091925515	-0.007227263	0.006315795	0.0005224958
GCF_003095055.1	0.009897972	-0.003067015	-0.0069517684	0.008593386	0.008495576	0.0054122265	-0.005556396	0.0050893347	-0.00951798	0.0006467486	-0.007165011	0.009115927	-0.0063620666	0.00502269	0.0058656903	0.0025539887	-0.004247313	-0.00063521764	0.0008075771	0.0069859554	0.004238616	0.0008816697	0.0041411095	-0.0025212027	0.004407525	-0.009772812	0.00096156815	-0.0077908183	0.007676742	-0.0012833013	-0.005358227	-0.009547275	-0.007878819	-0.004420157	-0.0018979104	-0.000563611	0.009331714	0.0006606189	-0.0020567458	-0.0064248596	0.000678346	-0.007949787	-0.00019693826	0.0067124865	0.004971048	-0.0054480853	0.0053326893	-0.0009533425	-0.0026424916	-0.0039085327
GCF_003095075.1	0.008306912	-0.0070569594	-7.111139e-05	-0.009100818	-0.004938768	-0.0023505627	-0.007885431	9.5683565e-05	0.009636586	-0.003689677	0.0058015585	0.008143652	-0.0031822051	-0.0074985162	-0.00096504367	-0.0031757243	-0.0038891288	-0.0077581443	0.0015989087	0.006541225	0.003417262	-0.0023638662	-0.005728224	-0.0006244407	0.0052789343	-0.0010598246	-0.0054845596	-0.007615784	-0.0067655034	-0.0010601996	-0.009633065	-0.0019499314	-0.008504067	0.00987069	0.008083626	-0.0034555213	0.0009433378	-0.008175098	0.007632125	-0.0019317991	-0.00450397	0.004035295	0.0029145142	0.0005633695	-0.005652344	-0.0005356733	0.0066018957	0.00719287	-0.0056436323	0.008814823
GCF_003095115.1	0.0035248792	-0.007388135	0.0042276573	-0.009879617	0.008373413	0.0034189292	0.0022844386	-0.006439024	0.009781792	0.009242813	0.0027974653	-0.0076756477	0.008395112	-0.009895381	0.0040353946	-0.0046710693	-0.006799378	0.0042884243	0.0092886	-0.0024481316	-0.0069206064	0.007776339	-8.308946e-05	-0.0036327464	-0.00843991	-0.00505291	0.001490234	0.0013791114	0.006802703	-0.00648607	-0.0038973896	-0.0086120255	0.0008438554	0.00433949	-0.0013090175	-0.007595888	-0.005995278	-0.00978063	0.0077560726	-0.0052762553	0.009455122	-0.001078827	0.0070468695	0.009432776	0.00018614241	-0.00044176052	0.0015276098	0.0011576721	0.0077386037	-1.4777068e-05
GCF_003337725.1	-0.007911227	0.0014523775	-0.00263662	-0.007178854	-0.0016343571	0.007188309	-0.008029115	-0.0019215841	0.0039359964	0.002289819	0.00943614	0.0037288058	0.0007535389	0.006872834	-0.0005796762	0.005186412	0.007984349	-0.005483482	0.0008787608	-0.0009042894	-0.004570564	-0.008791192	0.0065644826	-0.005294767	-0.0082313875	0.0046423166	0.0028670214	-0.0009982389	-0.001014406	-0.00077284395	-0.009359745	0.008359177	-0.007910679	-0.007229508	0.0045521776	-0.004352337	0.0067061153	-0.004296724	-0.0023547085	-0.006232584	-0.0054868665	-0.002477204	0.0027858473	-0.0010522963	-0.0037066548	0.005227875	0.00719817	-0.0056047067	0.0054726917	0.0071246745
GCF_003390755.1	0.002607517	0.003431257	-0.0036892807	-2.8692322e-05	0.0023822284	0.0048448425	-0.0047953	-0.0049933	0.006175874	-0.009883614	0.008027889	-0.0072804657	0.0047748582	0.008436829	-0.003049213	-0.005810852	-0.0019477223	-0.0029970643	0.004641801	0.0051537645	0.006727143	-0.007132274	0.007983689	0.008633121	-0.0018245819	0.0021973453	-0.008242566	-0.0033439654	0.009066909	0.0004368236	0.0034567767	-0.0022577823	0.008028078	-0.0011616558	-0.0073578963	-0.005252171	-0.0054674945	0.0051716235	-0.002014555	-0.0072970637	-0.0029837347	0.0046628746	0.007144257	0.0088520115	-0.00038737553	-0.0004492605	-0.0036564844	0.0077281804	-0.008084802	0.002176578
GCF_003428375.1	0.0061362567	-0.009990558	-0.009599577	0.0038248033	-0.007579058	-0.0007858599	-0.005773928	-0.00048092703	0.0011672936	-0.0012592801	0.006732979	-0.005495183	0.005063676	-0.0072009107	-0.0013367719	-0.004191625	-1.3639952e-05	-0.0095285745	-0.008460337	-0.0026085218	0.00027389373	-0.0073467344	0.0075307135	0.008669082	4.639465e-05	0.0068515036	0.0012669539	0.0049112593	0.007963383	0.0014503631	-0.003942746	-0.00485368	-0.007570213	0.0059284265	-0.009936599	0.005131425	0.00843538	-0.0045419787	-0.004884992	-0.008156685	0.0088230865	-0.0058435313	-0.0041897823	0.0048724934	-0.009855106	0.0052457727	-0.004158252	0.004322752	-0.008543817	0.0024027033
GCF_003438025.1	0.0004342089	-0.005819202	0.008823533	-0.0071498575	0.008109489	-0.0029426857	-0.009153174	-0.009475852	-0.0021165442	-0.002959961	0.00014019634	0.002833511	0.0078043267	0.004954403	0.003129978	0.0056253616	-0.0061790133	-0.005457229	0.001802789	-0.0045209615	-0.0096897185	-0.0022849953	-0.0009451228	0.0041976357	0.0059168385	-0.009578906	0.0040872665	0.00021968436	0.0044084	0.0064441427	0.0058517824	-0.0057512796	0.0012674858	-0.0060383836	-0.00904658	0.0007971951	-0.0043254257	0.0037865522	-0.003707908	-0.006136728	-0.0058510737	-0.003141863	-0.0068766577	0.0040579904	0.008888082	-0.009517677	0.0034981729	-0.007081617	-0.007384986	0.004333832
GCF_003438425.1	-0.002012564	0.0009569522	0.0074516176	0.004768718	-0.0006181629	-0.009392157	-0.0015418734	-0.0020210606	-0.0008978407	-0.004892447	-0.008686391	0.003397156	0.0069738547	-0.0053079873	-0.001988151	0.0021477817	-0.0024227838	0.007964722	0.003399031	-0.00061332143	0.002019389	-0.0002806957	0.003891922	-0.00891027	-0.0039703296	-0.0014171131	-0.007752408	-3.1228716e-05	-0.0033836898	0.0054733916	-0.0029507806	0.000811316	0.008849802	-0.009028033	-0.009046745	-0.0025415118	-0.0035528254	-0.0025888537	-0.0061785686	-0.0026172616	0.009535482	-0.009608983	0.008902865	0.008688193	-0.0059103803	0.009331259	0.005115462	0.0015961196	-0.0019476587	-0.0005905921
GCF_003438545.1	0.003532915	0.00016469367	-0.0025321804	-0.0046973326	-0.003294596	0.001917652	0.008548261	0.004512661	0.0086855125	0.0062525775	-0.004818309	0.0010576985	0.0029378016	-0.0012064943	-0.0001582862	0.000649886	0.00980552	-0.0073901895	-0.008171925	0.00597958	-0.00048073023	-0.009719495	-0.001391443	-0.0007343369	0.008693329	-0.00911221	0.0063264435	-0.002121379	-0.002983261	-0.0038121883	-0.0033384126	0.004577753	0.0071079987	-0.0075231874	0.0013331476	-0.0007412733	0.008022577	-0.0030086285	0.009127891	0.00810797	0.00033155587	-0.0028063853	-0.0013322729	-0.003764034	-0.005549074	0.0004959232	0.004230596	0.0007399362	-5.0871367e-05	-0.0020324134
GCF_003438565.1	-0.0028682349	0.008983076	-0.0039188326	-0.007120501	-0.0026206244	0.0009791559	0.0022455459	-0.0072243665	-0.0028331254	0.0059213513	0.009226562	-0.0039058516	0.0012151954	0.008827458	-0.009579111	0.009451023	-0.009739838	0.0067474195	-0.0053764684	0.0046780347	-0.00440149	-0.0044657076	-0.0070551196	0.0013454993	0.006557607	-0.008433329	0.0031642832	-0.0015685676	-0.008709838	-0.00012920857	-0.007375117	0.005668241	-0.0055417204	-0.0017143339	0.009536389	-0.003938655	-0.0062557557	0.005140232	0.0025992151	0.0007772431	0.007885691	-0.008621264	0.0053781257	-0.002714777	-0.003190987	-0.008034182	-0.007182121	7.126247e-05	0.0083922325	0.004632995
GCF_003438825.1	0.009851254	0.002431404	-0.0059544076	-0.005130116	-0.006075041	0.0027105266	0.009550856	0.008940692	-0.0058681094	0.007847606	-0.0053642127	-0.009883148	0.008737491	-0.0034412243	0.0015873777	0.0055503706	-0.008302447	0.009942547	0.004513139	0.009921558	0.0074568186	-0.0016258268	0.0055929264	0.004528022	-0.002171995	0.0033601772	-0.004608786	-0.00661065	0.005228205	0.0066494765	0.007139798	-0.0044744993	-0.0077445447	0.0014768711	-0.008481157	-0.008035325	0.0016764097	0.007830498	-0.0043844753	0.007873276	-0.0031056376	-0.0017653363	-0.000439276	-0.0040362203	0.0023346918	-0.0035280494	0.0057044	0.005508558	0.00041455036	-0.0025858402
GCF_003438945.1	-0.005525397	-0.0003348237	-6.960354e-05	-0.006320577	0.007062746	-0.0006969391	0.0031394402	0.00091909553	-0.00614638	0.0064458805	0.007375472	0.0033550167	0.007921671	-0.00772119	-0.0025369863	0.0058609685	-0.0029311648	0.008661952	0.008583694	0.006879458	-0.0065365373	0.008644538	0.008312555	-0.007335311	-0.004627442	-0.009878608	0.0053908215	0.0077006314	-0.006581936	0.0016580912	-0.00296474	0.002227225	-0.00020807535	-0.0016127955	-0.008841383	0.0067452793	0.001028454	0.0043993085	0.009952102	0.009463073	0.0071605872	-0.00388065	-0.0052729985	0.0040465053	-0.0022521121	-0.0003079441	-0.0075237234	0.0051250057	-0.008626652	-0.009190892
GCF_003439005.1	0.0017672828	-0.00166613	-0.0037527685	0.0032959809	-0.0031434407	0.009685316	-0.004727421	-0.00236614	-0.009971774	-0.008141431	-0.0073589697	0.009127644	-0.009579379	-0.0029203175	0.008885296	-7.190825e-06	-0.009674655	-0.00097441545	-0.008291865	-0.009529903	0.00047512466	0.0068543134	0.0018353987	0.00068828615	0.00070418534	0.009161979	-0.0050959955	0.008634016	-0.00908229	-0.0035151297	-0.0005195034	0.00299232	-0.0067402823	-0.009329498	0.0061163837	-0.007262486	-0.0053527234	-0.008949858	-0.0077626277	0.0027283086	0.0010578167	-0.0014134437	0.008917241	-0.005163921	0.008862953	-0.005158533	0.0013672924	0.0037341535	0.009516719	-0.009229241
GCF_003458275.1	-0.00620289	-0.0037642452	0.00022404209	0.006462276	0.0035339915	-0.002536001	-0.0039431457	-0.0013737364	-0.006817851	0.0034352185	-0.006257611	-0.002284774	0.0072433935	-0.0034938229	-0.005971761	0.00021340614	-0.0019492427	-0.008108935	-0.009544147	-0.008358622	0.007218659	0.009784602	0.0024490808	-0.009691042	0.007947878	-0.002865715	0.009953287	-0.0012885276	-0.006110037	-0.008489487	0.007984856	0.004045201	-0.0007012674	-0.004407896	-0.006322738	-0.0054002167	0.0067546316	-0.009812978	0.007987948	-0.0031493367	-0.0029647902	-0.0055666766	0.006315646	-0.00048800642	0.0017560709	-0.0037930259	0.004312817	0.001310174	0.0054292786	-0.0022373418
GCF_003458365.1	0.003707034	-0.007254485	-0.0005210558	-0.009604364	-0.00087356847	0.0007746623	-0.008482872	-0.00037202967	0.009204167	-0.0089245485	0.0055183843	0.0027572098	0.009475542	-0.0005426977	-0.006342292	-0.0067943656	-0.008651781	0.0030341926	-0.0015243785	-0.0035925112	0.009342278	0.008438088	-0.0032390521	-0.0016881949	-0.0068361727	-0.0058071148	0.0036546916	-0.0019188208	0.00901556	-0.006307794	0.007763815	-0.008641298	0.0039884597	-0.0086135	0.00090002146	-0.00259031	0.009281005	-0.009626192	-0.008475068	-0.0083397655	-0.006644028	0.009720873	-0.008490721	-0.0058464757	0.0038442346	-0.008219311	0.0051336284	0.0062303166	0.0069604116	-0.009612354
GCF_003458395.1	-0.0041856756	-0.009390025	0.0014635973	0.0068943757	0.0007122532	0.0010074476	-0.0046355072	0.0071806717	-0.0039979294	-0.002014744	-0.0018975234	-0.007595361	-0.00028900386	-0.004177541	-0.009602699	-0.0014715013	-0.0025844444	0.006931595	0.0044208234	-0.0067128963	0.0020474046	0.0023193948	-0.009177757	-0.001571233	0.00781885	0.008115558	-0.004050907	-0.0065296097	-0.007122457	-0.0065672714	-0.0042959102	-0.0070465235	0.009595455	0.007628273	0.005094718	0.0064715343	-0.0016550455	-0.005123672	0.003172944	-0.00046592203	-0.0053891437	-0.0061818785	-0.0062643425	-0.0074013546	-0.0024494154	-0.0075018248	0.0009318435	0.0078669395	-0.004789863	-0.0006733002
GCF_003458945.1	0.0029654552	-0.005952676	0.008087609	0.0049803434	-0.00091418513	-0.009885107	0.00011304713	-0.0091367	0.005910215	0.0043203346	0.009945013	0.0021921021	-1.2719943e-05	0.005033036	0.008173488	0.0032921487	0.0076093604	-0.0045630774	-0.0046384707	-0.0023906038	-0.0064694425	-0.003969266	0.0077663423	-0.0053227576	0.0083492	-0.0026326545	0.0021996726	0.0012046436	-0.0043045343	-0.008878574	-0.0016107501	-1.6286605e-05	-0.00032945324	-0.0060115885	0.009456822	-0.00039861596	0.008436306	0.0047298567	0.009490546	0.008197516	-0.000969285	-0.0037408213	-0.009349513	-0.0043217596	-0.0051514814	-0.0018995816	-0.0068561514	0.0077422974	0.003793509	-0.003622677
GCF_003459065.1	0.007772128	0.0013302406	-0.0064110328	-0.0054832837	0.005210583	-0.0026813482	-0.00486664	0.0032847875	0.0034588426	-0.008445511	-0.0025840877	-0.00041172665	-0.007580304	-0.008127004	-0.0075193215	0.0028160724	0.002444686	0.0054310863	-0.005044184	0.0052605076	-0.0072389087	-0.0098579535	0.004335885	0.002093231	0.0013791103	-0.009235251	0.008715844	0.006316157	0.0069359313	0.001765287	-0.0033791042	0.008196339	-0.0002261695	-0.00941337	0.00047247493	0.0049540685	0.0048152213	0.0026024505	-0.0053014434	0.009808053	-0.003519709	0.005293787	0.001252571	-0.0037076848	-0.0073803375	-0.002612751	0.0079834005	-0.0044744858	-0.008110167	-0.0063288226
GCF_003459525.1	0.009311882	-0.00025026	-0.0039974423	-0.003595287	0.009490042	-0.0083574345	0.003926049	-0.003755527	0.004408363	-0.0038542212	0.0004743245	-0.00807447	0.006621107	0.008899703	0.005889332	0.006775325	6.4992724e-05	0.00049398176	-0.00059265154	-0.0036821102	0.0059574437	-0.007447661	-0.0018026226	-0.008522157	-0.006480119	0.004247093	6.906633e-05	0.002949091	-0.0032063513	-0.008030511	0.008845727	-0.0032748957	-0.0060674194	-0.001429451	0.0077864905	-0.008503483	-0.0066970116	-0.0010985765	0.0023947663	-0.0018201089	-0.009760819	0.0051592267	-0.0019700204	-0.0032861612	-0.009625207	-0.0043635834	0.0008362019	0.0056874417	0.009528885	-0.007356491
GCF_003460185.1	-0.00026442978	0.002737141	0.0036779682	0.009909318	-0.0021692934	0.0058756866	-0.0053599915	-0.0027614646	0.008724607	0.006433147	-0.0056554684	-0.008278252	0.0045340243	0.0037121605	0.005566096	-0.001966116	0.0067206286	-0.0095304875	0.0034723338	-0.003849611	-0.007153212	0.0017576611	0.007964163	0.0008343436	-0.007580381	-0.009152775	0.0016127677	0.004776814	0.0033208614	-0.0014030195	-0.003451021	-0.0079615265	-0.0047675166	-0.008328945	-0.0001879674	-0.008451973	0.0014232344	0.0051630638	-0.0063137724	0.007517499	-0.001060099	-0.003807182	-0.0071556615	-0.008940287	0.009893374	0.0026328457	-0.007489559	-0.0066985083	-0.007956269	0.0037734977
GCF_003462745.1	0.00037791446	0.0033948182	-0.0065548616	-0.00030624567	-0.0063264896	-9.18159e-05	-0.0064526317	0.004811236	-0.004230507	0.0035868625	0.0042644143	-0.0071492745	0.008618614	-0.0076255095	-0.006235155	-0.0015326209	0.0060357987	0.003402147	0.006535021	-0.007582627	0.008391104	0.004071854	0.0012829305	-0.004901699	0.0047856667	-0.0042673987	0.008036672	0.0066581857	0.009706439	-0.007068713	0.009799347	0.0009122114	-0.0015167943	0.0048127836	0.00030695225	0.0046666698	0.0069488054	-0.0054211337	0.0094473725	0.0041248933	0.004520169	-0.0043967487	-0.0053663556	-0.0065704607	-0.007434416	0.009421839	-0.0030432818	0.009094288	-0.0098457225	0.008420019
GCF_003463115.1	0.00953979	-0.0074280696	0.0005090291	0.0017745162	-0.001998583	-0.0050008288	-0.001870505	0.0052951127	0.004192051	0.003307875	0.002473445	-0.0012723891	-0.0037703973	0.0055666864	-0.006144175	-0.0011309016	0.004969651	0.0051031993	0.0024488717	0.009052516	-0.009891766	-0.009557072	-0.0023774167	0.007671923	0.0016409812	0.006481731	0.0052509233	-3.9356655e-05	-0.00069004734	-0.0017846677	0.0040999292	-0.007534392	0.00013683755	0.0043457584	-0.0061110007	0.0052369237	0.0071443575	0.009097835	-0.0032017573	-0.008476673	-0.007666743	0.0038468083	-0.00022470577	0.007135474	0.003782902	-0.0097665	0.003771659	0.006785676	0.00011310937	0.0053510075
GCF_003463165.1	0.008127274	-0.0074399207	-0.007114747	-0.00096516026	0.008298804	-0.0018682394	-0.0047594495	-0.0036786476	-0.0022914184	0.0093484465	-0.003410717	8.198459e-05	0.009710717	0.0062835454	0.0019096961	-0.0029878435	0.00065912394	0.004847839	-0.00014635119	-0.0015032225	-0.005078327	-0.007422863	-0.006768264	0.008348145	-0.009435959	0.006462092	0.007980016	-0.007256618	-0.0025830185	0.008249892	0.0075379387	0.005697416	-0.0014487196	0.0029968885	-0.006386145	0.00043077127	0.006285075	-0.0016995297	-0.0064361584	-0.006204205	0.0005963723	0.0020245807	0.005159837	0.0013893247	-0.0007503871	0.0018361942	0.0008259717	-0.002574827	-0.004991934	-0.0029770015
GCF_003464965.1	-0.004907029	-0.00027561552	0.0010888826	0.0045188563	0.0033294875	0.005705314	0.0026030592	-0.0050917473	-0.007018466	-0.0055551957	0.007124847	-0.0012725081	-0.0036071362	-0.007080439	-0.0024457965	0.0027913474	-0.00070659275	-0.005302072	0.008831238	-0.0074427663	-0.0001295481	-0.00040602445	-0.008626732	0.007029075	-0.0034896238	0.00079688604	0.0043461598	0.003816167	0.0075385184	-0.00038624406	-0.0075624874	0.009962449	0.009942663	-0.0004167891	-0.0056400006	0.006304592	-0.006423006	-0.006803919	-0.007450539	0.00053704815	-0.008248687	0.0040232027	-0.007137525	0.0054888884	0.008809487	-0.0014819216	-0.009997665	0.00055381324	0.0027174149	0.0025133193
GCF_003465625.1	-0.0039603966	0.0041434504	-0.0071306275	0.0070611727	-0.0017803886	0.0028756477	0.0090131415	-0.0023891928	-0.0064334883	-0.0034971202	-0.00011854166	0.0067708446	0.009347393	-0.0016838349	-0.0072544515	0.0047134436	-0.0024924248	0.0050873593	-0.00032232053	0.009776781	-0.0042340397	-0.0040877583	-0.002282315	-0.0015176589	0.0039320528	-0.0056018448	-0.0060935686	0.0004874595	-0.008419317	0.009419025	0.009212366	-0.0050333263	0.006698785	-0.0036180464	0.00887383	-0.006770522	-0.006086646	0.0053066565	0.008738693	-0.009912882	0.0039832136	-0.0025723332	0.0017223313	0.001886678	5.0244467e-05	0.0054103625	0.007130477	0.008624473	-0.0044289287	0.00795353
GCF_003468175.1	-0.0062327273	-0.009356365	-0.0008557854	-0.0057405536	0.006287226	-0.003142897	-0.006496218	0.006146561	-0.006931599	-0.005994976	-0.0022759878	0.00529678	-0.0003663327	-0.0070508537	0.009651632	0.0018453753	-0.009277883	0.006731469	0.0049917023	0.004528938	-0.00216654	-0.009923034	0.0040713134	-0.0019536354	-0.0022131363	-0.0037430376	-0.003499544	-0.0010100766	-0.0032208012	-0.001809473	0.0010494674	-0.0072180354	0.0026778348	-0.006969315	0.003791768	-0.007641883	-0.009872922	-0.0068546925	-0.0037135838	-0.0027037852	0.004682034	-0.0027403866	0.0012217717	-0.0072959983	-0.00650087	-0.00595232	-0.009423176	0.004490294	0.009295638	0.002187487
GCF_003468355.1	0.0047244583	-0.007804616	-0.0060137375	-0.00089679984	0.0067711137	-0.007054312	0.008056171	0.0023126716	0.0021624286	0.0017857773	-0.006415356	-0.005719129	-0.009825275	0.009701236	-0.0010427324	0.00691325	0.009469144	0.0047343215	0.0048671393	-0.00407561	0.008878384	0.0004988484	-0.0056895325	0.00977808	-0.0032886944	-0.007719877	0.007936651	0.0053401305	-0.0041124825	-0.0051691732	0.009215518	-0.009289597	-0.00052805594	-0.003977773	-0.0062635234	0.0014467927	-0.0061922926	-0.0058426633	0.0018537281	-0.0029373993	0.0011260615	-0.0061203465	-0.0028586942	0.008279156	0.004794907	0.009068209	0.0004988768	0.0077203205	-0.0061917133	-0.009876442
GCF_003468685.1	0.0021813791	0.008966052	0.00606622	0.003827408	-0.0044870097	0.007603173	0.0004525426	0.0047744117	0.008513252	-0.001435748	-0.0070626363	0.007022594	0.0065413043	0.003683766	0.009981621	-0.0032285177	0.0076462287	-0.008970375	-0.0051397365	-0.009206716	0.0068823923	0.0072320006	6.048325e-05	0.0032999448	0.0062301625	-0.0021999504	0.00574042	0.003788365	-0.0065765656	0.008424144	0.0015013762	0.0011492374	-0.009808171	0.005109984	0.0011773264	-0.0033021017	-0.008983511	-0.0049899686	0.00824932	0.009715246	-0.0035664723	-0.0015795924	-0.007132185	0.0047168834	-0.008032238	0.00712452	-0.0065609	-0.008324411	0.0023720367	-0.009267875
GCF_003468785.1	-0.007683698	9.6582866e-05	-0.0070035835	-0.009383246	-0.00053193985	-0.0024796925	-0.002331225	-0.005101024	0.006525555	0.0076934076	-0.0014301745	-0.0070554307	0.0016731067	0.0039573666	-0.0058743902	0.00211312	-0.0032575845	-0.0064043347	0.0032560087	-0.0059740394	0.0014459351	0.0006569066	-1.618242e-05	-0.006305564	0.009345985	0.007030084	-0.0053626136	0.005603971	-0.0044475747	-0.009817372	0.0017032082	-0.00093457743	-0.0067628087	0.007640192	-0.0075159706	-0.009309513	0.0016441917	-0.0042844512	-0.004621453	0.0068512065	-0.005542386	0.0038890704	-0.008522749	0.0010812548	0.0045981547	-0.006017889	0.0036076603	-0.009865888	-0.008954809	0.0045445478
GCF_003469115.1	0.00064662367	0.00072596053	-0.008762993	0.0029617567	-0.007391765	-0.0079229055	0.009601613	0.000740622	0.0054723085	0.0074763107	-0.0047756513	0.008666967	-0.009380239	-0.00732694	0.0036600174	-0.0071103266	-0.009255269	-0.00667141	0.0022618452	0.00020124779	-0.00037805867	-0.002367792	4.478902e-05	0.00019640193	0.005059509	0.0010831737	0.00040367822	0.009359959	-0.007744105	0.0014717822	0.0051518804	0.00051855005	-0.0037280074	-0.006400807	0.009352548	-0.0055383164	0.0051067406	-0.0070418436	0.008837537	-0.0056590685	0.0041444143	-0.0023286634	-0.0010892164	0.009745303	0.008699353	-0.007196963	-0.008923486	0.00022213583	0.0070591443	0.003138466
GCF_003469635.1	0.007299574	-0.0011893352	-0.0045894575	-0.005059346	0.004617405	-0.0071349656	-0.0039297557	-0.0024277251	0.009681806	-0.009924418	0.0065196217	-0.009758588	-0.0030346308	0.0031197395	-0.0045930212	-0.00050062296	-0.0014628415	0.0031075594	-0.009269274	0.0029610428	-0.004726654	-0.004059193	-0.0013625306	-0.0039885733	0.009017143	0.008709308	0.0034466265	-0.009351341	-0.009919911	0.0006146711	-0.00733823	0.0047288453	0.0047402275	0.0041914275	0.005185124	0.005938514	0.0015138285	0.0017339789	0.0074378704	-0.0019930387	0.0026194127	0.00037029176	0.004428666	-0.00059138314	0.006389966	0.0064856024	-0.0019730201	-0.0044411733	0.008794496	0.0032377695
GCF_003469855.1	-0.0007930538	0.007191125	0.0029501168	0.004785695	0.00027980393	-0.00018216477	0.00035917253	-0.00054968795	0.007752357	0.0022001981	0.0007333382	0.004801012	0.0043745446	-0.006106995	-0.006606935	-0.0054726764	0.0030553655	0.0021525007	0.008003745	-0.0018371912	0.0026254477	0.006877099	-0.0034147224	-0.004582756	-0.004664973	0.0067032054	0.003043661	-0.004345774	0.0049530976	-0.005652216	0.0008593475	0.009803127	0.0036156643	0.0023198626	-0.0057839286	0.006933979	-0.0092185605	-0.0051696966	-0.0051327995	-0.0012475965	0.00013625529	0.009358324	-0.0036460306	-0.00784696	-0.0062079728	0.0011292961	-0.0062362948	-0.006278584	0.0018999075	-0.0016245344
GCF_003470005.1	0.0029107279	-0.0025727577	-0.009260301	-0.005593061	-0.0024042416	-0.0067696106	-0.0029339816	-0.0028699466	-0.0020602806	-0.006010648	-0.0021776494	-0.0025151784	0.005143611	-0.004092047	0.00603798	-0.008310359	0.0011227337	0.006092686	-0.0059161885	-0.003906115	0.003585485	-0.006880541	-0.006336406	-0.003649447	-0.007735898	0.0054157283	0.004114673	0.0011814882	-0.0023188172	-0.005448966	0.0028553396	0.009164908	0.004494413	-0.0085238665	-0.005270184	0.0062939874	-0.004558171	-0.001254729	0.008862739	-0.0052816207	0.005063874	-0.008579617	-0.008865237	1.4702308e-05	-0.00984434	-0.0016873933	0.006110081	0.002554958	-0.0028198725	-0.0073330156
GCF_003470305.1	-0.0018382445	0.00016522013	-0.0028829968	0.0082906755	-0.009719288	0.0030284454	0.00035240717	-0.00651473	-0.009662999	-0.0028984647	-0.0076935478	-0.0023451466	0.0084619215	-0.008573827	-0.0075300904	0.0034688467	0.009187713	0.0018158256	0.009899208	-0.0054458617	0.005396985	-0.002940126	-0.00865503	0.0026476171	0.006801297	-0.0020229896	0.0093981745	0.0029281883	-0.0021465113	0.00490339	0.009814731	0.007979943	0.00799105	0.006232979	0.007622493	0.0057173446	-0.008167685	0.0009576806	-0.0071409475	-0.0045727016	-0.0067905704	0.0048041567	0.0047910437	-0.003315713	-0.009524196	-0.008320537	0.009154649	-0.008350393	0.009705232	0.00610646
GCF_003470465.1	0.00036059602	-0.0011899619	0.0062816185	0.000491683	-0.008697838	0.009650713	-0.0062053613	-0.004283317	-0.003155262	0.008472333	-0.009424933	0.0035007785	0.0035935142	0.008712033	0.009121883	0.0075748363	0.009356201	-0.0009904345	0.008036713	-0.006595162	0.00018712414	0.0005714972	-0.0072646984	-0.005615181	-0.0074045123	-0.00096454396	-0.0036897117	-0.006919492	-0.008499142	0.009346071	0.00060401263	-0.00329361	0.008030563	0.0013860167	-0.0046160254	0.009977684	-0.009338394	0.0035064437	0.0028597538	-0.0050122575	-0.0025811102	0.0042864857	-0.0046983133	-0.008500412	0.0056263027	-0.008947321	-0.0020538236	-0.0036550967	0.0049135103	0.008067392
GCF_003470675.1	0.0066226562	-0.0075457343	0.0065079425	-0.00087655784	-0.00027080596	0.004250545	0.003183418	0.002118287	0.0010410729	-0.0034372022	-0.009442234	0.00024338906	-0.0016441613	-0.0033972017	0.0069140242	0.0030939695	-0.0033020338	0.0036708296	0.006996953	-0.00910148	0.007609274	0.00044492428	-0.007985612	-0.0030070946	-0.0045768647	0.0056650043	-0.0092456015	-0.0065968162	0.009902364	0.0026072103	0.009170223	-0.0007985567	0.0023071808	-0.0030023903	6.852963e-05	-0.0034364595	-0.004353359	-0.0015854685	-0.008425579	0.00849491	-0.008387621	-0.009664085	-0.00959126	-0.0055139703	0.0014909679	0.0099300025	0.0007969817	0.0038810684	-0.0056203147	-0.0016193852
GCF_003470705.1	0.0020860252	-0.0077742413	0.009117791	-0.0014218491	-0.006758271	0.008482517	-0.00062803953	0.0034416255	-0.0014241455	0.005185259	0.005866938	0.0023159962	-0.0034424656	-0.004361109	-0.003223931	-0.008530105	0.0017989277	0.008882645	-0.009808801	-0.0063017434	-0.00864723	0.0051372764	-0.009674909	-0.009500661	0.0051342673	-0.0040577753	-0.007833874	-0.0040968214	-0.00018551947	-0.005166249	-0.00749349	-0.007003994	0.0060167983	-0.0037409985	0.008695703	-0.004001363	-0.0039504636	0.0022726406	0.005091657	0.005310814	-0.002716711	0.0021383793	-0.006514122	-0.0056082928	0.00059197284	-0.002903737	-0.003784135	0.0014010023	0.006167081	-0.008377106
GCF_003474345.1	-0.0015346066	0.0075297677	-0.006681248	0.005071211	-0.0044854665	0.0019302424	0.005760905	0.009643557	0.0073800683	6.64214e-05	0.008733836	-0.008568384	-0.005222532	0.007908194	-0.008640015	-0.0062537077	0.0035343526	-0.0093096895	-0.0029693195	0.0015697568	0.006680818	0.0043169544	0.007970431	-0.0005676878	-0.0039457353	0.00043283353	-0.0026089197	0.0016607742	-0.001457287	0.003644168	-0.00062412577	-0.00829415	0.009447172	0.0045579746	0.001957714	-0.006894905	0.0039009708	0.0050425697	0.005732173	0.007989677	-0.009705484	-0.009302318	0.009509939	-0.0010657103	-0.0014772972	0.0046386886	0.009140608	-0.0019308957	-0.00040496638	0.0073324265
GCF_003474945.1	0.0053566126	-0.00981295	0.009114245	-0.007961209	0.00017680938	0.0035257007	-0.009559369	0.0072503015	-0.0016051002	0.0067985505	0.0072309957	-0.00927117	0.0055253766	-0.0027570901	-0.0065103723	-0.007553242	-0.002980447	-0.00045258988	0.007466512	0.00066849956	-0.009868342	0.0059914794	-0.0075246925	-0.009216517	0.0012404727	0.002332947	-0.00745414	4.5028923e-05	-0.005188766	-0.008408442	0.0041698525	0.0018889188	0.008176113	-0.0009287615	-0.008899994	-0.0029622957	0.0025215545	-0.0020546264	-0.0024736256	-0.0067535276	-0.004811825	-0.009823785	-0.003986048	0.00046656482	-0.0025277983	-0.009151098	-0.0003173742	-0.0051431954	-0.009030319	-0.0071460833
GCF_003474995.1	-0.006046262	-0.007192509	0.0066046664	-0.0017958897	-0.0048090518	-0.0061035776	-0.003896545	-0.0029112718	0.0003354061	0.0035585917	0.0013953088	0.0073747844	0.005449478	-0.0049600247	-0.001513385	-0.004313113	0.0040039797	-0.0001322648	0.008633425	0.006673858	-0.0076109692	0.008372941	0.0015406013	0.004279003	-0.007996228	0.006091551	-0.009548662	-0.004774216	-0.0084752105	0.0047852644	-0.005808541	-0.0060395347	0.005936657	0.0069065862	6.33297e-05	0.005391155	0.004859694	0.003584437	0.0004366731	0.008857495	0.002753744	-0.006803896	0.0019117617	-0.0018598185	0.005757491	-0.0067271013	-0.007985823	-0.00991313	-0.0022241052	-0.0036943632
GCF_003475165.1	0.0031952702	0.0069839275	-0.0027594585	-0.008414566	-0.006476809	-0.0035742538	0.0030893825	-0.0050681625	-0.0047103744	-0.0045806873	0.0029355038	-0.0017773762	0.00013518262	-0.0033945634	-0.005276779	-0.00855715	-0.0043993387	0.0023572345	-0.0095168315	0.003029429	0.009257443	0.00826052	0.004852302	0.008733575	-0.0012155814	0.0006840035	-0.008451298	-0.0084652025	0.009875529	0.0050121066	-0.0062963855	-0.0023483909	-0.009490747	0.009205745	-0.007547071	-0.0066714073	0.0031055266	-0.0021611361	-0.0058612204	0.0053672525	-0.009651987	0.009820484	-0.0071092686	-0.000286302	0.0061322735	-0.00499115	-0.008859808	-0.0060816635	-0.0015695636	-0.0024405227
GCF_003475265.1	0.009576827	-0.004970694	0.008500464	-0.007309439	0.0023520286	-0.007936865	0.0027497318	-0.0063456106	0.0061812834	-0.0038626718	-0.003035115	-0.0009650588	0.00019319086	-0.0075261253	0.0022954152	-0.0011717137	-0.00562034	-0.009494278	0.002577976	0.004053327	-0.0010477476	-0.003051347	-0.0007797922	-0.001373312	0.0017278317	-0.00074949494	0.0059146667	0.0035668712	0.0023770696	-0.008327225	-0.0020204626	0.0032458012	-0.0011438307	0.005612833	0.0037333777	-0.0009850895	-0.0037962736	-0.008728862	-0.0054523726	-0.007275163	0.007878203	-0.009066958	-0.0071431836	-0.009332178	-0.009394145	-0.009355279	0.00333266	-0.004676035	0.0025291012	0.0032042244
GCF_003475305.1	-0.0053986	0.0059653535	-0.0055439253	-0.002109053	-0.00019375842	-0.008291734	-0.0024043	0.005020581	-0.004883892	0.0043428587	0.0052426583	0.009041304	0.008636111	0.0073728138	-0.0036661867	0.0073041813	0.005081225	-0.008771676	-0.0049193692	0.008372808	-0.0015634083	0.0013857839	-0.0012692515	0.005507828	-0.0077227573	0.009446758	0.009887021	0.006180615	0.0020873377	-0.0009828428	-0.00713355	4.271189e-05	-0.000945098	0.007839055	-7.183132e-05	0.0027537216	-0.0062517878	-0.0032047976	-0.0013905227	-0.0030786423	0.0010184876	-0.0026954147	0.00060364703	0.0030195636	-0.0066818334	0.0048391204	0.008621048	-0.009112653	-0.007114768	-0.0022372906
GCF_003475825.1	-0.008990503	0.0044016065	0.003456685	-0.008397514	0.00013606629	0.007189926	-0.002887921	0.00367701	0.009940518	-0.00030387033	-0.002833898	0.0040340726	-0.0006498849	-0.006470936	0.0013366109	0.003826295	-0.0046552215	0.0038651498	0.00076123455	0.00942783	0.008351265	-0.00091005076	-0.001662215	-0.002635033	0.007349711	0.009641962	0.0035214147	0.007911168	0.006402021	-0.0052734646	0.0072908704	-0.001692211	-0.0041835336	0.0049639735	-0.0051489826	0.008456151	-0.0019345877	0.005839942	-0.0025498336	-0.0050808503	-0.0025162164	0.005116245	0.008102833	-0.0089882165	0.0055274614	0.0046159	0.009198784	0.0069703734	-0.009058756	-0.0016251222
GCF_003508775.1	-0.0051725665	0.0053845323	-0.0024846126	-0.007188453	-0.003848094	0.0097359875	-0.0026660014	0.008312666	-0.005791064	-0.00074135046	0.0032364412	3.2617543e-05	0.0008969067	-0.0065265037	0.006044864	-0.0059356177	0.009007411	-0.0090385	0.0022179573	-0.0083918	-0.007400918	-0.0040459614	-0.0075144614	-0.0066702357	0.004256577	0.0074294773	-0.0052176313	-0.0025659401	0.007505158	0.006292265	-0.0026999065	0.007886785	0.001534258	0.005428333	-0.005723943	0.0078064627	0.009211687	0.0043483176	0.0039534946	0.0015287993	0.008315982	0.00700702	0.0008413834	-0.0018657541	0.008260362	-0.0065243533	0.0021758876	-0.008330111	0.0079324	-0.004484325
GCF_003606305.1	0.008566146	0.008721313	0.003556256	-0.0016892204	0.0077687623	-0.0039524236	0.0021887266	-0.0055277417	0.0011965785	-0.00032803562	0.004490082	-0.006643386	0.007932662	0.008622963	-0.009910802	0.0006477552	0.005360012	0.0019349236	0.009973154	-0.008378083	-0.007559414	0.008709121	0.009898048	-0.00094896654	-0.006240601	0.008674536	-0.005551138	0.004348252	0.006817512	0.004436554	0.0070024426	-0.0026653768	-0.0090575805	0.0038112982	0.007339447	0.005245086	-0.007534224	-0.0067227785	0.0008852657	-0.006745761	0.0016465413	0.009559744	0.0099810595	-0.006399773	-0.006595746	0.0068244506	0.00058752653	0.003149879	0.0021154059	-0.007451272
