GenomeID	D2V01	D2V02	D2V03	D2V04	D2V05	D2V06	D2V07	D2V08	D2V09	D2V10	D2V11	D2V12	D2V13	D2V14	D2V15	D2V16	D2V17	D2V18	D2V19	D2V20	D2V21	D2V22	D2V23	D2V24	D2V25	D2V26	D2V27	D2V28	D2V29	D2V30	D2V31	D2V32	D2V33	D2V34	D2V35	D2V36	D2V37	D2V38	D2V39	D2V40	D2V41	D2V42	D2V43	D2V44	D2V45	D2V46	D2V47	D2V48	D2V49	D2V50
GCF_000021425.1	3.2700307e-05	0.0029291078	-0.0065878346	-2.4546696e-05	0.0044620163	0.00031199906	0.003031776	0.0069864113	0.0028226525	-0.005522797	0.0046124146	-0.00659962	-0.003589462	-0.0040740618	0.005476416	0.0003235419	-0.0036659862	0.009870122	0.0022444602	0.0068162032	-0.009205839	-0.0078201955	-0.0021207773	-0.004984117	-0.0035449385	-0.009133679	-0.009150334	-0.009944445	-0.0024354714	-0.0048280368	0.0025474478	-0.004800669	-0.0022390538	0.00040908574	0.0075011165	-0.009302826	0.0057684937	0.008804288	-0.0010813149	0.009588375	-0.00042824674	0.0015574826	-0.00782546	-0.005385507	-0.009306687	-0.0072710384	0.003762624	0.008606143	-0.008898721	-0.009844925
GCF_000022705.1	-0.008191793	0.0038052471	0.0043898346	-0.0010537049	-0.003821182	-0.0070804674	0.00463038	0.0013736137	-0.0021435248	-0.003848392	0.0019385333	0.003459716	-0.0039336225	0.0018970389	-0.0025740524	-0.009429204	-0.0009388745	-0.0016726066	0.00856361	0.005382528	0.009223398	0.0052701933	0.0010358444	0.0059998166	-0.0045646024	0.00027618746	0.0059463996	-0.001854999	0.005819498	0.0057740007	-0.0072695035	-0.006720271	-0.003564777	0.00052019657	0.0047211354	0.008576136	-0.0037572267	0.0033554444	-0.00057724846	-0.0043421085	0.004383893	-0.0037472814	0.0015878476	0.0008278928	-0.0021657075	0.0048696147	-0.0038549555	0.003913301	0.0015951206	-0.0008956962
GCF_000025245.2	-0.0003729709	0.009648454	0.009561664	0.0017079129	0.0008291753	-0.00036837487	0.0031545695	0.005643376	-0.0008746064	0.008142001	0.002951332	-0.0025990598	-0.00905586	-0.0019308648	0.003158475	0.0020621007	-0.009069912	0.0065374374	-0.0013856781	0.0053799716	-0.009880846	0.0017865818	-0.004823403	-0.0017420276	-0.0052834805	0.005311773	-0.0042728772	0.0025389602	0.00028241516	0.008965884	0.0035179064	0.002671107	0.008044654	0.0022057623	-0.004557481	-0.0014133258	0.007379953	0.0023337256	-0.005034504	0.009343888	-0.001923517	0.0025614197	-0.0049351607	0.0020558299	-0.0050079497	-0.0019876652	-0.005712733	0.00013342581	-0.0061707976	0.005350923
GCF_000069945.1	0.002574808	0.0019899562	-0.0006337953	-0.008449198	0.0024554625	-0.004682805	0.003271894	-0.0049394183	0.0063337367	0.009585232	-0.0031731299	-0.004187396	0.0011619645	0.008610262	0.008485808	-0.0053630667	-0.00336204	0.0035832014	-0.007997011	0.0006547552	-0.005877651	-0.008784127	-0.004198445	-0.0024330276	-0.005266902	0.006258313	-0.0073393043	-3.7115176e-05	0.008920949	0.0087122405	0.0061025033	0.0065882676	-0.0005603075	0.005243766	0.0031601961	0.0013716065	0.0087433485	0.0025480646	-0.004607259	0.0042260475	7.820979e-05	-0.00044621466	0.0064275474	0.0066030277	0.004019191	-0.0021186	0.0031290003	-0.0069701	0.004502385	-0.00085411983
GCF_000092765.1	0.0061416784	-0.0066454206	0.00092579896	0.008630052	0.0063133896	0.0046959026	0.009089604	-0.0035481509	-0.0013417185	-0.003083353	-0.0005343881	0.0049867416	0.004873536	-0.0024821998	-0.0001269188	-2.7212947e-05	-0.005509197	-0.008797925	0.009471356	0.0010142131	0.0016327779	-0.007989921	-0.0059483275	-0.008044903	0.0092007695	-0.009539993	-0.0019062028	0.0028002993	-0.0028512524	-0.0019467205	-0.00031477527	0.0024305687	-0.005177073	-0.005337161	-0.0011184498	-0.0074717132	-0.009398613	0.004441965	0.0045396592	-0.001329322	-0.0091393925	0.0026749067	0.0024728295	0.004185894	-0.008972782	0.008512622	-0.002203118	-0.008865222	0.009709871	0.00176589
GCF_000154105.1	1.1096442e-05	0.0027549572	-0.001235292	-0.0036046796	-0.00867865	0.001180458	-0.0032670065	0.005434611	0.00010714415	0.0035160242	0.006500826	0.00027212105	-0.0005657327	0.008597475	-0.006920146	0.0012624188	-0.0014990027	0.006607314	0.008874718	-0.008807961	-0.007320646	-0.0008613243	-0.00219872	-0.004727849	-0.008522151	-0.0069767325	-0.0034509536	-0.001615989	-0.008167366	-0.00851902	0.0051906314	0.0045340136	0.008735397	0.002583856	0.005715743	0.0020272594	-0.008950652	-0.0015223516	0.009277086	-0.0009846302	-0.0021508473	0.0042659147	0.009196358	0.009213234	0.006856966	0.0037772688	0.00051099475	-0.0011790468	-0.009542314	-0.0097615
GCF_000154525.1	0.0034540507	-0.0074086627	0.00037593977	-0.009650768	-0.0056127906	0.008023321	-0.00074099854	0.006571081	0.0059670475	-0.009399237	-0.0058742706	0.0020408884	-0.0067678643	-0.008773768	-0.00059502356	-0.004255021	-0.004481365	-0.009595909	0.0049623437	-0.0040643173	0.0068321405	0.0024692337	-0.009843293	-0.009548465	-0.0019530685	-0.0010222443	-0.0016537409	0.0065800254	-0.00894653	-0.0047267433	-0.0038568196	-0.009837849	0.00079655956	0.003040978	-0.008566406	0.0009635744	0.008370921	0.006559288	-0.0023520559	-0.00248581	-0.0015559223	0.0038806447	-0.004936186	-0.009340498	0.002329272	-0.0034515385	-0.003182024	-0.009671338	-0.004169603	-0.003943666
GCF_000158635.1	-0.0056129964	-0.008162812	0.0020736135	0.0027056253	0.0029506148	-0.007283095	-0.0072572907	0.0029355763	-0.002779691	0.0041775582	-0.005855738	-0.009751975	0.008760438	-0.004241307	-0.00855057	0.0052656555	0.004579452	0.009604642	-0.00206191	0.008817359	0.00875491	0.008589279	0.007978679	0.0027999708	-0.0031338353	-0.00595009	-0.0007339723	-0.0015396068	-0.0036597005	-0.0039395713	-0.003708769	-0.0034406113	-0.008209852	3.3139066e-05	-0.005105641	0.003356731	0.004543547	0.008792589	-0.0011972548	0.004058676	-0.0012821784	-0.007944776	-8.8596695e-05	-0.006493773	0.0061576176	0.0061166035	0.00032128225	0.006120147	0.0067276238	-0.0007066097
GCF_000169015.1	0.0071762544	0.0028572103	0.0019064911	0.0069566327	-0.006791504	-0.006912295	-0.007455841	0.008573223	0.00662629	-0.0017115067	0.009796484	0.0063357814	0.008282051	0.0051736943	0.0048016524	-0.00445001	-0.0073178657	-0.0024320288	0.0039073527	-0.008276275	-0.0024398216	0.0038266985	0.0081163235	-0.0033566086	-0.009448048	-0.008256274	0.0004901709	0.004171623	-0.009179055	0.0070295967	0.009387443	-0.004450337	0.0038978397	-0.008347191	-0.00059079	-0.0043034833	0.0018967846	-0.0063814274	-0.008281424	0.008151354	0.0076932395	0.00084393536	0.0020140335	0.0029469081	0.007578039	0.008582507	0.0021585529	-0.0025759353	0.0034328816	-0.00665982
GCF_000172535.1	-0.0044839256	-0.0009363122	-0.005904593	-0.00040690054	0.006716874	0.0071092737	0.0064276443	0.002636849	-0.005929402	0.009438232	0.0065777022	-0.002415622	-0.004114201	0.009460786	-0.0021978845	-0.0035925126	0.0078723645	-0.007733791	0.001183461	0.00049234286	0.0041343486	0.00841514	0.006100805	0.0015640483	-0.008595285	-0.0047914754	0.0027064355	-0.009437523	0.0032521468	-0.00047210467	0.0013743112	0.00049234024	0.0050079753	-0.008519587	0.006657295	0.0011175374	-0.0052298564	0.0021026353	-0.0065744272	-0.008475043	0.005149185	-0.0057135005	-0.0035426868	-0.00616907	-0.0017454785	0.0052799303	0.0055752844	0.007816837	-0.0084102955	0.0076268343
GCF_000175375.1	0.0008389085	0.0068116304	0.0042906953	-0.007956971	-0.008313534	0.008426626	-0.0042078574	-0.009441212	-0.00444916	0.0027425447	-0.00016035397	-0.0054479437	0.007160783	-0.0022592898	-0.003599179	0.00021160077	0.0018999425	-0.0055343052	0.009107001	-0.009409357	-0.0062645893	0.0024386458	-0.000598589	-0.006737464	-0.0078069535	-0.0021424608	-0.0017318049	0.0062038293	0.007521694	-0.0052379444	-0.004846582	-0.0054436373	0.008763317	-0.009371203	0.007133922	0.0072927214	-0.0014329875	-0.00820111	-0.008120566	-0.0076570553	-0.006110623	0.003733842	-0.006621399	-0.009778737	0.002423856	-0.0046988567	-0.008329982	0.0050823037	0.0047958605	-0.0012024738
GCF_000191885.1	-0.0018245768	-0.003976071	0.009113898	0.0019095527	-0.0037116949	0.006694995	-0.0034369638	0.0010970891	-0.008274847	0.0010738423	0.0028749837	0.001977982	-0.0025763172	-0.0010746215	-0.009855195	0.0037850796	-0.0079437755	0.009134034	-8.688987e-06	-0.0072964076	0.00649928	0.0025499905	0.0069967033	0.004698112	0.0077332854	0.001775141	0.0012924111	0.006244448	0.0036515677	-0.008465406	0.0030273297	0.008321985	-0.006311396	-0.007914814	-0.0028509346	0.0010577879	0.0027117643	0.0013390809	-0.0028148731	-0.004061737	0.009155782	0.005789499	-0.00034329545	-0.0034467247	0.009909906	0.0014693715	0.008557183	-0.007721365	-0.008236479	-0.0031431925
GCF_000219915.2	-0.0053142495	-0.0020827274	0.0033835385	0.006575831	-0.007088003	-0.0086329635	0.0013470165	0.001147329	-0.0009052582	0.008079469	-0.003053108	-0.009622897	0.008513604	-0.0055204774	0.0044942177	-0.00874133	-0.009804713	-0.00032636398	-0.008185325	-0.0049611726	-0.007280002	-0.005363551	0.0028767763	-0.0034034862	-0.009893345	0.0020675338	-0.0054243077	-0.009102602	0.004546748	-0.0037211438	-0.0078971	0.00087758026	-0.0011205341	-0.0011129855	-0.008284731	0.0011470238	0.008364687	-0.00027625082	0.00046746497	0.0051982002	-0.00982488	-0.0008857035	-0.0058344183	0.0029152327	0.00422217	0.0065606213	0.0018823126	-0.004361109	0.0025825805	-0.0009886854
GCF_000220885.1	-0.0019514401	0.00506835	-0.0037049602	-0.006576927	-0.0041044336	-0.0070248623	0.0029225808	0.0005269855	-0.00024154909	0.0013449667	0.007074598	-0.009794209	0.0049255276	-0.005387679	-0.008889587	-0.0025500793	-0.00020475432	-0.004378641	0.009420069	-0.0060239886	0.0030786628	0.0021230916	-0.00761806	-0.003299393	-0.0068936604	0.0022051118	-0.008895065	0.005668615	-0.0074715517	-0.002855173	0.0036829803	-0.0060864473	0.0068117906	-0.007261064	0.00090269203	0.0016569113	-0.0026872617	-0.006433646	-0.0016751015	0.004259937	-0.0047844127	0.0018454187	0.009828346	0.007719466	0.00076371024	0.009083051	-0.0072080283	0.009499843	0.0052024266	0.0046780435
GCF_000224965.2	-0.0028963913	0.0073863324	-0.007951298	0.0024277938	0.0035792724	-0.0066866493	-0.008617139	0.008649954	3.656958e-05	-0.001722851	-0.008216229	-0.0024408633	-0.00074323633	-0.001760626	-0.009160652	0.003437268	-0.00715953	0.0069361744	0.007884692	-0.008628067	-0.0008433469	-0.0035178764	0.0019850463	0.008755545	0.005308269	0.008512319	-0.0011546814	-0.006902763	-0.005976574	-0.0018507168	-0.005701671	-0.0079407655	-0.005760487	0.005253291	0.0006174572	0.0090167485	-0.00558453	0.00041377574	0.009808377	-0.00999332	-0.00054613006	0.0010303794	0.009414539	0.0035575058	0.0037474742	0.0023441531	0.005216678	0.0017274243	0.0014979686	0.007432647
GCF_000235585.1	-0.0045654816	0.005878136	-0.0012381253	-0.0019635584	-0.0054841028	0.007072263	0.007875919	0.0034098832	0.0059306743	-0.0028861207	-0.0086574685	0.0069461665	0.009411564	-0.0044564498	0.008600462	0.0018563627	-0.009794135	0.0065415367	-6.615812e-05	-0.0009945835	-0.0079082055	-0.0036752217	0.005717447	0.0095887175	-0.0072795497	0.005556564	-0.0017518143	0.009068086	-0.00067974627	-0.0047719525	-0.00010104073	-0.00042352913	0.009075973	0.005000288	0.006029175	-0.0039053825	-0.008609351	0.0012403647	0.008573912	-0.0082363775	0.008380177	0.0033306107	0.0075965133	0.007646864	0.00043062578	-0.006015589	0.009402421	-0.0021179856	-0.0074888235	-0.004856661
GCF_000240765.1	0.008264197	0.002656665	-0.0054228534	-0.001808082	0.0025656533	-0.008756817	-0.0093493555	-0.005696264	0.0022563662	-0.0044059767	0.0043634595	0.008828137	-0.0037018878	-0.0048241783	0.0042901486	0.0070595746	-0.005846219	-0.009350861	-0.0021814909	0.009053229	0.002084553	-0.0014537817	0.008393988	-0.00024960501	0.0008468185	0.009638476	-0.0060728667	0.007617328	-0.0011916038	0.00011022444	0.0038475695	0.0010751914	0.0019911905	0.0014369346	-0.008084746	5.6459444e-06	-0.005908289	0.0077897254	-0.004656032	0.0033699072	0.0027552638	0.009864281	0.0037189522	0.0010986303	-0.0063781724	0.002652519	0.0014727174	0.0051614526	-0.00915867	0.00028800202
GCF_000250735.1	0.0047978074	0.007295397	-0.0029067218	-0.004377383	0.008145485	0.0078049037	-0.006866644	-0.003131858	0.0030830132	0.0025273792	-0.0052982033	-0.0033157005	0.005333443	-0.003029109	0.009199983	-0.0032973585	-0.005776439	0.009374197	0.009715476	0.0012566939	-0.003070912	-0.002817108	-0.0011221673	0.0077620326	0.00066285033	0.0014351247	0.009637018	0.0081461575	0.0003504852	0.002088255	0.006232039	0.0052587767	0.008102702	0.0023198028	0.007975164	-0.008110268	-0.000540671	-0.008010616	0.0068631615	0.0061334115	0.008488412	0.0021215812	0.0049792626	0.0075471024	2.2074415e-05	-0.0072793947	0.003473996	0.008410663	0.008976093	-0.002767556
GCF_000259075.1	0.0017349413	0.0037543962	-0.008349365	-0.007580986	-0.009079352	0.005447191	-0.0029585662	-0.0031108733	0.007562435	-0.003977277	0.008276816	-0.0018028928	0.009123564	0.0020715692	0.007260184	0.001252062	-0.004412933	0.006849079	-0.0022860991	-0.0038553067	0.005572212	-0.00041256854	0.009040216	0.0068710335	-0.0056176838	-0.0090768365	0.0034168102	0.0038968795	0.006033329	0.0078815315	0.0034416292	-0.0075646173	0.0013821925	-0.0049261716	0.0081002675	-0.0035263214	-0.0078099193	-0.0076809293	0.0019967412	0.008530317	-8.46994e-05	0.008282494	0.009556688	0.008281561	-0.00677233	0.0015149458	-0.0059595252	0.0030668858	-0.0046627424	0.0023302683
GCF_000260715.1	-0.003684239	-0.0013700727	-0.0047548423	-0.009707063	-0.009178326	-0.006568883	0.002191895	-0.003153479	0.0036051238	-0.0032239493	-0.008011553	-0.009731667	-0.0038653803	-0.0019837415	0.0035625908	-0.0070902444	0.002516459	0.00025812702	-0.0058863987	0.0042693275	0.0068650767	0.0011343439	-0.0068346956	0.0097307265	0.009607031	0.00012773562	-0.007177006	0.0030789315	0.00538463	-0.0024371396	0.0050829034	0.007588305	0.008312801	0.0041704243	-0.0068985466	-0.0057365187	0.0044581685	-0.007345746	-0.002325001	0.0016518711	0.0068385033	-0.0032349937	0.009962092	-0.0023366404	0.007663607	-0.0039786645	-0.008044946	0.0037185296	-0.001959401	0.0002674008
GCF_000273725.1	-0.008633401	-0.0057305256	-0.007163412	-0.0089398455	0.006616997	0.003283873	0.009093115	0.008761019	-2.5851929e-05	0.0063390993	-0.003480046	0.0020649747	0.004583495	-0.004203043	0.009356464	-0.0049819583	-0.0057388833	0.0031498007	0.0009065671	0.009053	0.009027817	-0.0039785	0.006067289	0.004556903	0.009085508	-0.007743361	-0.0010176161	-0.007026712	0.00888314	0.009376206	0.0074381507	-0.0038619626	-0.0019474941	0.008220562	-0.0071058674	0.009078295	0.0038643319	0.0021702093	-0.0016552728	0.009282771	0.00059851434	-0.0050191176	0.00566669	0.00055439566	0.008810193	0.0033234432	-0.00014473402	0.005305343	-0.0017768947	0.0043568877
GCF_000277325.1	0.0019413058	0.00090424763	-0.003918337	-0.008759194	0.009736916	0.0023313765	0.0026423384	0.005710381	0.008716815	-0.0044734203	-0.00043109243	0.005292681	-0.007659314	8.414302e-05	-0.0074578873	0.0060668825	-0.00830042	-0.00035462584	0.008005414	0.0058919266	0.0031657005	-0.0057381527	-0.004529647	0.00933327	-0.00025947025	0.004220345	0.006110334	-0.008363013	0.001875505	-0.008208095	0.00915915	0.003839752	-0.0070321276	-0.0077850814	-0.001973325	1.42965755e-05	0.0033818213	9.8780074e-05	0.0025074042	0.009120278	-0.0036421223	-0.0012909684	-0.0013437719	0.00442967	-0.001731795	-0.0015051693	0.006751309	0.0012593955	-0.006462676	-0.005297377
GCF_000277345.1	-0.0073052384	-0.006797708	-0.0026666939	-0.0015839412	0.007796096	0.0055430657	-0.004181493	0.0038665102	0.009862211	0.0037016082	-0.005804138	0.008452519	-0.0071693985	-0.006906829	-0.007990866	-0.008025578	0.009940618	-0.009452673	-0.0054428475	-0.0078687975	-0.0090553425	-0.009776003	0.005351158	-0.0006849587	-0.0004525503	-0.0071680667	0.00100045	0.008554339	0.007805686	0.009240407	-0.0049490607	0.009690986	0.0010605843	0.008755002	0.0073289084	-0.00079816603	0.0031144305	0.0054796934	-0.005578292	0.006811755	-0.008848413	0.005162804	0.0011729925	-0.009922857	-0.002261703	-0.0053800587	-0.004455751	0.002982214	-0.009054464	-0.0060405023
GCF_000307345.1	-0.00647019	-0.0024465113	0.007301878	-0.0029319893	0.009706277	0.0025565166	-0.0017135793	0.0089830225	0.004423037	-0.0033317187	0.0019800656	0.009888638	0.009033349	-0.0024379485	0.0048659933	-0.005970103	-0.0003380252	0.00677776	-0.0037345856	0.0047686086	-0.0015774841	0.00021782068	-0.0007431661	0.007565008	-0.0009905876	0.006479653	-0.0005965391	-0.0031012709	0.008709296	0.0059392336	0.007330462	-0.007925896	-0.008417386	0.00012985071	-0.00053599046	-0.004324255	0.008550673	0.0009528058	0.0044411574	0.0015714722	0.008352576	-0.009744354	-0.008251089	0.007972801	0.0016165074	0.004634306	-0.009398203	0.00021817411	-0.0037746087	-0.009866203
GCF_000307495.1	-0.0026059737	-0.0072185853	0.0006507119	0.0013363458	-0.0012668247	0.003518106	-0.008027211	0.00756084	0.0028912204	-0.008836315	0.009881893	-0.009333969	0.0050207884	-0.0027325912	0.006267896	0.0057842284	0.009437416	0.002963202	0.005349565	-0.0073195854	0.0034309062	-0.0013966738	-0.0023140868	0.00016076879	-0.0025750857	0.0019000954	-0.004890402	0.006182107	0.009068487	0.0055427016	0.00041980192	0.004655896	0.004352157	-0.0016782335	0.007617336	-0.0057966425	-0.0033502379	-0.009898867	0.008194609	-0.0009272661	0.00608277	0.008658041	-0.0026950988	-0.0050547086	0.0025176858	-0.008622245	0.00043241662	-0.0030621043	-0.009362429	-0.009363225
GCF_000338095.1	-0.005165969	0.0062040235	0.008359102	0.0047779037	0.0018604025	-0.009472913	-0.00852055	0.0070184716	0.0038102062	-0.0054762717	0.0098430365	0.007118477	-0.008391739	0.0018282186	0.008572031	-0.0011243585	0.00893736	-0.008536894	-0.0042895237	0.0060175764	0.008335524	-0.001169848	0.009943171	0.0024730677	-0.00070408534	-0.0037442164	0.0036308535	-0.0029353935	-0.0074690077	0.009036584	-0.0039641857	-0.009784312	-0.00670943	-0.005652424	0.0048750727	-0.0002145139	0.00087749626	-0.0030749782	-0.0093196845	-0.0021741053	0.00642567	0.00095813634	-0.0049211592	0.0064911777	0.009072648	0.003492843	-0.0058311988	0.0034072404	0.0072068507	-0.008814671
GCF_000341345.1	0.003045052	0.0030842638	-0.0029193556	0.006295146	-0.005933771	0.004150965	0.002621698	-0.0012507822	0.004247151	-0.007363392	0.009689026	0.0052594077	0.008182997	0.008348348	-0.0024752126	-0.0019311983	0.005555994	-0.006546685	-0.0056773466	0.0016485977	0.005784693	0.0060374727	-3.984345e-05	0.0048120255	0.0043645506	-0.007194924	-0.0074199056	-0.00021374215	0.006023421	0.0038318161	0.0020113208	-0.001190125	-0.0010496682	-0.0016395868	-0.0032636852	-0.0098947	-0.0009999946	-0.0030996555	0.0006102569	-0.003022369	0.0068406113	0.0021422666	0.0029519347	-0.00012430835	-0.0051752925	-0.0010693589	-0.009174926	-0.004285709	0.0026839662	0.004230677
GCF_000413395.1	-0.0069776275	0.005964623	-0.0055732704	0.0056022597	-0.0075947214	0.0009945703	0.0010532289	-0.00026573878	0.0019512264	-0.00804873	0.0028415902	0.0006908306	-0.008121417	0.0030932303	-0.008739272	-0.0015172218	-0.0030759627	0.008229318	0.00091914355	0.0093337055	0.0024646646	-0.00013928459	0.009940194	0.004245819	-0.006394742	0.006768378	-0.008175005	-0.0070813	0.0028920546	0.007975094	-0.006597202	-0.0051751835	0.0065559205	-0.00422213	-0.007967544	0.0031239844	0.0013514718	-0.0011687886	-0.0035378947	-0.0008639842	0.0008576673	-0.0069342456	-0.0005672217	0.0075923353	0.005520231	-0.0012933858	-0.0077104173	-0.003055918	-0.00061957166	-0.00040790235
GCF_000414215.1	-0.0021401828	0.0011863463	-0.004992525	0.00712381	0.008982314	0.0045851506	-0.0028761933	-0.008364423	0.0075721373	-1.0952371e-05	0.006595945	-0.008702976	0.002164453	-0.0076699033	0.0029732834	-0.008307635	-0.0056100343	-0.0019556612	0.0058370065	0.007489676	-0.0015111804	0.009684906	0.0018720992	4.7286405e-05	0.0047049364	-0.004188222	-0.0016379635	-0.006352244	0.0039835265	-0.004474294	0.009740487	-0.0014046506	0.009212543	0.007927762	-0.009194032	0.008844666	-0.0097010145	-0.0028636393	-0.00011303621	-0.0071567497	0.0044067474	-0.0035775062	-0.0007536679	0.0048060915	0.007037255	-0.0062255245	0.003461539	-0.0033502148	-6.399081e-05	-0.009397933
GCF_000421685.1	-0.0056673605	-0.007498941	0.0035675098	0.008142971	0.005246713	-0.0064763622	0.0016037603	-0.009913502	-0.003242076	-0.0007551152	0.0062980386	-0.0029929776	0.0026506	0.0022545524	-0.0039381143	-0.006231349	0.009939882	-0.00023206933	-0.0016865281	-0.0052185617	0.008946175	-0.008008151	0.00038330632	-0.008423588	-0.002834987	-0.0050009	0.0027177308	-0.006598389	0.004430088	-0.00041901442	0.005403114	0.002240477	-0.003250276	0.008234693	0.003747004	0.002644497	0.008860085	-0.009559732	0.0034474072	0.0038073317	0.0029325788	0.00038918038	-0.008271752	-0.00095282943	-0.001295321	-0.004970355	0.002103243	0.009095796	0.009994905	0.007974214
GCF_000425445.1	0.0074149487	0.00992384	0.0005306747	0.008794268	-0.009361715	0.0075739264	-0.006033602	-0.008367918	-0.000542341	-0.004321287	0.004639117	0.009245507	0.0051984717	0.007236874	-0.00070979114	0.005775121	0.009934471	0.0029609634	-0.009385408	0.008031363	0.0024277295	-0.000671018	-0.0013100852	0.001982676	0.0016866851	-0.0064571244	-0.009626111	-0.0022859266	0.00899875	-0.00016318599	-0.0034630345	0.0066463747	9.920319e-05	0.0038030276	0.0077403705	-0.005445173	0.00870683	-0.0095633	0.008589752	0.006637027	-0.0036716147	-0.008924815	0.008664003	0.0036406908	0.0024441096	0.007323474	0.009442459	0.0064501176	0.0032266087	-0.004260629
GCF_000426405.1	-0.009554397	0.0065015685	0.0061681634	0.0006101355	-0.008191525	0.005627943	0.003937697	-0.0068684593	0.0068973163	0.0051659197	0.0085670315	0.00055102725	0.009309155	-0.0050099962	0.0039676502	-0.007922226	0.0073385155	0.007662456	0.0011349965	0.0021244863	-0.002161395	0.004335259	0.0027865141	0.007056687	-0.0070888014	-0.00011960718	-0.006717824	-0.007124296	0.005976977	0.00043460267	-0.00021116981	0.005998924	-0.009861948	0.0027840822	-0.009805191	0.00674291	0.008591335	-0.0006926004	-0.0063658813	-0.008224921	-0.009844804	0.0027801	-0.0050036935	0.006736438	-0.0072184457	0.004299324	0.002236033	-0.00072457944	0.0008822006	-0.0035074372
GCF_000442645.1	0.006272809	-0.006471283	-0.0077457535	-0.0066422923	0.0060078595	0.00917596	0.0021856932	-0.00894606	0.0020772016	0.008197572	-0.0079048425	0.00788056	0.0011623688	0.0013545968	-0.0016547614	-0.000114534174	-0.006414704	-0.0096120685	0.008298547	-0.0040081707	0.0072002052	0.0014716801	0.008219876	-0.0016833816	-0.00062152784	0.0046615107	0.0028510664	0.0035381005	-0.0048993616	-0.001791101	0.00172387	0.009534437	-0.0025984377	0.0071401717	-0.0038296282	-0.0024464554	-0.0010817716	0.0074818702	-0.000463259	-0.0014817318	-0.00011374944	0.0054188212	-0.0043255626	0.0065112324	-0.008680657	0.0024129674	-0.007445998	0.0007016274	0.0065513616	-0.0005657599
GCF_000471945.1	0.0059553203	-0.0055361832	0.0033317262	-0.001408165	0.0066777	0.008756494	-0.008388594	-0.0020383792	-0.0033023444	0.00891914	0.002051289	-0.004310171	-0.008751155	-0.0011728039	-0.002111369	-0.009360649	0.006500428	-0.009176564	0.009209659	0.00241261	0.005368714	0.0056127617	-0.003421318	-0.0054803304	0.0056202905	0.007164972	-0.0007165208	-0.0014171214	0.0021862949	-0.005779886	-0.0072901896	-0.0034525571	0.002070221	-0.00966915	0.009349475	0.0061263754	0.0022126944	0.0035625503	-0.0051774275	0.0023196065	-0.0052692248	-0.007815539	0.006379917	0.008433703	0.0058279135	0.009770617	0.0076977573	-0.007344914	0.00038675615	-0.0028283542
GCF_000506985.1	0.0025985877	0.008690913	0.004685219	0.009598991	-0.0048268037	0.00064914406	-0.0039458517	-0.00487642	-0.00715104	0.0029342067	0.0026570826	-0.00236511	0.008274651	0.0011801544	0.0033851555	0.008415151	-0.0010080964	-0.008079254	0.00040783838	-0.0049636187	0.0049946588	-0.008085857	0.008128619	0.009565087	-0.0010767059	-0.007127099	0.0096380105	0.004650485	-0.0076154736	0.004474948	0.004339153	0.0033983144	-0.0006843096	0.006386851	-0.004532963	0.0029465542	0.0021923587	-0.007424156	-0.004369476	-0.0038325211	-0.004851321	0.009363727	-0.0088276025	0.0057745664	0.006013732	-0.001148241	0.008865462	0.00562537	-0.005061171	0.004213591
GCF_000511935.2	0.0082538845	0.00043636418	-0.0047002374	-0.0072176647	0.0035874874	-0.006898557	-0.002141987	-0.0065992535	0.009496412	-0.009824081	0.005933464	0.0061515383	0.00027309018	-0.0033257802	-0.00418765	-0.0025856046	0.0076634623	-0.0021676128	0.0024432773	-0.005679375	-0.0066533536	0.009147293	-0.00055298256	0.008790426	-0.007089026	0.006358686	-0.0023057966	0.0043110787	-0.0037076366	0.0012330665	-0.0041550756	-0.008905862	-0.0036419923	-0.003990908	-0.0054282816	0.0020830769	-0.0039238003	-0.005502565	-6.044511e-05	-0.0014639999	0.0034813297	-0.0023632087	0.0022119994	-0.0055333595	-0.0029499969	0.0030991472	0.0053087454	0.0031976188	0.00084071205	-0.0017995447
GCF_000517065.1	0.005364189	0.007473164	-0.008528323	-0.0036374605	-0.008646739	0.0018261692	-0.0075219525	0.001963083	0.0045225215	0.00040613656	-0.0010389521	0.007964983	0.0091588665	0.0062202266	-0.002486313	0.0058203917	0.005798698	0.0066206413	-0.008732075	0.008409042	-0.0050081117	-0.008961153	0.009886281	-0.00252734	-0.0049340124	0.009725142	0.005789463	-0.006928771	0.0051908386	0.0053724805	-0.0051841573	0.002303573	-0.00078281364	0.0048942706	0.008060535	0.007887818	-0.0045648892	-0.005139353	0.00024149512	-0.0004586322	0.0031088958	-0.0030007318	-0.0035597326	0.0071499655	0.0024406295	0.0035470123	-0.0043141367	0.0052893586	0.008249037	-0.009197493
GCF_000521505.1	-0.0027999002	0.0022427638	-0.0011757334	0.004593822	-0.0038423561	0.0070583816	-0.008065056	-0.0018510694	-0.006322201	0.005277348	-0.009327414	0.00078341406	-0.004549337	0.0074991994	0.0015317039	0.0047350163	0.0046555144	-0.0048294477	-0.0047623576	-0.0044209165	-0.009097872	-0.0028878017	-0.0025905245	0.008772067	0.007451994	0.0058871033	0.0055570765	-0.008054881	0.009756071	-0.0015687309	-0.00224586	-0.0016952121	-0.005709983	0.0039572325	0.008890314	-0.00505045	0.0008002291	-0.004763816	-0.00018452766	0.0028882828	-0.008573709	-0.0023685745	-0.00186616	0.0037448665	-0.008295449	-0.0021403714	0.008370358	-0.0069379043	-0.0092743635	-0.005542679
GCF_000585335.1	-0.0061974633	0.0016370467	-0.0007318281	0.0024548203	0.003995547	0.00753775	0.0023622504	0.00015992958	-0.002268074	0.0033046212	0.009114759	0.004716938	0.0013802659	-0.00018157624	0.006252541	0.006178926	0.0009610604	-0.004975042	0.0059962193	-0.00863355	0.006131846	0.0071079712	0.0050691576	0.0030239488	0.009499449	0.0021136587	-0.0056998543	-0.004174962	-0.003506703	0.00873654	-0.008824721	0.0067586964	0.004376339	8.4888066e-05	0.004108121	-0.007757368	0.005627165	0.0031507395	0.0023541492	0.0044372957	0.0013687529	0.00579132	-0.002282916	-0.008410247	-0.0008238001	0.00353975	-0.006016948	-0.00845595	-0.009119838	0.005540302
GCF_000612705.1	0.0018993439	-0.009836518	-0.006513915	0.00085502357	0.0053176684	-0.006055039	-0.00094954716	-0.0027661365	-0.009023916	0.0068825907	0.0028973918	-0.005157399	0.0060739885	-0.00056280167	0.0098187495	-0.008993595	0.007613972	-0.006535853	0.0075298063	0.005002579	-0.006615374	-0.008445289	0.0017874063	0.005761753	0.0044450304	-0.004379975	-0.006583529	-0.001454107	-0.009179001	-0.0046423576	0.0027033628	-0.0033821855	0.004905127	0.004601243	0.00766839	0.0047038086	0.00045098164	0.002938772	-0.00030345915	-0.00869479	0.008720963	0.0031967033	-0.003919977	-0.0050195837	0.0052559883	-0.0088780625	0.009044824	9.6255135e-05	0.004618225	-0.0059249257
GCF_000614895.1	-0.008867876	-0.008644113	0.0031713906	0.007459796	0.009181934	0.009024911	-0.0027991137	-0.009612105	-0.0055979732	-0.004739556	0.009442951	0.005111179	-0.0024237125	0.0019229768	-0.005741343	0.007513245	-0.003267177	0.0061910674	-0.0029245715	-0.0057539707	0.0040843813	0.008659012	0.0007405818	-0.003501015	0.00032191328	0.005794642	0.0029661683	-0.0066081774	0.005458407	-0.007999081	-0.002968062	0.00023057699	-0.0060474547	0.009975303	-0.0026118453	-0.0024036767	-0.0049757953	0.008132887	0.0060277116	-0.0085787745	-0.0024708929	-0.0060775294	-0.005541463	0.0015389109	0.0008639732	-0.0016767796	0.009305116	-0.009802683	0.00030797606	-0.00019570676
GCF_000688435.1	-0.0068388553	-0.0020370344	-0.007818737	0.008853956	-0.006630318	0.0055957166	-0.0067256624	-0.0007052918	0.0019001133	-0.004326527	-0.004392249	-0.0063445107	-0.0047758124	0.0013146844	0.007777018	-0.004599785	0.0042533847	0.008311392	0.008026762	0.004883764	0.0027284436	-0.002693702	0.0070180497	-0.0050644907	-0.00058116234	0.0029544302	0.006244433	-0.0070805876	0.005590876	-0.0034467133	-0.0073012183	-0.0014067603	-0.006564552	0.008060139	0.006406915	0.0047498355	-0.009198672	0.003963176	-0.0058665425	-0.0047733937	0.002045417	0.0038983948	-0.0018708925	-0.003246038	-0.0055562933	-0.00026980683	-0.00025100436	-0.003711625	0.0073806085	0.0009809618
GCF_000695895.1	0.009282611	-0.0052811243	-0.0034584042	-0.00863206	-0.009439186	-0.006920757	0.0018817378	0.0068588005	-0.0028087164	-0.0023574645	-0.0024956665	-0.0067307157	-0.0066377725	0.0047197826	0.009536894	0.0008815092	-0.008728351	-0.007371597	0.00979873	0.007961943	0.00078779034	0.009236952	-0.0016140646	-0.004022306	0.0019028869	-0.0028071424	0.004261542	-0.006125138	0.006930463	-0.005515858	0.006998063	0.0036028842	-0.00908047	-0.001530005	-0.00038470933	-0.0058877924	0.009732472	-0.005456775	0.008906255	-0.0019644792	-0.00641981	0.0019302466	-0.008723576	-0.0071976027	0.0036424801	-0.0097415	-0.007036641	0.0030540098	0.002996611	-0.0069090035
GCF_000712295.1	0.004472538	-0.0050271642	-0.0009249642	0.009480906	0.009903279	-0.0039658663	0.0036964174	0.0025957169	-0.0004751498	-0.0033941884	-0.006560293	-0.004417608	-0.0070006377	0.001602306	0.009495453	0.005416548	0.0049874303	-0.0020073007	-0.00043380528	0.0035029876	-0.008298796	0.0005763798	-0.0048493627	0.002342894	-0.009208776	-0.009919876	-0.008897778	0.006242758	0.0057179322	-0.0045640767	-0.0034259353	-0.00042035378	0.0061896765	0.008995293	-0.0031212938	-0.0026119465	0.00027566214	-0.0057300595	-0.0043414882	0.00045020488	-0.005345509	0.0052430746	0.0022552307	-0.0071074083	-0.0066026268	-0.0056485054	-0.0026626165	-0.0001567581	0.0010028867	-0.005915483
GCF_000741485.1	0.0073682675	0.0051296824	-9.165244e-05	-0.0016952797	0.005353894	0.008564449	0.004227908	0.0038800102	0.0045148693	-0.009527572	-0.0030398488	0.006731637	0.0015410886	0.0065645385	-0.0036980386	0.0023940557	0.0056494926	-0.0066633183	0.0016343818	0.006977491	0.007825949	0.003021582	0.007469079	0.0047806245	0.0040162876	-0.008071562	-0.0044191475	0.005554155	-0.007829366	-0.0057988875	0.0068797823	0.0021467959	-0.0040555745	-0.0073578884	-0.0025250546	-0.0011020114	0.007435172	-0.004370028	0.0014407592	0.0075733364	-0.009085037	-0.0068100165	0.008638421	-0.006612746	0.006054226	-0.004230374	0.006997413	0.00024241001	0.0052767326	0.0013093399
GCF_000741645.1	-0.004413613	-0.008090996	0.0046130433	-0.0043808087	-0.0063299774	9.8276876e-05	-0.00860413	0.0042138714	0.005317	0.0054335054	-0.0005637803	0.004097019	0.009977679	0.008165536	-0.0010732592	0.0013606858	0.0067717764	0.004829474	0.00033667806	-0.0016391228	-0.0007767465	0.0077015054	0.0016831274	0.009675512	0.004374672	0.0039774287	0.00020261525	0.00596638	-0.0058162957	0.0018344027	-0.008940157	0.0034248438	0.00034741627	-0.009043516	-0.008014962	-0.009631944	-0.0008144383	-0.0031017852	-0.007293854	-0.0027985927	-0.009558542	0.009808599	0.0017270889	0.009996807	-0.008978121	-0.005852432	-3.6332265e-05	0.008196549	0.0033736657	-0.0043294462
GCF_000741775.1	-0.0009985454	0.001292048	-0.008664914	0.001260559	-0.0051157265	-0.003545899	0.004730625	-0.0050369366	0.0073239733	0.0022247774	-0.0022857427	0.0059293043	0.009051665	-0.004000566	-0.007937176	-0.0061598816	-0.0021244688	-0.0033860481	0.0037174637	0.0021636314	-0.0062497393	-0.007924407	0.007525771	0.0018752622	-0.009715309	-0.009393498	-0.0005546001	0.0019387051	-0.005487167	-0.0018410494	-0.0022057919	-0.008995765	0.0017853274	0.005538588	-0.0009748401	0.0025798162	0.002357604	0.0071508465	-0.0042995918	-0.002999244	0.0050228443	0.009153643	0.0031164165	-0.005135797	-0.007421688	-0.0044581983	-0.0005321472	0.0031054085	0.009730612	0.00047033041
GCF_000771185.1	-0.005621802	0.006762361	0.0057599456	-0.00017826601	0.0041301567	-0.0017079124	-0.0017604944	0.00908568	0.00840573	0.008350714	0.004901932	-0.0046493737	0.0067581134	-0.003961832	0.0030930259	0.00018691891	-0.008147943	-0.0083004255	-0.00056518026	-0.006060633	-0.009872222	0.0010139975	0.0056890314	-0.0046481164	-0.004076998	-0.008829577	0.0032656912	-0.006771021	0.0054212455	0.009547588	0.009185444	-0.0030854845	-0.007163889	-0.009043206	0.0033310526	-0.0017130201	-0.0040109013	-0.0067706755	0.0016937332	-0.0054076426	-0.0068531586	0.0023251981	0.006854324	0.007984266	0.0035465918	-0.0023177685	-0.00017824912	-0.0048070266	-0.0036165488	-0.009052022
GCF_000771245.1	0.0016378217	0.009328805	-0.004122326	0.006524741	-0.0011424292	0.0012365679	-0.0058233673	0.0034830307	-0.003068493	-0.004154321	-0.0027861304	-0.0068610194	-0.008993394	0.0056454297	0.0029812788	0.0087201055	-0.0058357343	0.001484683	-0.008559493	-0.006833481	-0.0091069285	-0.0014913831	0.0043837633	0.0071037314	0.003106357	-0.0037751235	0.0051643066	-0.009889767	-0.009338806	0.007813065	0.008099898	0.009541237	0.0069913524	-0.0006512329	-0.008461669	0.0065265116	0.00397468	-0.0040334444	-0.0019077992	0.0039100046	0.009960634	0.0074011707	-0.0071872883	0.0006774881	0.00031898174	-0.0055921995	0.0060251765	0.009367388	-0.0081781475	0.0072674816
GCF_000816205.1	-0.00426225	-0.005186337	-0.0023794847	0.002409208	0.008380107	-0.007656369	-0.008359385	0.0042866846	0.0067713903	0.0060722544	-0.006172836	0.0017514116	0.00037663293	0.005230297	-0.00838881	-0.0018884107	0.0033974415	-0.0051799593	0.009292462	0.008493975	-0.0060091736	0.007430895	-0.001843036	0.007781061	-0.00027348188	0.0075206184	0.0062418426	-0.006620378	0.0006930151	0.008396036	0.004924568	-0.0050301333	-0.0036056784	0.00024377738	-0.007888218	0.0032615387	-0.00022691413	0.0043011545	0.007150891	0.002546281	-0.0010693683	0.0069752536	-0.0033033013	0.008982581	-0.0067492295	0.008945375	0.009786592	0.0016197719	0.001513613	0.005284554
GCF_000817045.1	-0.00028524845	0.0062846947	0.008415848	-0.0067923376	0.0024213903	-0.009211372	0.00022383042	0.009472747	-0.0011367729	-0.003967308	-0.004453709	0.008527216	0.0053629945	0.008706267	-0.0076676197	0.0031493658	0.0023438225	-0.003950811	-0.0050508943	0.0078843655	-0.005715599	-0.0073153833	0.0056825303	0.0018103836	0.008642867	-0.0025313522	-0.003685724	0.006845847	0.00804399	-0.0014787455	0.003268201	-0.0050313515	-0.000737221	0.004753808	0.008084596	0.0050020292	-0.0044801817	0.00661994	-0.0077694706	-0.0024849519	0.0037360282	-0.008316066	-0.009577418	0.0019279915	0.0054699853	-0.006895415	0.007981603	0.0067746257	-0.002072791	0.0012173034
GCF_000818055.1	0.005194046	0.0013731854	0.0017913148	-0.006748756	-0.008956803	-0.0018949943	0.0010249644	-0.0025364303	0.009851966	0.009334225	-0.0010337074	-0.002466024	0.006719353	-0.0061142356	-0.0061978395	-0.0034957575	0.0040569543	-0.0015666909	-0.0051531564	0.008273575	0.002912013	-0.0071582072	-0.009842496	0.009767532	-0.008078834	-0.0005253253	0.00025328828	0.0062940908	0.0065118726	0.00025847892	0.0025211214	0.0075576254	-0.0010397185	-0.00033175145	0.0029732774	-0.0076183104	0.008812656	0.00051129516	0.0058636647	0.007180812	0.002916249	0.0026361055	-0.0031718093	0.005813966	-0.005973665	0.005415325	-0.0029624063	-0.005750886	0.0036586905	-0.0016568236
GCF_000819445.1	0.009422412	-0.0060342522	0.001870401	0.0036063548	-0.006483829	-0.0064352183	0.0072429325	-0.009336916	-0.008259646	0.0003870453	0.0049664383	-0.0015083089	0.00959296	0.005440752	0.0023160218	0.009269439	0.0014256603	0.0031536885	-0.008987189	0.0032375013	0.0012182152	-0.004478955	0.0033388645	0.008849732	-0.007281353	0.0068369433	-0.0017537855	-0.009047329	-0.00697596	-0.008882818	0.00663644	0.009072933	0.0014013014	-0.003209502	0.006505501	0.0085866125	-0.0008702262	0.00293503	0.0028122708	0.0077627446	0.008938573	0.00084914546	-0.0026907544	-0.0031878855	-0.0008002809	0.0018702153	-0.0005937632	0.00984967	-0.0034480903	0.0005507185
GCF_000835165.1	-0.005027279	-0.0038354334	0.0006127013	-0.001506713	0.0025024682	0.0044882866	-0.0027294073	0.0003947371	-0.0017603753	-0.0066497307	0.0044653416	-0.008423499	-0.002750965	0.008063947	-0.0037920168	-0.0033849403	0.0024781951	-0.0044353455	-0.0010036345	0.008655279	0.0001882217	0.0013653752	-0.00030206004	0.0041080657	-0.001183057	0.006945009	-0.0011933212	-0.004139276	-0.0001459439	-0.000759445	0.0019069883	-0.0056887306	-0.005537257	-0.0064410507	0.0046934253	-0.0038357268	0.008432943	0.007538017	0.009924231	0.0009714709	-0.004448132	0.0019914662	0.00074757054	-0.005734189	-0.005617422	-0.00034849704	-0.006212927	-0.0069021652	0.0030608482	0.0040031406
GCF_000943545.1	0.005393499	0.0016004888	-0.00608868	0.007661273	-0.0031225602	-0.0011529647	-0.001552598	-0.008265275	0.0034369496	0.009533955	-0.002596933	-0.003882182	0.004365716	0.003202306	-0.002865394	-0.0055955998	-0.008134177	0.009039553	-0.009740473	0.009157607	-0.00644961	-0.007896292	-0.008221523	0.0052032517	0.0027034665	0.009782153	-0.005021934	-0.0021756385	-0.002065812	0.0026355432	-0.0058663944	0.006598931	-0.0041918526	-0.0005527989	-0.009542684	0.0066047106	-0.0014298947	-0.0035345296	-0.00977072	0.0017252818	-0.0030790018	-0.00447698	0.009695394	-0.004863965	-0.0029483985	-0.003706811	0.0047906004	0.0074257147	0.0047905063	-0.00083558785
GCF_000974365.1	-0.005244039	-0.0051824697	-0.0014515498	-0.008038671	-0.009884843	9.105599e-05	0.009778288	-0.00411737	0.0048236875	-2.8206296e-05	-0.008380315	-0.00655094	0.008780913	0.00043687242	-0.0077250716	-0.0069798618	0.0069139316	-0.0016327561	0.006661073	0.0019692443	0.007484189	-0.008505958	0.008086898	-0.008664998	-0.0014031911	-0.0005083574	0.004963803	0.007168772	0.004199372	0.0014598597	-0.006783746	-0.0056297616	0.009754135	-0.0006065735	-0.001835089	-0.001946868	0.0010640551	0.00082171	-0.0016379872	-0.006415717	0.005646114	-0.0017976452	0.00036283172	0.0040284866	0.0013185068	0.008196703	0.0063154227	0.003687034	0.006232635	0.003188706
GCF_001021045.1	0.006027506	0.0033964417	0.0077923946	0.0031454738	0.0062573142	0.00686104	-0.0050910925	0.0051294644	0.0038373496	0.0051778127	-5.2641255e-05	-0.0061040893	0.0067001265	-0.0063890857	0.0074241282	0.005140977	0.0037965344	-0.008674988	-0.009847243	-0.0023672157	0.009601217	0.007262471	0.008030981	-0.007962797	-0.0034979724	0.0026958617	0.0039174026	-0.007305919	-0.0032701746	0.0028008944	-0.004825849	-0.001998308	-0.0009767181	-0.0015331814	0.00024608555	0.0052780965	0.005379628	-0.008513626	0.0070740017	-0.00227141	0.0061942786	0.0065539475	0.008507982	-0.0003931668	-0.003374262	-0.0075647566	0.0006340675	-0.008384326	-0.009650583	-0.0023809378
GCF_001039715.1	0.007148723	0.006665679	-0.006151548	0.008511577	-0.006138555	-0.009855275	-0.0067204395	-0.0096650105	0.0047009606	0.0037336783	0.0029444299	0.004919575	0.0004115603	-0.007894586	-0.0062192366	-0.009592606	0.00014824797	0.008942925	-0.0031932855	-0.0013582258	-0.008061185	-0.0055633956	-0.0047538374	0.007765063	-0.007982391	-0.0031084307	-0.007873217	0.0088494755	-0.006664549	-0.0061569153	-0.0052242274	-0.007742743	0.005385035	-0.0046749553	0.0027274115	0.0076174517	0.008430525	0.0069824266	-0.002030064	0.008030961	0.0016512035	-0.0072383913	0.007633583	-0.0098166205	-0.0074599143	0.0001838741	-0.0098374	-0.00983608	0.0026299465	0.0054280185
GCF_001053765.1	0.0078094928	-0.0069602146	-0.004519403	-0.007781003	-0.009288611	0.0064389287	0.003282786	0.0013009595	0.008703843	0.005527671	0.0003379985	0.0037564496	0.009274779	0.0029132005	0.009967593	0.001914082	-0.005125956	-0.007618252	0.0038468144	-0.0031389715	-0.0011803146	0.003960891	-0.0030652694	0.0038922362	0.0034967805	-0.0027842887	0.0070122546	0.0093008205	-0.009830589	0.0011232968	0.00601932	0.0020734428	0.0014790418	0.0047163777	0.006383155	-0.0027489983	-0.0017601774	0.0058397828	0.0010794796	-0.0065976144	0.004262754	-0.00974228	-0.006542934	-0.007920676	0.0032209847	0.008622706	0.0036122592	-0.009657144	0.009156614	0.0034895502
GCF_001056295.1	-0.0054305405	-0.0048975437	0.0063263495	-0.0001485086	-0.0014088169	-0.0073637767	-0.005277979	0.0057560313	-0.0086803185	-0.0028643548	0.00256257	0.008022628	-0.004001063	0.0033134227	-0.007839234	0.0007334446	0.009036053	-0.0076097734	-0.0014830243	-0.00084177265	-0.004779548	-0.0048621325	0.0043071583	-0.0027740793	0.006199228	0.0035193085	-0.0013828765	0.007829991	-0.0064301207	0.0040067406	0.008026556	-0.0017439142	0.00716741	-0.008398759	-0.004569959	0.005034732	0.007662045	0.001878841	-0.0021794105	-0.00087442645	0.0017473077	-0.0014698325	-0.0050623557	-0.0056706606	-0.006450002	-0.0010994571	-0.0008863709	-0.0024939675	-0.00946318	0.007173404
GCF_001263835.1	-0.008530938	-0.0014673678	0.009710691	-0.0064672423	0.0010304772	-0.0050327242	0.006175274	-0.0050629782	-0.0040082554	0.008420365	-0.0023452786	0.000105607905	0.0070205196	0.008125548	-0.004925782	0.0019559173	-0.0086168	0.0025101046	0.0030516281	-0.0014492485	-0.0047941958	0.0069269384	-0.0008498085	0.008466223	-0.009613529	0.0023015402	-0.009691625	-0.004560543	-0.0023103736	0.00997481	0.0013407179	2.9109162e-05	0.0073532383	-0.0072802976	0.0054923287	-0.0057645226	0.0007251964	-0.008017471	-0.004065987	0.00066875987	0.008093611	0.0071416926	-0.007933144	0.000108589054	0.0048407177	-0.0027027884	0.0028744128	0.004589553	0.00065182	0.0018973189
GCF_001263865.1	-0.007691418	0.008180607	0.008042904	-0.008554873	-0.0059776446	-0.00037368273	0.002436754	0.0052598296	0.003755643	-0.007320373	0.009421451	0.007202473	-0.002120742	0.008375451	-0.003726173	-0.0011943642	0.002911183	0.005755173	0.002343293	-0.008046662	-0.004685141	0.005466379	-0.0025937248	0.00349233	-0.0054729185	-0.0017116988	0.004530794	0.009518726	-0.0042075748	-0.00422581	0.004395287	0.0028479614	0.0014809	-0.0039379494	0.0059272107	-0.009799388	-0.0043322854	-0.0041780444	-0.006534589	-0.0006781833	0.008358742	-0.009851368	-0.0024449306	-0.0057733255	-0.002345327	-0.00899931	0.006885484	0.0099773845	-0.009037362	0.009060181
GCF_001263945.1	0.0022266044	0.00499817	-0.007521201	-0.002969482	-0.0040387185	0.0095869275	-0.007988147	-0.008298399	0.009425421	0.0045169066	-0.00844354	-0.009565058	-0.00114576	-0.009081969	-0.004059897	0.003524826	-0.008425034	0.00037122963	-0.0031759667	-0.0016086907	0.004107051	-8.104948e-05	-0.003280832	0.009228539	-0.005621305	0.0075148926	0.008630993	-0.009011955	0.009225805	-0.0036777148	-0.0032580947	0.00325915	-0.00069463626	0.004266815	0.002590038	-0.007069003	-0.0029894097	0.006787494	0.002385154	0.005436798	0.0072944015	0.009732574	-0.0023734584	-0.0016872152	-0.0051092715	-0.0005798538	-0.0051855547	0.0042632176	-0.009412431	-0.008531775
GCF_001263975.1	0.0015991117	0.0020116281	0.0088834325	0.0093857525	-0.0037648045	-0.00025377798	-0.0015949545	0.0024414372	0.0037308892	-0.0040583527	0.0029075334	-0.009792918	-0.0006989711	4.453672e-05	-0.0052133547	-0.0052684345	0.0020973766	-0.0009900609	-0.009010349	0.0061449497	0.009136651	0.0065182596	-0.0033878125	-0.0058682105	-0.008561396	-0.005136451	-0.007980734	0.005421503	-0.0047718813	0.0055136047	0.00975364	-0.004603853	-0.006043974	-0.0022711111	-0.00084578234	0.0033666734	-0.008093262	6.853712e-05	0.007813007	-0.009920977	-0.00995015	-0.0051755668	-0.002255387	0.009997142	-0.0004971745	0.009408317	-0.009238578	-0.004541988	0.0005281392	-0.00014156726
GCF_001263985.1	0.0044586738	0.009645316	-0.0029906533	0.0015544988	-1.3662568e-06	0.0051700515	-0.0018471262	-0.008622442	-0.00081602007	-0.0015007345	0.0059360373	-0.0018612966	0.009264399	-0.0013554026	-0.0028593263	0.002343197	0.0028702784	0.005377753	-0.0016728685	-0.0061203656	-0.009583224	0.0015593595	-0.0044608754	-0.0068380577	0.008179078	-0.0005750126	0.0035930877	0.002631163	-0.00477279	-0.0030313453	-0.009426578	-0.007196482	-0.0039963885	0.004805577	0.0018276387	-0.005589837	0.008880303	0.0016105736	0.0063655037	-0.0027082965	-0.0075281863	-0.003142631	0.004831014	-0.00435626	0.00045131662	0.005404782	0.0072503076	0.0070358934	0.0061910697	-0.00572939
GCF_001264015.1	0.009907929	0.0035626946	-0.0035990998	0.001053027	0.0010774119	-0.009337201	0.004502008	0.006767251	0.0032126622	-0.009710981	0.0056333574	-0.0019312361	0.008571778	0.0072413706	0.0032331375	0.006392717	-0.00028818523	-0.002505821	0.005605891	-0.00041412818	-0.0067158747	-0.0027836687	0.004181497	0.009498034	-0.008735217	-0.006882398	-0.0055169207	-0.0051364163	0.0013046943	-0.0059148697	-0.0074944473	0.005166735	0.009966087	0.009835659	-0.0037258777	-0.0043319305	0.00877904	0.002459145	0.0002725978	-0.0002977236	0.009942546	0.0059617753	-0.0013756601	-0.008432193	-0.0009763723	0.0022911308	-0.0011509272	0.001266599	-0.009980928	0.009239532
GCF_001264055.1	0.0023464102	-0.0059558162	0.00532517	-0.009880381	0.0044681816	-0.0076838294	0.0059589962	-0.006054876	-0.006547461	-0.0046950993	0.0077712224	-0.0006674374	0.008852764	-0.0011497538	-0.0074784053	0.0061373925	-0.00029696766	-0.0012234502	-0.006112965	-0.0054184753	-0.0017127522	-0.007653521	-0.0007463358	0.0051716515	-0.007857593	-0.0022524577	0.0027066313	-0.0052953986	-0.009837848	-0.0025993118	-0.0025495524	-0.0021454282	0.0040132143	-0.0050532767	-0.0010776835	0.009347875	-0.0034370022	-0.0022016494	0.0035934853	0.0033374096	0.003925138	0.006955211	-0.0076250173	0.0023968262	0.0068563013	0.0029685348	-0.0069730533	-0.003604833	-0.0055795205	-0.005465096
GCF_001310955.1	-0.0026030913	-0.0022756495	-0.0022501673	0.0065941904	-0.0047578346	0.0089192595	0.0046964907	-0.003654848	0.00047529626	0.0005946269	-0.00503823	-0.006218398	0.0076161535	-0.007512824	-0.0028906576	0.0031417308	0.007208222	-0.008010629	-0.00023367569	-0.0048525487	-0.0017307115	-0.0028169497	0.008398383	0.007765049	0.0041084755	0.0072323848	-0.0019986543	0.0018675419	-0.006001316	0.0033840104	-0.0035567542	-0.0025000207	0.009903722	0.0080807265	0.007858615	-0.007994458	0.007854891	0.00013873947	0.009694866	-0.006473091	-0.0026024382	-0.008351746	-0.006788348	0.008658663	0.00081916014	-0.00015573128	-0.007994915	0.009525525	-0.0028798883	0.004595706
GCF_001404575.1	-0.003894647	-0.0042547	-0.0073483717	-0.0011085441	-0.00461324	0.0077029094	-0.0062112887	0.00011470071	-0.009885757	0.0063200817	-0.003733409	0.009857932	0.00940157	0.0036336621	0.008919642	-0.009557938	0.009947619	0.0035946723	0.0043051923	0.0071673226	-0.00410505	-0.004506854	0.008478402	0.0091408705	0.0048662513	-0.007489419	0.009171118	0.003282474	0.0071079535	-0.0027182552	-0.007745885	-0.0076063257	-0.009642588	-0.0013477671	-0.0056209755	-0.0035310667	0.00986577	-0.0047882563	-0.003131913	-0.0018926184	-0.005041372	-0.0023655521	0.0055786804	-0.006348556	-0.0007925307	0.0025470266	0.0007748202	0.009990359	0.0030652818	0.0060881074
GCF_001405515.1	0.0069527733	-0.0076826024	-0.006248169	0.0059494227	0.003890454	0.009066617	0.005435707	-0.00934028	-0.008750792	-0.0032248006	0.0006620154	-0.0029404818	-0.0046576387	0.0086053405	-0.005423803	-0.0021062207	-0.005038	0.006985241	-0.00944377	-0.008608336	-0.007402618	0.0036325643	0.0008001831	0.009702779	0.0057012155	0.0063256156	-0.0025408317	0.0023027738	-0.00185942	0.007656609	-0.003951839	-0.0015233281	0.008839698	0.0038156854	0.0026092536	0.004970128	-0.0031458763	-0.00022130579	0.00054903066	-0.0073948903	-0.0048545995	0.00514804	-0.00048602893	0.0070844423	0.0045354157	-0.0008128745	0.006020232	0.006306309	-0.007816363	0.001578059
GCF_001405955.1	0.00076733826	0.001729645	0.0020369964	-0.0055952263	0.0041271364	0.00079814927	0.004920567	-0.007136704	-0.0039576646	-0.0010360717	0.0014704267	-0.006898799	-0.0037046378	-0.0052003213	-0.0050691413	-0.008696013	-0.007558804	0.0056357123	-0.0079814	0.0057604923	-0.006963743	0.0091672465	-0.008637826	0.004247376	0.0050645974	-0.0071676313	0.0036893715	-0.0023283435	-0.0054496275	0.0061198645	0.0046317996	-0.00941788	0.0014437109	0.0018066452	0.008769137	0.0047130035	-0.0018592265	0.006939238	0.009931796	-0.0041845012	0.007845563	0.007954688	0.009047387	0.00066201156	0.0076402007	-0.0003429884	-0.006899467	0.003640892	0.004110734	0.0028650851
GCF_001535605.1	-0.006487661	0.0015930245	0.004105138	0.006002084	-0.0099370405	-0.0015526427	0.002575569	-0.007588486	-0.0017914665	-0.007645704	0.00679044	-0.007468457	0.008926103	-0.0010118904	0.0066350535	-0.008610759	-0.0010992582	0.0023805953	-0.004986512	0.003350451	0.0075926464	0.0003817658	-0.0036510476	0.0032227763	-0.0073867426	0.0019476494	-0.0016406255	0.0023706483	-0.009166485	0.009730368	-0.0011524829	0.0007482673	0.0029722627	0.009832607	0.0035608748	-0.0076284073	-0.0009651934	0.0057051196	-0.009289905	-0.006860776	-0.0074490462	0.00026702866	-0.00034887745	0.0040824483	0.0043108314	0.009422869	-0.005848884	0.0007286164	0.0039619384	0.0078260135
GCF_001551835.1	9.588501e-05	-0.0010285651	-0.003374333	-0.0055956715	-0.005075476	0.008816412	-0.0059949467	-0.0028585081	6.721171e-05	0.008097413	0.006807253	-0.007936068	0.008191653	0.00021431575	-0.0062136063	0.006131853	0.009252943	-0.0064378735	-0.0023357077	0.0014589591	-0.0020825586	0.0009540141	-0.008354071	0.007722124	-0.0064388765	-0.008804446	-0.0005070951	0.0045429254	-0.0029259939	0.008173997	-0.0017099669	0.0022581215	-0.0067674136	-0.0002295143	0.008976132	-0.00081896305	-0.0039326693	-0.009087818	-0.005264313	-0.005407542	-0.0009917882	0.0036534786	-0.003158685	0.0041995416	-0.009421437	-0.009022613	0.0036170746	0.0036092654	-0.005038927	-0.00013878765
GCF_001571025.1	0.0008027067	0.007688802	0.00047839803	0.009736633	-0.0054674176	0.0050882786	-0.0067141945	0.009533666	-0.008522651	-0.0010630945	0.0044358126	0.0031367624	-0.007010891	0.0035585286	-0.009670954	0.008546756	0.005879034	0.008304551	-0.00036840542	-0.005107885	-0.006896979	-0.0035620062	-0.005139435	0.004845726	0.00034552545	-0.003174303	-0.006722886	0.0046041086	-0.0064957193	0.008092629	-0.0043528858	0.001166137	0.002130651	0.0015412504	-0.009538175	0.005454989	-0.0017474928	0.0051915185	-0.00901503	0.0025301862	0.00418132	-0.0038697033	0.0057964153	-0.0065338165	0.0017221058	-0.008562988	-0.0054234327	-0.0004382348	-0.007676857	0.0052877683
GCF_001571425.1	0.0061291666	0.007264453	-0.003210114	0.004250381	-0.005194294	-0.00031064625	0.009166652	-0.00692077	0.00066992664	-0.007491534	0.008938739	0.0018312259	0.0044564023	-0.0053033563	0.007947049	-0.008998024	-0.006118574	-0.0064135096	-0.0035346842	-0.0059550093	-0.0053640977	0.0057494026	0.005355749	-0.0072609275	0.0042696577	0.0024888732	-0.004570255	0.0026022166	0.0040247724	0.00981091	-0.002925538	0.007417063	0.0023721806	0.009721185	0.0006563226	-0.0071774544	-0.00014877776	0.006568527	0.0005944766	-0.009001815	-0.005932896	-0.004226586	-0.009411191	-0.002514151	-0.009397555	-0.009845648	-0.003584965	-0.00066377484	-0.006008005	-0.003927514
GCF_001652705.1	0.0027380993	0.00912923	-0.0013555188	0.004403388	0.003596356	0.005355249	0.003964064	-0.0082982415	0.0033900493	-0.004796014	0.004773192	-0.008908492	-0.004435825	0.0077642524	0.009751637	-0.009281627	-0.002369719	0.008934916	-0.0049398183	-0.007336745	-0.0019861048	0.0004618742	-0.004910136	0.008403435	-0.004585691	0.004114515	0.0021454233	-0.0007747285	0.00052816764	0.0009350878	-0.0019968161	-0.007171061	2.92502e-05	0.006320455	-0.0098087145	0.0013274287	0.001771479	0.0015882457	-0.003947687	0.0047955797	0.008023447	-0.005009905	0.00038795656	0.0048936987	-0.008261475	0.009962487	0.00529852	0.0041693244	-0.007706268	0.00023608997
GCF_001678855.1	-0.0041171648	-0.0077391607	0.009940722	-0.007947685	-0.00884372	0.0013132722	0.00091460964	0.0030164772	-0.0032226264	5.6667108e-05	-0.002571418	-0.0037797226	0.003693154	-0.0034085414	0.005879718	-0.00612177	0.009980959	-0.009425025	0.008355803	-0.009865747	-0.009333348	0.0016190417	0.0032707625	-0.008920796	-0.0076237926	0.005476063	0.00028939807	-0.0098019885	0.0008696755	-0.0034895479	-0.009878307	0.008537252	-0.0015492196	0.0015456203	0.0031688344	0.008505615	0.0067022215	-0.009143904	0.0005321898	-0.008097828	0.00922433	0.002819665	-0.009331747	-0.0027687065	-0.0041480707	0.002714751	0.0006423569	-0.006662964	-0.0047345273	0.004622895
GCF_001688645.2	-0.00016737265	-0.0043877005	-0.009079118	0.008282642	0.0076828804	0.00802446	0.004407488	0.0038172456	-0.00162478	-0.0018339951	-0.0025171912	0.0067248056	0.0007057623	-0.0010464955	0.004066509	1.2089984e-06	-0.007882907	-0.004578596	-0.00016945874	0.0056317737	-0.0065225433	-0.007749982	0.00052505394	-0.0033979553	0.006452975	0.0067650783	-0.00527303	-0.0012714574	-0.0037424874	0.0032366912	0.005086425	-0.0062516574	-0.0056460164	-0.009675194	-0.00028373985	-0.0045627886	-0.009100946	0.0018706529	-0.0078088613	0.00050526863	0.0069734007	-0.0006883365	0.0022450897	0.007780428	0.0095746005	-0.007128983	0.008799538	0.00905411	-0.006687898	-0.007369937
GCF_001701045.1	0.007117048	0.002604483	0.0013918866	-0.0075011826	-6.5602355e-05	0.0039591677	-0.009065909	0.0011576175	0.005819632	0.0045831604	0.0045075617	-0.009427825	-0.0053896555	0.007245969	0.0041650715	-0.0007903961	0.0088412445	0.0040238886	-0.004130264	-0.0034729291	0.00952893	-0.004679514	0.0076987282	-0.009650807	-3.599228e-05	-0.0057166372	-0.0004136423	0.009661074	0.0042085988	0.0024199774	0.007738563	-0.00564754	0.0035672265	0.0026865485	-0.0023568445	-0.009644737	0.002312267	-0.007818502	0.005152711	-0.0073188352	0.00045789804	-0.009080116	-0.006631067	-0.0013793317	-0.0064859074	-0.007034193	-0.009178626	-0.00968926	0.0053350227	-0.0041586016
GCF_001757415.1	0.009230487	0.0022745503	-0.0029547936	-0.005268305	0.005499627	0.009245992	-0.00070315425	-0.0045388113	0.0021803745	0.006231556	-0.0063198977	0.0013605707	0.0017554682	0.0023279365	0.0064600566	-0.00769725	0.000817753	-0.006490453	1.7758992e-06	-0.0078977235	0.0022685006	0.009517243	0.0043086745	-0.009807506	0.0067139454	-0.0019450294	0.0076763104	0.0017901657	-0.0066535245	0.008016991	0.005088736	-0.003080053	0.0030815133	0.0074504116	0.006712819	0.0007850661	0.0074614864	-0.0002591884	0.0028375217	0.007423581	-0.00046889065	0.0007111933	-0.002217097	-0.004630222	0.006022681	0.0012109292	0.000681913	0.0052940054	0.007168186	-0.0057277936
GCF_001757465.1	0.0038862883	-0.009639258	-0.0016332349	0.008449864	0.00983572	0.003498449	-0.004983578	3.043667e-05	-0.0016863643	-0.003270762	-0.0084641	-0.005951745	0.0079001505	-0.009091699	0.006260508	-0.0020618397	0.0032054726	0.0061183944	0.009111951	0.0019977568	0.0058164974	-0.0043595433	-0.002013218	-0.004325149	-0.009343226	-0.0049273293	-0.0019198939	0.0019331882	0.0004341553	0.004261514	0.009113021	0.006913288	-0.008157947	0.00666766	-0.008739433	0.008463126	-0.007024685	0.0038020674	0.0045091873	-0.003988497	0.005989609	-0.0033443237	-0.009726014	-0.00074391963	-0.0030248836	0.006325693	-0.0070404937	-0.0022877718	-0.0071975	0.0070061493
GCF_001757485.1	-0.0012619966	-0.0040679183	-0.0033130443	-0.00089008355	-0.008209608	0.004935047	0.008774429	0.0033395186	-0.00045552518	0.0066952845	-0.007264836	-0.0051583597	-0.0061948663	-0.0055985716	-0.0043020467	-0.005091959	0.0017418681	-0.0038548247	0.003779197	-0.00839884	0.009171975	-0.0033942002	-0.0012434197	-0.0035223465	0.0046139094	0.0074299504	0.0033777424	-0.0047671497	0.00050790113	-0.0026781396	-0.00063677283	-0.009822756	0.0012566893	0.0063617937	-0.007096756	-0.008188285	0.0039119623	-0.00828369	-0.0024942171	0.0026228307	-0.0006913282	0.0086454	-0.005155248	-0.0032397527	0.0034436735	0.008929654	-0.009682933	0.00936659	-0.0039786906	0.0031172826
GCF_001757495.1	0.002879111	-0.0055209897	-0.007674823	0.0054430654	0.0037635241	-0.0067662518	-0.0045152595	0.005499558	-0.0028884804	0.009202637	0.00030827458	-0.004412374	-0.003773165	-0.002252045	-0.001045535	0.0018063914	-0.008832024	-0.006764036	-0.0067572463	0.0059362883	-0.0014945403	0.008004737	-0.00076955336	-0.006504896	-0.0029353814	-0.0058660125	-0.0052025225	0.008415957	0.0019405728	-0.0024939824	-0.00301776	-0.0025295683	0.0030717344	0.0058769695	-0.007849757	-0.0017426196	-0.004748222	-0.00047634216	-0.0005017764	-0.004738553	0.00219737	-0.0012487833	-0.0061994116	-0.0055967486	0.00050991337	0.009554878	0.006174289	-0.0028226709	-0.009259835	-0.009510015
GCF_001757565.1	-0.004426413	-0.0054349103	0.0090657575	-0.009443049	-0.006132543	0.0023118085	-0.008031406	-0.0052029975	0.006571045	-0.005487653	-0.002368593	-0.0029608225	-0.008711823	0.0015566318	-0.0023521709	-0.00950553	-0.0033920363	0.0014366126	0.006094006	0.004430159	0.006373405	0.0009469416	0.004849543	0.006379126	-0.00805461	0.005529994	-0.0013958601	-0.009646574	0.0058980696	0.009397625	-0.009821004	-0.0064348336	0.0012125726	-0.005189087	0.0025957336	0.0015000941	0.006524042	-0.0042970716	-0.007878315	-0.00571931	0.0018707124	-0.004337503	0.0022751591	-0.007082553	0.0087001985	-0.0011627815	-0.0034167275	-0.0041000033	-0.0047213715	-0.009354004
GCF_001892925.1	-0.0027025074	-0.008188542	0.0038300364	0.0006322414	-0.005633025	0.00031228238	0.008794081	0.0011880273	0.0013246915	0.0021467318	0.0012029096	0.0046866415	-0.0007221229	-0.0052373405	0.0031163248	0.005566524	-0.0069361553	0.0016034384	0.0036212483	0.009742236	-0.00094496144	0.0039113755	0.00086295	-0.008562188	-0.008948023	0.009015236	-0.0033010866	0.009258346	-0.0033421093	-0.0024113818	0.0014634174	-0.0059704687	0.004849731	0.003247744	0.0080204625	0.0076205647	-0.0063730823	0.0040348396	-0.0010236927	0.007614037	0.00896465	-0.0011272798	-0.004550329	0.0044181813	0.0027224445	0.006684982	-0.005145714	-0.008006299	0.004789644	-0.0047907056
GCF_002078355.1	-0.008443422	-0.009864041	0.0062122005	-0.0009018244	-0.0041167284	0.00786625	0.007444654	-0.0029414014	0.0020861577	-0.006468553	-0.008438423	-0.0037198614	-0.005526839	0.0089650275	-0.0024169604	0.008066719	0.0018042262	-0.0024438556	0.009013785	-0.0020563349	0.008241292	-0.0021336882	-0.0020302339	-0.0012307036	-0.009243419	-0.008282074	0.0050689606	0.004754147	-0.004127831	-0.005431254	0.008072088	-3.8645114e-05	0.005565653	0.0060340194	-0.007214143	0.0028809542	0.008143288	-0.006972156	0.0039879996	-0.006255366	0.0005933434	0.006990667	-0.0003196738	-0.0070681702	0.0088006165	0.0069765113	0.0014938512	-0.006654149	0.0065593314	-0.0084746815
GCF_002201795.1	-0.0029220975	0.0070809163	-0.00840826	-0.004164874	0.009073849	0.0055397237	-0.0069945683	0.0070796357	-0.0073592067	-0.005661591	-0.0075116963	0.0031407436	-0.008349568	0.0052326806	-0.0019956513	-0.007225232	0.0070093335	0.0042182426	0.008346807	0.0053198054	0.00047585348	-0.0050110565	0.005095299	0.008637001	0.002794603	-0.006180528	0.0067853415	-0.00740313	-0.008731517	0.003681283	0.0046167187	0.0041063516	0.001341684	0.0075040935	0.00025405156	0.004421127	-0.0065046754	0.00863443	-0.006601624	-0.003989126	-0.0029424145	0.0005693706	0.005119187	-0.0014642855	-0.0023054124	0.0039813905	5.9711652e-05	-0.009904112	0.0014414291	-0.00046234438
GCF_002220485.1	0.0011159664	0.00724999	-0.006915928	0.008337911	-0.0013649798	-0.004926426	0.004452385	-0.009902428	0.009068649	-0.009072436	-0.0019270167	0.0048419815	-0.0019216096	0.0006454311	0.009220444	-0.006430668	0.00048858946	0.005936358	-0.0076446524	-0.0044002654	-0.004562921	0.008018497	-0.004813321	-0.0013261805	0.0012607558	0.0070840386	-0.009710028	-0.00049683196	-0.0049472293	0.0066523952	-0.009182661	0.005241262	-0.00956678	0.0047536525	-0.009943335	-0.0034864265	0.00932034	0.009842333	-0.004169037	0.0019351918	-0.004135739	-0.009872689	0.002440584	-0.002023097	-0.0075692735	0.0015976513	0.0012684088	-0.006533622	0.003957433	0.0026086073
GCF_002221565.2	-0.0075715957	-0.007071757	-0.008259752	0.0050088493	0.006987605	-0.000119375654	-0.007817963	0.005749134	-0.009386126	-0.007207675	0.00029862157	-0.006357634	0.0027574955	0.0072761304	-0.0039566346	-0.008593553	0.008964677	0.007295135	0.006354103	-0.0009350454	-0.00014026965	0.0024827733	0.009059649	0.00685995	-0.00058429287	0.008710599	0.004964769	0.0025582083	-0.005983354	-0.007411392	0.009813972	-0.0064596157	0.009988744	0.0035609505	-0.0002585732	0.006326793	-0.0034174542	-0.0037849692	-0.0026237292	-0.002099561	-0.001223371	0.005026787	0.00060072273	-0.0030333893	-0.009494735	0.005967115	-0.007033709	-0.007802828	-0.009282871	-0.0017722087
GCF_002222615.2	0.008517989	0.008709623	0.008634429	-0.0020654625	-0.0023343218	-0.0068449914	-0.009925138	0.0023482044	0.0052273027	-0.009654667	0.0030512454	-0.004322144	0.0073173484	-0.0023310964	-0.0074917534	0.004815851	-0.008901567	0.0017316589	-0.0076785185	0.0024182925	-0.006966308	0.005923986	-0.004701829	-0.0031851502	-0.0029499624	-0.00021525414	-0.007434123	-0.0022971556	0.007872001	-0.0012101554	0.007118954	0.006043219	-0.00020663116	0.006327038	0.0018791438	0.0036057136	0.00055197557	-0.00254198	0.0033751386	0.009334397	0.008540862	0.0050699646	0.003921782	-0.007433809	0.0044396487	0.002841691	-0.0033491869	0.0065304786	0.0077753607	-0.0048023267
GCF_002914815.1	0.0049187248	0.004881653	-0.004781018	-0.0097078765	-0.007522993	0.00066646823	0.009872039	-0.005132609	-0.0027763073	-0.0067787445	0.000822598	-0.003348553	0.0062263934	-0.006760889	-0.0074544796	0.008571772	0.003390602	0.0022154355	0.008977247	0.009625442	0.002146784	0.009469545	-0.0010726373	0.004783616	0.0017833518	-0.006662385	-0.008426288	0.008162583	-0.0028983972	-0.007075138	-0.004959682	0.00048437066	-0.005454687	0.009105133	-0.0030953235	0.005456886	0.0010947874	0.0062077213	-0.0012904687	0.009015356	0.001476125	0.0038332224	0.009460544	0.007869933	0.001457183	0.0029281152	-0.002785643	0.007867507	0.0032087916	0.0020034085
GCF_002914895.1	0.008432289	-0.005208442	-0.0074589066	-0.007085388	-0.006809573	-0.002637185	-0.00055068545	0.008341767	0.00076604	0.00781248	0.0031346458	0.0028143413	-0.0008934524	0.00095778995	0.002701542	-0.0080552315	6.869138e-05	-0.009550945	-0.00677897	0.0023946858	-0.009305147	-0.004866763	-0.001945348	0.008199657	-0.0030522728	-0.007385983	-0.0060153645	-0.0017923414	0.0011416981	-0.0040676706	-0.009396146	0.0068441103	-0.0032748608	0.007440938	-0.0045484416	-0.0037807303	0.00695897	-0.0007324367	0.009352692	-0.0021829363	0.00844598	0.009013566	0.009528897	0.009830699	0.0055860197	0.0034013581	-0.0075575924	0.0029179985	0.008361743	0.0010794001
GCF_002959715.1	0.0047022835	0.00026057407	0.006736177	-0.0074063577	0.003817457	0.0016548887	-0.0070297676	0.0073854225	0.006215405	0.009561398	-0.0039281556	0.0011449398	-0.0025631979	0.0054370384	0.00024188592	0.0029275904	-0.00014252725	-0.008606375	-0.005977141	0.008778351	-0.008446708	-0.0018936361	0.007573991	0.003129312	0.0003025245	-0.0025756035	-0.0006567022	-0.00035188202	-0.0013539327	-0.0073816925	0.00091525	0.003824671	-0.0048376685	-0.008140459	-0.008782133	0.005324296	-0.0032208248	0.0042688795	-0.0078123612	0.008326507	-0.0034120423	0.009115318	0.009133902	-0.005502346	0.00837243	0.0052873055	-0.007601266	-0.008538341	0.0013663224	0.007899745
GCF_003003035.1	0.00949867	0.009401749	-0.0071642953	-0.008207869	-0.0008457954	-0.0065347985	-0.008003675	0.0038134519	-0.004631371	-0.004351807	-0.009246755	-0.004084784	0.0024642635	-0.006843431	-0.006994843	-0.004567584	-0.0046197176	0.009334996	-0.0099799475	0.0077884397	0.009539879	0.0059625814	0.0027675403	0.0072682374	-0.0050734165	-0.004889506	-0.00021537137	-0.002848173	-0.0038363826	-0.0061093057	-0.0019851767	0.006966377	-0.0062560285	-0.004709912	-0.0066054263	-0.0065368847	0.00986981	-0.0019485682	0.004696953	-0.00202727	-0.001577787	-0.0006289982	-0.008486027	0.0001578757	-0.0020635768	0.005057296	-0.00618978	0.009936654	0.0051528197	0.00094099145
GCF_003030465.1	-0.0064487043	0.006390418	0.006455003	-0.00012956599	-0.0010904379	-0.005661524	-0.0035826417	-0.0047666677	0.0046661696	0.0098620765	0.0036417989	0.009630916	-0.0044055628	0.006273377	0.009601772	0.0008707343	0.0072714416	0.0045592347	0.003635354	0.0047368053	7.505015e-06	-0.002166052	-0.0028089816	0.0020275319	0.0052451207	-0.004676796	0.00015809498	0.0037935388	0.00648553	0.004314459	0.0030440628	0.004103724	0.0043130256	0.0048835706	0.00984144	-0.008141814	0.0071443166	0.0076873177	-0.0051716003	-0.009932934	0.0070098187	0.0035525968	-0.0041300086	0.0032065064	-0.0049604066	-0.008243593	0.00630715	0.0032542306	0.0072865956	-0.006850572
GCF_003094775.1	-0.0001232569	-0.0031344388	0.005449368	0.0052900733	-0.002133327	-0.0068631386	-0.00883861	0.008898162	-0.0028021785	0.008295333	0.0071968175	0.0035160063	0.007927759	-0.0028024646	0.009496487	0.0056190714	0.0008552027	0.008685843	-0.00028357448	0.007422264	0.003531606	-0.0026368669	-0.0035839896	0.0034006743	-0.007840584	-0.009950955	-0.00992681	0.0031369396	-0.002968996	-0.006569826	-0.0041782963	0.009138212	-0.0037539601	-0.0023732109	-0.0026105714	0.0051754843	-0.0013091485	0.003903049	0.004944657	-0.007668236	0.0003202676	0.0015677827	-0.002443096	0.0058778757	-0.008083176	-0.0025734166	-0.0045491676	-0.008226329	-0.0076727015	-0.000845299
GCF_003094815.1	5.8372745e-05	-0.0035846913	0.008314505	0.009251211	0.008110259	0.002123149	-0.0054213535	-0.0024311198	-0.008121576	0.0047410894	0.006293054	0.0012145453	0.0054832282	0.007712697	-0.0073104734	0.009539929	-0.008251685	0.0014949427	-0.0016991054	0.009021636	0.001993062	0.004015501	-0.0077261534	0.008638512	-0.0070690312	0.0008574401	0.004178375	-0.00075222173	-0.000740463	0.006596176	0.0038283013	0.008535114	-0.0020722048	-0.002927547	0.0023686981	-0.0017549602	-0.0070683835	-0.0010187683	0.00077376876	0.0019841671	0.004454835	-0.0037704606	4.685036e-05	0.0061485353	-0.0023852976	0.0044576214	0.00010252986	-0.008782804	-0.00050029805	-0.004373459
GCF_003094835.1	0.0077859205	0.0011504868	-0.0004080395	-0.009426466	-0.007400852	0.0062240767	0.006096322	0.009515781	-0.0029218039	0.008021009	0.005325524	0.0006443048	0.0066727386	0.004186327	0.0048103533	-0.006945028	0.0030346564	0.0017480722	-0.006805847	0.0078045046	-0.0001627465	0.009461822	-0.0033878607	0.0012381553	0.0051936703	-0.004006882	0.0014074142	0.0033394797	0.0062539172	0.00026012954	-0.009175124	-0.0027626334	0.00060406094	-0.000560016	-0.005987616	0.007824668	0.0038261726	-0.0023574063	-0.009298097	0.006485584	-0.0033930729	-0.0016358513	-0.003753648	-0.004513964	-0.00984094	-0.0038883544	0.003220842	0.009244484	0.0049582506	-0.007535124
GCF_003094875.1	-0.004519049	-0.006054065	0.0010602439	0.008944741	-0.006825974	-0.0078361835	0.004871355	-0.001875218	-0.0028347378	0.008501738	-0.0053228717	-0.0021349373	-0.006331631	-0.007809585	0.0090399	0.006329116	0.007271629	-0.004189588	0.009160804	-0.0070904745	0.0072591673	-0.0048769624	0.006989631	0.009973252	-0.006850946	-0.007691407	-0.005226463	-0.0061557083	0.008278156	-0.0003094322	0.005513101	-0.0062801447	-0.008421647	0.0077606887	-0.009209344	0.009015292	0.00856155	-0.008559843	-0.004402513	-0.009412055	0.0073838783	0.0059868107	0.008000814	0.0055077123	-0.0014532807	-0.0047592754	-0.0039564744	0.007876573	0.0012969212	-0.009610096
GCF_003094895.1	0.006878767	-0.0036966396	0.009851625	-0.0067287902	0.0069769532	0.0007709759	-0.0038532445	-0.0023958287	0.0016221643	-0.0074910824	-0.008047933	-0.0048684827	-0.0003680751	0.004721835	-0.0070158876	0.0037358569	0.0022502218	-0.00065021083	0.0015240206	-0.0072177886	-0.0060273	0.0040533687	-0.0002366516	0.006660943	-0.009800625	-0.0017420214	-0.0031845868	0.0064136577	0.0077672177	0.007785586	-0.007061102	0.0069403043	0.0015226869	0.0038183592	-0.004944676	-0.0027392458	-0.0022216036	-0.008514948	0.008303406	-0.00045126988	-0.0025126208	0.0042335656	-0.004176366	0.0074483757	-0.0048633856	0.0068073138	-0.005346221	0.0062950486	0.0029935015	-0.004715607
GCF_003094915.1	0.001155163	0.008580265	0.0022666284	-0.0046400754	-0.00096933125	-0.0023561197	0.009033906	-0.0016544551	-0.0003462655	-0.008604127	0.0030267523	0.008179363	0.0016175419	0.0031946606	-0.0047456496	-0.009006885	-0.008387228	0.00032412293	-0.0033297548	-0.0019871455	-0.004455463	-0.004223861	-0.0024200499	0.006962026	-0.005027011	0.008437801	0.0025036333	-0.0044581667	-0.0055010407	0.0013034643	0.0030703482	0.0064025824	-0.006906224	-0.009804663	-0.0021866597	-0.0016199138	-0.0067378394	0.004123603	0.006954317	0.0016303677	-0.00093466387	0.005822883	-0.0044764145	-0.005864797	0.0072541833	0.008832278	0.008071874	0.0070467745	0.00054405525	0.0005274027
GCF_003095015.1	-0.006039871	-0.008151308	-0.005876261	0.0067764637	0.0075206817	-0.0023032255	-0.0048318086	0.0048394254	0.00030001428	-0.002669922	-0.008959486	0.0036181365	-0.00974866	0.0010583876	0.004576071	0.00084335374	-0.0022595546	-0.00909499	0.0077442396	0.0022645162	0.009267136	0.006185655	0.0054550334	0.0026768616	0.0065782676	0.0037247157	0.008727189	0.009041855	-0.0005609198	-0.002494601	-0.0032025944	0.005656098	0.006458782	0.008032168	0.009598416	-0.007233698	-0.0011238602	-0.0028798603	0.009481998	-0.0073604886	0.0034814999	0.0021853184	0.007524925	-0.00848166	-0.0032493747	0.0039746305	0.007618004	-0.006027048	-0.004199303	-0.0007738217
GCF_003095055.1	0.0004614071	-0.00687894	0.0054143234	0.00800126	-0.0073088487	-0.002803899	0.005347947	-0.0017173036	0.0011761129	-0.0015931933	-0.008622548	-0.0062967455	0.0026376762	-0.0008939177	-0.006428083	0.00016305331	0.005518107	0.0086963875	-0.0024926949	-0.0024397112	-0.0069790636	-0.0009519935	0.0062908353	-0.0057884166	0.004697075	-0.009959047	0.00014960361	-0.007465893	0.0015057197	-0.002759699	-0.0010715195	-0.006360871	-0.0045070318	-0.0051129325	0.009483763	0.006735107	-0.009886519	0.007305535	-0.0058060554	-0.009131583	-0.0016970652	-0.00039501145	-0.006950415	0.009413585	0.0029319802	0.0040445174	0.0099204825	0.006282419	0.005850842	-0.0016573953
GCF_003095075.1	0.0017934717	-0.0010509366	-0.007141429	-0.00049799884	0.0017432823	0.0071896864	-0.0030048322	-0.0017905601	0.009902518	0.008404922	0.0011973481	0.0011541905	0.00597107	0.0045790463	-0.0095074875	-0.0009439315	-0.0067479615	-0.00011353583	-0.006197499	-0.009470958	-0.0037008899	-0.008441245	-0.009350947	-0.004226984	0.00897214	-0.009276338	0.0070969337	0.008109379	-0.0012640042	-0.0027483162	-0.0026894412	-0.00073434843	0.002605262	-0.0036094429	0.0035435995	0.00021317677	-0.007900275	-0.0026164525	0.0010958948	0.0003807754	-0.0011078797	-0.0010307796	0.005024555	-0.002489331	-0.00067323464	-0.0023249185	-0.009230407	-0.0019370954	-0.0049271747	-0.0046074027
GCF_003095115.1	0.0035235884	-0.0075617284	0.0079703005	0.0064464947	0.001949643	0.0025709288	0.009431904	-0.008132765	-0.0004006984	0.0033600659	0.008950092	-0.0074060075	-0.0073091164	0.004426837	-0.003980415	0.0013608776	0.007664426	-0.0009228593	-0.005310278	0.00096970017	0.0020203732	0.006112227	-0.0008373983	-0.0026663665	-0.0073424093	-0.005536109	-0.0052360334	-0.008371058	-0.009096258	0.008186104	0.0068698395	0.0075343335	-0.0043280004	0.004110858	0.0037958196	-0.00067673944	-0.0013402391	-0.002881159	0.0005093879	0.0090396935	-0.00048497127	-0.003098261	0.002425677	0.0076881642	0.009877019	0.008571692	0.0080330875	-0.00766037	-0.0066206143	-0.009132296
GCF_003337725.1	0.0037857587	-0.0039514536	-0.007205467	-0.0026519324	0.0053428314	-0.008602159	0.008927816	-0.0023369615	-0.003927176	-0.0056259846	0.0012373114	-0.0061011044	0.0045406413	0.005671611	0.009455754	-0.00026944457	-0.007626648	0.0038894601	-0.0016391557	0.0054367553	-0.006849738	0.0005901665	0.0003183096	0.0070482907	8.824471e-05	0.0028297985	-0.0041237622	-0.007216806	-0.0008790058	-0.004451646	-0.0062075327	-0.0073968545	-0.0024719648	-0.007812678	-0.0065353555	-0.0059849583	-0.006749881	-0.004983775	0.008811367	-0.0024973333	0.0099711865	0.0026083172	-0.008509782	0.0055689896	-0.0027295128	0.005155252	-0.008871077	-0.0014679725	-0.005621812	0.0020199073
GCF_003390755.1	-0.0028003363	-0.00017745842	0.008584644	0.004838106	0.008896152	0.0030219862	-0.0057729324	0.008295998	-0.007888217	-0.007325023	0.00051276997	-0.009953942	-0.0073565524	0.0018473305	0.0028681413	-0.009110798	0.0067592813	0.0036664435	0.004942734	0.0043488434	-0.0006809898	-0.006623003	-0.0017504817	-0.00515304	0.005369902	-0.00057343143	-0.0052778414	0.0035900187	-0.009122247	0.005535274	0.0079699345	-0.0061855847	0.0050165337	0.0076857144	0.006267869	0.004147749	-0.0028827628	-0.0058578015	-0.0028710102	-0.0042128838	-0.008953162	0.0037191003	0.008157358	0.0030160178	0.004655478	-0.00076597295	-0.0021638926	-0.008466326	-0.0038005756	-0.005290942
GCF_003428375.1	-0.0093807075	0.009255493	-0.009793691	0.004914238	-0.003439586	-0.0071873353	-0.0051005622	-0.0028428044	0.00088454434	0.0049777837	-0.0024499856	-0.008711354	-0.0031056276	-0.0025363364	0.0010734986	-0.0062329653	0.0076472093	-0.0045185313	0.0030318939	0.00026302977	0.008213754	0.0044722995	-0.0013862253	-0.0075648697	0.009814172	-0.00849447	-0.0036648943	-0.009814027	0.0069090617	-0.0045374515	-0.006687889	0.00687347	-0.004342024	-0.0007157857	-0.0037849573	-0.0039029582	8.011762e-05	-0.009347659	0.0041179177	0.005732717	0.005281368	-0.008298018	0.009844646	0.008900764	0.0056925486	-0.00376914	-0.007386603	0.006495176	0.007395974	0.007919887
GCF_003438025.1	0.008864926	0.004565842	-0.0031838405	-0.004118128	0.003798885	0.00066164864	-0.0010877001	0.002278098	0.0029615904	0.005307686	0.0066118916	0.0035728714	-0.0036360205	-0.0048960615	-0.009019506	-0.009763005	0.008096281	0.0022704478	-0.008567625	0.0039871363	-0.0037850044	0.005504495	-0.0056597698	-0.0018714729	0.007951085	0.004995099	-0.009247977	0.0005833515	-0.007848682	0.007648976	-0.0064800954	-0.008912091	-0.00030278682	0.00087014673	-0.0003989385	-0.0089627495	0.0028853416	0.0012499194	-0.006627818	0.007939929	0.005323209	-0.0031214692	0.007377858	-0.0074587474	0.004174453	0.002350294	-0.0031834939	0.005097198	-0.0067233657	-0.009374748
GCF_003438425.1	-0.0019580391	-0.0008747941	-0.0055411407	-0.0040781265	-0.002313961	0.0063453494	0.0060168235	0.0042476696	0.0024084947	-0.008086714	-0.008134412	0.004589705	-0.00819423	0.0086346	0.009227697	-0.0039228476	-0.0014906958	0.0012450999	0.0029698862	0.0005155137	0.0022237205	0.0065643867	-0.004653234	0.0028994207	0.0035944716	0.008320249	0.0019587204	0.00088304153	0.009800848	-0.0051389746	0.0053383773	0.0056115566	-0.002362247	0.004998759	-0.0006344059	0.0068771457	-0.0017460124	-0.0072492496	-0.004232119	-0.0052312184	-0.0012727341	-0.009847605	-0.005522526	-0.0033653036	-0.00052641804	0.0029983954	-0.0010710356	0.005053539	0.0054049487	-0.0031552117
GCF_003438545.1	-0.005758324	0.0071569653	0.009645509	-0.0074917483	0.0071505625	0.009308124	0.0002928912	0.0018739151	-0.0013802754	-0.009324236	-0.00595856	0.006803626	-0.0028476685	-0.0074311714	-0.004576008	0.0063684355	-0.00061361655	-0.0058593373	0.0028859123	0.005070205	-0.0017458639	-0.0001470981	0.0032983026	0.009962459	-0.0035989468	0.009698953	-0.006337292	-0.005254048	-0.0025054447	-0.0077855014	-0.009909166	0.009284579	-0.008291165	-0.0029796704	-0.005631712	-0.0073587773	-0.00952053	-0.005010199	0.00519313	0.0010966862	2.3619237e-05	-0.00013489217	-0.0012169614	-0.0046945154	-0.0008186589	-0.0013401271	-0.002308419	0.0033035825	-0.0066872514	0.0014300096
GCF_003438565.1	0.009847875	-0.002566437	-0.0023663582	-0.008195657	0.0098890355	0.006279631	-0.003856063	0.0028517693	0.0009925811	-0.0031303554	0.008358664	-0.0031698109	0.007789116	-0.0033812518	-4.6644756e-05	-0.0050647054	0.00601858	0.008626538	-0.006333904	-0.009964552	-0.0030275835	0.0009193469	0.006433815	-0.0029585473	-0.005868435	0.0067881118	-0.0038310532	-0.009815239	0.006020243	0.0061589708	0.0056062	-0.0034153732	0.0061560003	-0.00765923	-0.0015230029	0.0028237912	-0.0041179773	-0.0065232553	-0.008708889	-0.007321525	0.004522176	-0.0073404606	0.001496644	0.009867545	0.004940597	0.008198868	0.008933839	-0.009741238	-0.007139995	0.0016505056
GCF_003438825.1	-0.002726787	-0.0066571683	-0.0047371043	-0.0077972477	0.00781538	-0.0032120189	-0.0031111215	0.0033845515	-0.008083463	-0.007321446	-0.0018197891	-0.006982193	0.0021562749	0.000505272	0.0020312872	0.008901131	-0.003730867	-0.005686311	-0.004279093	0.00083231163	-0.0066161505	-0.007503381	-0.009842266	0.007917437	0.0021094317	0.002851528	-0.0090547865	0.005112576	-0.0041771107	0.005390004	-0.0041329837	0.0025717763	0.0063547133	0.009300927	-0.00029098726	-0.00917072	0.0026197135	0.005968055	-0.0017995131	-0.008119563	0.0034766959	-0.007539536	-0.0039926316	-0.006217482	0.003842679	0.0016203591	0.009163162	-0.007178987	-0.006463882	-0.009228332
GCF_003438945.1	0.004589326	-0.009701649	-0.0053224117	0.003911885	-0.0024117045	-0.0029362799	0.007876159	-0.005210486	-0.0049126707	-0.0067824814	-0.0045011067	-0.005285438	-0.0008771067	-0.00011711205	-0.005252737	-0.0059295925	-0.0028743367	0.0041008946	0.009845722	0.0021219233	0.0038839632	0.0011054497	-0.0017247942	0.0038381773	-0.009673098	-0.00081619143	0.0014842944	-0.003508761	0.00402987	-0.0034761373	-0.009390401	0.009033287	-0.0019924834	-0.0068875393	0.00822658	-0.0067419554	-0.0011505344	0.005949867	0.006312453	0.003181022	0.003631877	0.0028365592	0.0018548077	0.00871578	-0.009134654	-0.009158093	-0.007914169	-0.0036099912	0.009202154	0.009709028
GCF_003439005.1	-0.006344882	0.0007685609	-0.005687294	0.008454701	0.007823214	-0.00021520314	0.0052315625	0.003918054	-0.00518334	0.004840525	-0.009901969	0.0044386974	-0.006297504	0.00053823716	-0.0032218143	-0.008032063	-0.0062507875	-0.0076735974	-0.009799303	0.004454707	0.004602006	0.006649943	-0.0061946018	0.007675394	-0.0034448346	-0.0019844307	0.0065345536	0.00066770904	-0.007652435	-0.0051051206	0.005336174	0.0034173266	0.0069074733	-0.006630596	0.006392215	-0.0047883894	0.0042482796	0.009962796	0.006728156	0.008326235	0.0023853043	-0.0030414704	-0.008548122	0.0006041255	-0.0009232878	0.002496154	0.0067021986	0.009640819	-0.007122809	-0.008106866
GCF_003458275.1	0.0035194533	-0.0050168475	-0.00022366577	0.005688354	0.008418074	0.0099730585	0.007411778	0.002484104	0.00467649	0.00061195745	0.007127947	0.0017254335	0.003957451	0.002738162	0.006529235	0.005468264	0.000108075976	0.0053433073	0.0062897312	-0.0026462441	-0.004421345	0.009245152	0.0033718485	0.00889863	-0.0078487955	-0.0040912214	-0.00018696237	0.0013902583	0.0027377	0.009687008	0.007362825	0.0077039725	-0.0019319013	-0.0076590152	-0.0098956665	0.000346906	0.008992336	-0.0049303765	0.0074500805	-0.001263245	0.0035185493	0.0016036283	-0.007926187	0.0008125684	0.006226565	-0.004629119	-0.00878115	-0.0039561326	0.0019313612	0.009224569
GCF_003458365.1	0.0095207915	-0.008153144	-0.006668033	2.9003475e-05	0.0025074203	-0.0025417162	-0.008906753	0.009373074	0.0053277775	0.0024971652	-0.0096090175	-6.428832e-05	0.009904436	0.00026442204	0.0013870526	0.006768189	0.009062666	0.008763782	-0.0019222478	0.00947647	0.00134224	0.0067918776	0.00013021291	0.0026044126	0.0046351897	0.0005663179	-0.0028759206	-0.008124036	-0.0020772421	0.0044398503	0.00511298	0.003477093	-0.0060083317	0.0016868997	0.0060465243	-0.007914213	-0.003565931	0.0023712516	-0.005340866	-0.001399341	-0.006103621	-0.004420923	-0.009222798	0.006052566	-0.0040029106	-0.004787545	0.0037103856	0.009631206	0.002771568	0.0055111996
GCF_003458395.1	-0.0036412424	-0.006177985	0.008854096	-0.0020095084	0.00903673	0.0014541456	0.0069270995	-0.0016392824	0.009733962	-0.008496106	-0.00097393	-0.0047704377	-0.0026333744	0.0055735335	-0.0027731159	-0.0038443517	-0.0021128005	0.0036065886	-0.009035474	-0.0021296195	0.0004802766	-0.0038352988	0.008894109	0.0067396625	0.0024036574	-0.0010859977	0.0074756797	0.00810961	0.004774864	0.007304384	0.004263592	0.0072037866	0.0037480078	0.0006228237	-0.0098366225	0.005564776	0.003334429	0.004102114	-0.008344877	0.0027792417	0.009190163	0.0026533268	0.005830141	-3.7339454e-05	-0.008382359	-0.004122158	0.00041657197	0.0020170808	-0.0018255274	0.0044913
GCF_003458945.1	0.0030770998	0.009915978	0.0013615786	-0.009720831	0.00087091717	0.00044649103	-0.007060764	-0.0086468635	-0.0023691782	0.0026868065	-0.003929005	-0.00025560698	0.0032975485	-0.004222033	0.00420846	0.009277281	0.0013629526	0.008688436	0.0004777828	0.006214925	-0.0048595387	0.0075108223	-0.0042909565	-0.0016367905	0.008673156	-0.0026977865	-0.0068710838	0.0021486287	-0.008591285	0.006129707	-0.0040144874	-0.008619938	-0.0020243248	-0.0004521695	0.004159798	0.005020105	-0.002838053	-0.006809401	0.0016590895	-0.004124212	0.0012462421	0.0067298934	0.0070427167	-0.0077910726	0.005082206	0.0037002813	0.006828129	-0.0043517305	0.009317721	0.00056541065
GCF_003459065.1	-0.0042168815	-0.0017049608	0.008836799	-0.004316402	0.00695115	0.008884838	0.003466613	0.005960063	0.0020500084	0.004351969	-0.004359263	0.0005387893	0.004923389	-0.008297927	0.006680633	-0.0048163966	0.001085206	-0.00792127	0.0059406734	-0.007886013	0.007940099	0.008255472	-0.0046844915	0.00324784	0.0043062405	0.0029685048	0.0024806017	0.008533867	0.00956106	-0.00910569	0.009164002	-0.008309497	0.0014810195	-0.008080204	0.007653145	-0.007863645	0.008571249	0.006316379	-0.0086348085	0.0011392165	-0.008248424	-0.0031361917	0.0046367403	-0.0069350805	-0.006514216	-0.009218884	-0.0035329778	0.009725691	0.0055578733	-0.008556379
GCF_003459525.1	-0.003985536	0.0022586512	-0.009652504	-0.0048880777	0.001092078	-0.00012415298	0.008600041	0.009938684	-0.008667033	-0.0050971285	-0.0048147007	-0.0012801051	-0.0050816904	0.0043302956	-0.004316829	0.009481963	0.001014046	-0.0077030887	-0.0036551908	0.006384778	0.002590054	-0.0020182093	0.007550049	0.0055060023	-0.0029763696	-0.0015226712	-0.002911441	-0.0023437892	-0.004205574	0.003016806	0.006755345	0.0006090448	-0.00888178	-0.007868997	-0.007397192	0.0016463664	-0.004628922	0.0021788387	0.0068352814	-0.001444721	-0.00039153078	-0.008593657	0.0017866793	-0.00742354	0.006845063	0.0076002926	0.007344227	0.008289418	0.0075354385	-0.0069360887
GCF_003460185.1	0.008123602	-0.002712616	0.009419676	-0.0042167488	-0.0081496565	-0.0020574625	-0.00978015	-0.003556905	-0.003973127	0.0059172483	-0.001097419	0.004043789	-0.0058157123	-0.005416533	0.007860033	-0.00068037707	0.002156857	0.0013114399	0.00043688712	0.0054055816	0.007303641	-0.00579409	0.009708709	-0.0042945244	0.0045279297	-0.0029400752	-0.0030041882	0.009917646	0.0015102609	-0.008629037	-0.005020003	-0.0010272599	-0.009399843	-0.0021028449	0.0027589602	0.004509046	0.0029016435	-0.0021649012	-0.0034738756	-0.0069729476	-0.005186562	0.0013618086	0.0023585632	-0.006372539	-0.0039325966	-0.0032460806	0.0069045126	0.0020330655	0.0073218867	-0.0003526975
GCF_003462745.1	0.0028204662	-0.005863142	-0.0052507003	-0.0020280725	0.005196058	0.0056640073	-0.0031424859	-0.004183942	0.008889266	-0.0049583544	0.0004572318	-0.006696021	0.0035431704	0.00017154161	-0.0014924504	-0.007313534	0.0002533056	-0.000322959	0.0067533436	6.0318078e-05	-0.007210368	-0.004479716	0.009911042	-0.006611094	0.0038634574	0.0034363049	-0.0012152053	0.0010557667	-0.003836557	-0.0073222606	0.0072511807	-0.007429754	0.0008271149	-0.00833549	0.0055010645	0.0047035576	0.009437884	-0.005485949	-0.00080127764	-0.0036248104	0.009397811	-0.0035720938	-0.00891489	-0.0038916576	0.009407124	-0.007187162	0.003171872	-0.009462647	-0.006118471	-0.005266872
GCF_003463115.1	-0.001240197	0.008949882	-6.9953756e-05	-0.003245528	0.005945207	0.0019866275	0.009814213	0.0049383417	0.003454461	0.00032731675	0.009023333	-0.0070275604	-0.0023239476	-0.009283053	0.0055474807	-0.0048694904	-0.007560321	-0.0031487863	0.00814863	-0.001020377	-0.00064914534	-0.00074539956	0.00971858	0.008962459	-0.009460697	-0.008802685	0.006474286	-0.0062047895	-0.004035801	-0.009801122	0.0034406127	0.00096924667	-0.0010482852	0.002834031	0.0060085757	-0.001325234	0.004941351	-0.007198164	-0.007993582	-0.002667627	-0.0010299695	-0.0054913526	0.004072666	-0.006220816	0.007953584	-0.0066130213	0.0033896177	0.0005320553	-0.002824326	-0.0025941643
GCF_003463165.1	-0.007953482	0.0027939032	-0.008933361	-0.0042060995	0.0017168755	-0.007520903	0.006009243	-0.0013007629	0.0039209127	0.0020294385	-0.005045065	-0.0040806155	0.0062432773	-0.00842819	0.005436939	-0.0008302761	-0.00774012	0.0011587874	0.009841836	0.0052502216	0.009245589	-0.0038647547	0.009296917	-0.0021622248	0.0045302208	0.0097065875	0.0007481798	-0.0010786005	0.0060588457	0.007838138	-0.0048115216	-0.006957039	-0.0030713526	-0.0056081703	0.009230065	0.009862975	-0.0067172158	-0.0047575845	0.0056354986	-0.005430321	-0.0018604654	-0.009352626	-0.0038316117	0.0009791548	-0.0043686274	-0.00010304593	-0.008460918	0.00927473	5.6893678e-05	0.0010714614
GCF_003464965.1	-0.0013786178	0.00070500094	-0.0097881025	-0.006546046	-0.000996122	-0.00981171	0.005412851	-0.004242203	0.009747536	0.0028521947	-0.0059429677	0.0014131878	-0.0077322777	0.003754208	-0.002270097	0.0046692146	0.0029236623	0.0073972736	0.0037869022	-0.0069253827	0.006469251	-2.6355071e-06	0.0034300399	0.00048155236	0.0030446774	-0.003953881	-0.008750544	0.009027641	0.009685794	-0.009041362	-0.009719139	-0.0052635903	0.006317331	0.008895548	0.0029378578	0.0057755904	0.0012683318	0.0031827088	0.007588842	0.009287283	-0.005146465	-0.003805481	-0.0060241637	-0.009437943	-0.004553798	0.0068962094	-0.0073753595	0.0076664933	0.005556424	0.00037455154
GCF_003465625.1	-0.002091682	-0.002089761	0.009736293	0.0037421186	-0.0029175396	0.0076143453	0.0052789752	0.002884318	-0.006237419	0.0026436164	-0.0014116283	0.008684553	0.0072781253	0.0027938471	-0.0065815146	-0.0030795375	-0.0059590773	0.009952991	-0.0034108334	-0.001395814	0.007736754	0.0068533593	-0.004648825	0.0021504997	-0.005447091	0.0025554746	-0.00017035773	-0.004664841	-0.003349297	-0.0052239546	-0.0087477295	0.0071307407	0.006411644	-0.001653918	-0.0063828263	0.0019728472	0.003232836	-0.0088819545	0.005255398	-0.00364616	0.0023959544	-0.00081597833	0.0028131425	0.009565788	0.004854834	0.005724198	-0.004649175	0.004265953	0.0045350506	-0.006408469
GCF_003468175.1	-0.00077502383	-0.005422622	0.0063858978	-0.003861078	0.0045059854	-0.009554154	0.0015383143	-0.007914495	-0.0006833166	0.00050200766	-0.0010565423	0.0016896176	0.009250383	0.0039770077	-0.0008678993	-0.008268536	-0.008171323	-0.009691777	1.5379917e-05	0.00616216	-0.008992733	-0.001571787	0.005294613	-0.005693604	0.002517494	-0.00864752	0.0017644145	-0.00092928566	-0.0017044481	0.0076686875	0.0035833828	0.0044861026	0.0060591474	-0.0009381567	0.0034527476	0.00835487	0.009421799	-0.0011820694	-0.00991759	-0.008584713	0.009441134	-0.0085783955	-0.0059788376	-0.0037896826	0.0049729063	0.0067615164	0.007687638	-0.0069483533	-0.005781286	-9.2904935e-05
GCF_003468355.1	0.003036937	0.009581753	-0.0014586204	0.007902066	0.002172906	-0.0064987126	-0.0056063547	0.006010917	-4.495006e-05	-0.0013115971	0.00060643617	0.004457012	-0.008304367	0.0074633113	0.009550583	-0.0046981	-0.006615207	0.0023196589	0.0032078964	0.00952124	-0.0051501305	-0.0030877506	-0.008919204	-0.008717072	-0.0042945594	0.0048179366	-0.0023798982	-0.0010316732	-0.009943181	0.0067158816	0.004874648	-0.006815392	0.0037483652	0.0073819733	-0.003345595	0.0048567043	-0.0067718006	0.008447262	0.0021739777	-0.0063557117	0.006358443	-0.006356328	0.007804955	0.008347965	-0.007104491	-0.0015550872	-0.003776294	0.0005925138	0.0043306537	-0.004637773
GCF_003468685.1	-0.005411957	0.000557229	0.0063287625	-0.008941441	0.0040541464	-0.0090232855	-0.008699449	-0.002500818	-0.0068089305	0.0007821268	-0.0058351206	-0.006799162	0.009330107	-0.009428058	-0.005880447	-0.007082501	-0.0014141346	-0.007911167	-0.0010383606	0.009919854	0.009350247	-0.008005451	0.0046270983	-0.0031462286	0.0014583535	-0.0040178383	-0.0032919396	-0.0036761428	-0.0019236205	-0.0012088312	-0.0051095136	-0.0027156246	0.00014057489	-0.0069016675	-0.0006813816	-0.006514735	-0.008688695	0.007954208	-0.0059547713	-0.0040963283	0.0011755906	-0.00010298873	0.005022764	-0.009342772	-0.009461006	-0.0052806274	-0.0061783735	-0.00023916388	-0.009987782	-0.00043208306
GCF_003468785.1	-6.499121e-05	-0.004991454	-0.0042541507	-0.0028427504	-0.0070664757	0.0016414054	0.005529786	0.007649408	0.009544115	-0.00078717194	-0.0078058285	-0.0042258077	0.009826171	0.0061966884	0.003954379	-0.008966472	0.009766946	0.0007470744	0.000243817	-0.009277789	-0.0041487915	-0.009165141	-0.0079548	-0.008812121	-0.0044253743	0.0006943956	0.0010901252	-0.0068002804	0.0017404131	0.0060018473	-0.0048426557	0.0050848555	-0.0057269423	0.00985246	0.0057095014	0.001246988	-0.0064867027	0.0077402187	0.0041038487	-0.0085697	0.007909413	0.000954173	-0.0017693914	0.0016460669	-0.0012882528	-0.00028028394	0.0071040634	-0.0041265823	0.0024630604	-0.008214031
GCF_003469115.1	0.00688604	0.0069652973	-0.0015208356	0.00992425	0.007679665	-0.00054833596	0.0033432343	-0.00019910546	-0.004687137	0.0066058417	-0.006894501	0.00426962	0.0050330386	0.0018352253	0.0027025451	-0.002811037	-0.000317134	-0.0056125424	-6.7002693e-06	0.0017931524	0.00459668	0.009327487	-0.0020039498	0.008987283	0.0004066017	-0.0015424778	-0.0072674523	-0.00026939783	-0.0005848271	-0.006891183	0.00745613	0.007983436	0.009963179	-0.0067178607	-0.0042396733	-0.0074410704	-0.0052645565	0.006779678	-0.003395613	-0.0037864791	-0.0076104375	-0.00966704	2.6959677e-05	0.0035327869	-0.006993584	0.0051113535	0.005952295	-0.008765303	-0.0039083185	-0.0028351871
GCF_003469635.1	0.002189555	-0.009700835	-0.0053376644	-0.0070838844	0.003774929	-0.008849824	0.005208185	-0.0062895827	-0.0058433837	-0.0059901727	-0.007476046	0.009119631	0.004548937	-0.0057717934	0.0033930233	0.0022018333	-0.0016211352	-0.007121591	0.0017550512	0.00575209	-0.0072821393	0.006805664	-0.0014319948	-0.0057397108	-0.00753587	-0.0075065726	0.008570753	-0.00079191587	-0.008265778	0.00679418	0.0011628249	-0.004901763	-0.009077814	0.0008574412	0.0009644955	-0.0015145091	-0.009961707	0.0058370396	0.00070295675	-0.0025261708	0.00066968694	-0.0019753934	0.009720933	-0.0004108009	-0.007380212	-0.0025907601	0.0018025296	-0.0042056944	-0.0041394755	-0.0034499567
GCF_003469855.1	-0.009210426	0.0028345303	0.0035058092	-0.006208156	0.004233191	-0.0063281935	0.009524213	0.007038227	0.0076796305	-0.0008059955	0.0034364823	-0.008362652	-0.009705012	0.0073769046	-0.00826839	0.009727849	0.005031965	-0.0031670856	0.0013649848	0.007677384	0.004781474	0.0045059063	-0.0066616563	0.00895846	-0.00802648	0.0029692196	-0.0039978563	0.004001603	0.0050623524	0.0016875191	0.0036698377	0.0022645046	0.0077955453	-0.009377356	-0.0025538225	0.0041015744	-0.0005829868	0.0061050868	0.0013232492	0.0017714984	0.008491097	-0.0021076591	0.0041024424	0.0068245386	0.0004266362	-0.009692335	0.004785067	0.0010523376	0.00917388	0.00501729
GCF_003470005.1	-0.006382342	0.0031764351	-0.009688607	-0.009844392	0.00079719286	0.00064438814	0.009976188	0.00064725557	-0.009852628	-0.009284527	0.0028016933	-0.00905057	0.0051157526	-0.0057768817	0.009922311	-0.008200312	-0.009687135	0.006693234	0.0077364375	-0.0002504447	0.007965885	0.0021864935	0.0090451585	-0.0046139737	-0.004920876	-0.0039533866	0.0033355886	0.008512022	-0.0062815407	0.008924538	-0.0026204416	0.004403759	-4.444882e-05	0.003236282	0.0017060102	-0.0051574027	-0.0032209388	-0.0073612565	0.00092953275	0.008557939	-0.00063819415	0.0034545523	-0.0044390433	0.008935699	-0.0019413407	-0.00025840753	-0.008683316	-0.008445623	0.005071881	0.008179993
GCF_003470305.1	0.0045409943	-0.0005245346	-0.0065386402	0.0047826073	0.003787934	-0.0045478647	-0.0056371186	-0.0064567993	0.0063252337	-0.00023798458	0.004834279	0.009866974	0.0058617783	0.008092019	-0.004706814	-0.0045609684	-0.00068139355	0.009824287	0.009451606	0.004000772	0.0021966237	-0.0014637208	-0.005057971	0.0071289293	0.0030708078	-0.00279903	0.008312952	0.008148408	-0.0036102538	0.007982733	0.004311677	0.008000584	0.0060000857	-0.00088459183	0.0007071533	0.009289169	-0.009698828	-0.009183868	-0.0037061938	0.009980548	-0.00990792	-0.0012474913	-0.0072435024	0.004433244	-0.0024036225	0.0025344605	0.0066648116	0.00841777	0.007367425	0.0039983457
GCF_003470465.1	-0.0053794878	0.0078545455	-0.0012236817	0.00552719	0.0021018854	0.0010268033	0.0073722103	-0.008377853	0.0005503841	0.0054057874	-0.007772065	-0.0011389834	-0.008695261	-0.009504921	0.006565695	0.007212604	-0.003913891	-0.0023717857	-0.007493303	0.003737692	-0.0015522616	0.0057757185	0.008546857	-0.0060926494	0.0080720335	-0.0070655807	0.009349813	0.009099935	-0.0026018424	0.0029311047	-0.0026632391	-0.008017943	-0.008529449	0.007443453	-0.006994429	-0.009512283	-0.0044985795	-0.0064713443	-0.0028548248	-0.00023920141	0.009050394	0.006062732	0.005301791	0.0029719542	0.0060013793	0.006277946	0.0033690368	-0.0055188322	0.0038891262	0.006758071
GCF_003470675.1	0.00079286174	0.0073319864	-0.008006607	-0.0015925439	-0.0018857749	-0.0040794597	0.008111425	-0.0029558595	-0.0045758043	-0.0054877647	-0.009180468	0.005026565	-0.0006354555	0.00519093	0.0057684686	0.0027843504	0.00094329746	0.0030995584	-0.0014394035	-0.0049892864	-0.008026238	-0.009302385	-0.004382361	0.004025616	-0.00932995	-0.009423275	-0.00035738366	0.005958967	-0.0020705678	-0.007020668	0.002449339	-0.0034671377	0.008036619	0.00027102898	0.0043708235	0.005878829	-0.0076202564	-0.005443682	0.0012558775	0.0005090967	-0.0051379753	0.0031878394	0.0054659205	-0.009770699	-0.0037820353	-0.0068244245	0.002283834	0.007226982	0.0011326721	-0.0030729175
GCF_003470705.1	-0.006068522	-0.00761091	-0.00766021	0.009712561	0.0027876939	0.0038840454	-0.005391603	-0.0033548833	-0.00468826	7.744713e-05	-0.0030167617	0.007955301	-0.003293493	0.0009193743	-0.006154522	0.0078954315	-0.0069875726	0.0054714237	-0.0076277545	-0.0027295921	-0.0028038227	0.009842023	0.006057255	-0.0068874285	-0.0066307946	0.008859349	-0.0076282993	0.0002934851	-0.0054935166	0.005858739	0.0022584249	0.0052134483	3.568904e-05	-0.0064849528	-0.007964242	-0.0074140234	-0.0035498478	-0.0060973126	0.0005443274	0.0050518713	0.008744081	0.0042789327	-0.0021733346	-0.0036752825	-0.0024007615	0.0049489047	-0.0041955328	-0.009517289	-0.0053037857	0.0062547005
GCF_003474345.1	-0.009668944	-0.0064133937	-0.0061057936	-0.004301639	-0.0030110704	0.00045748375	-0.001899396	-0.0032285834	-0.0038160034	0.0026727167	-0.0065922798	0.005996431	0.0042941817	-0.007830594	-0.0011499497	0.0033642764	0.00412834	0.0077949367	-0.003920066	-0.00027130885	0.0008094685	-0.0084215505	0.0041073808	0.004793392	0.0020866632	-0.0045435727	0.0065839794	-0.0057794624	0.0053267498	0.006258522	0.002306353	0.0023320785	0.008840318	-0.0062364293	0.009891949	0.007854708	-0.009971931	0.00073059683	0.0069260495	0.0005886486	-0.008164652	-0.0023119017	0.0010547977	0.005282815	0.0054895245	-0.008680033	0.0037753647	0.004886278	-0.0048044	0.004946586
GCF_003474945.1	0.006634738	-0.007913235	0.0005196025	0.00090656587	-0.004301724	0.009807276	0.008878069	0.007318427	-0.0028673066	0.006337509	0.0091262255	0.0052373977	0.00880236	-0.0052920734	-0.0048642363	0.0053994744	0.009252207	0.0013669692	0.0050532585	-0.0085380385	0.008497217	-0.0042056716	0.0036136692	0.0077438946	-0.0075337673	0.007514483	0.008141195	0.008524422	-0.0031081962	0.009926454	0.009570504	-0.0051700817	-0.00565483	0.00833761	0.0035657736	0.00070044945	0.0061496357	0.0068979217	0.0038444877	0.008875111	-0.0041330582	-0.0032592395	0.0005566341	0.00299829	0.007997843	-0.0069535933	-0.0010049196	0.008233359	8.462413e-05	-0.003393438
GCF_003474995.1	0.0015947524	-0.0040156897	0.00081125187	-0.0023876224	0.0044320635	-0.004903962	-0.0071981642	-0.005835029	0.0034134323	0.00772605	0.00034980482	-0.0025708238	0.0031029892	-0.0071381223	-0.004154201	0.009603846	-0.0009099167	0.008175876	-0.0030297104	0.009059515	-0.0056213466	0.002044931	0.0036532565	-0.00019691113	0.0027872683	-0.0055703884	-0.0075110747	0.005070173	0.0032446599	0.0084428005	0.00055325736	0.0029555021	0.0038578976	0.0077040796	0.0018688376	-0.009436303	0.004521783	0.0043558143	-0.0067310384	-0.0076219873	-0.0044686776	-0.002461436	-0.0035328171	-0.00036818706	0.0018747951	0.0033865436	-0.009876935	-0.004208575	0.009464342	-0.005229424
GCF_003475165.1	0.009768346	-0.0072152363	-0.007344019	-0.009724621	-2.6075106e-05	0.0023595064	0.00021538584	0.0029619944	0.0067635304	0.0035011023	0.0021099832	0.0076500736	-0.005137911	-0.0053326045	-0.008720465	-0.003954419	0.0064944993	0.004333793	-0.0014027961	-0.0043407395	0.005781778	0.003201321	-0.00013148828	0.0025852453	-0.0012669057	0.009723638	0.009353135	-0.0059073274	-0.00316908	0.009243433	-0.005898223	0.008997117	-0.0016011023	0.0043727434	9.328484e-05	-0.0014401682	0.008134792	0.0029164117	-0.0069288523	-0.0045431554	-0.0070237936	-0.0046637096	0.0068627167	-0.0040186252	0.003771591	-0.0021938002	0.00036876352	-0.00560593	-0.0040945997	0.0020286802
GCF_003475265.1	-0.006863232	-0.0075462447	0.0075528477	0.0012123918	-0.002877134	-0.006743974	-0.0033574274	-0.0016027886	0.0087747015	-0.007986409	-0.0034362029	0.007871076	0.0006135033	-0.0067556123	-0.00939583	0.000821844	-0.008741057	0.004937308	0.008256288	-0.0009932513	0.002950685	0.0062982175	0.008861154	0.0036522495	-0.00623183	0.0028570027	-0.0024642209	-0.008849576	-0.006356921	-0.005039015	-0.0053791953	0.006126777	-0.0002344476	0.008343768	-0.0071774805	-0.008503968	-0.0052776136	-0.0028203693	0.001452686	0.00032402814	0.0001951618	0.009669156	0.0046541314	0.009669174	0.0027663773	-0.0028424643	0.0058345334	0.005427413	-0.007555937	-0.0013859123
GCF_003475305.1	0.007757053	-0.005117488	0.005700884	-0.0035405161	-0.0016409183	-0.0071131336	-0.00527399	-0.0017574845	0.002599223	-0.0008851106	0.009395646	0.0066474825	-0.0005238338	0.009169907	0.0040012826	-0.0035689035	0.008153655	0.0070134066	0.0036728415	-0.0030130309	0.009161674	0.008793083	-0.0002921957	-0.0031328893	0.0015066724	-0.00017317313	-0.0058829514	0.0029882642	-0.0035221537	-0.007969455	-0.0029476222	0.0072580976	0.005099937	-0.00068929465	-0.008452892	0.0034313782	-0.0067292354	0.0060892296	-0.0006647794	0.008994765	-0.0042107883	0.0074935164	0.002294153	-0.006576232	-0.0066507785	0.0004604867	0.007633232	-0.004478495	0.003684304	-0.0060001947
GCF_003475825.1	0.006933389	0.0024018965	-5.2613417e-05	0.004719416	0.009565734	0.0047920863	0.0022693598	-0.0041334955	-0.0014281586	0.002326326	0.008129404	-0.004413557	-0.0048975702	-0.0058295582	-0.0044480134	0.0025904386	0.009907995	0.0009693969	0.001420444	-0.006071024	-0.008731768	-0.0020526338	-0.0013831295	0.0035083408	-0.0032257666	0.0016062629	0.0024184352	0.002163218	-0.0007065821	-0.0028636935	-0.008856284	0.0004728048	-0.004237039	0.0068019326	0.00064342626	-0.0055114203	0.0024540157	-0.00968919	0.0025702443	-0.002658148	-0.0031424614	-0.0025505133	-0.0007152971	0.0028150282	-0.0035535467	-0.004573224	0.003247054	-0.0071499594	-0.008623967	-0.005399839
GCF_003508775.1	-0.0050551724	-0.008867563	0.008901732	0.00941059	0.0064822705	0.0032940055	0.0058338023	-0.00076091953	0.008560475	0.0025617508	-0.006214973	0.00012815071	0.0039879684	-0.008755464	0.0013623446	-0.008742203	0.0073344614	-0.0095403595	0.0022095302	-0.001664798	0.0068547716	-0.00061880896	-0.002288582	0.0028394032	0.0036130236	-0.0062760958	0.004672263	-3.701198e-05	0.0063231094	-0.008622376	-0.0012879922	0.0016776206	0.0040632687	-0.0047054426	0.0074367244	-0.0050749513	-0.0064706407	-0.0063642985	0.0068123983	-0.0027941018	0.0009420223	0.004270812	-0.0024697033	0.0063100215	0.0063444376	0.006767974	-0.0017340592	0.001215697	-0.008649805	-0.0040450203
GCF_003606305.1	0.008645561	0.00046165107	-0.0066641443	0.0023561716	0.00036398138	-0.0055534937	-0.009524512	-0.0050963648	-0.00724293	-0.000678319	-5.770423e-05	0.0067486377	0.002390151	0.004132073	-0.003484244	-0.0034708967	-0.0033849443	-0.0020231202	0.0018233265	0.009634381	0.0075927433	-0.00597026	0.0033592924	0.0046541966	0.004981292	-0.0070370627	0.009336541	0.007945141	-0.0094550485	-0.007638523	-0.0066703097	-0.0051612523	0.0016820079	0.008493444	0.008859074	-0.005583624	-0.002120197	0.0039315433	-0.0034464288	-0.0012280256	0.003158222	-0.006822341	-0.006514221	0.009132073	-0.0075359973	0.008916525	-0.00013472654	-0.0026956492	0.0040972778	-0.0059992657
GCF_003628755.1	-0.006916472	0.003976783	0.0071882633	0.0037282452	-5.324951e-05	0.009550636	-0.0097942725	-0.00042117795	0.008855292	-0.0059958035	0.008818041	-0.0007255517	-0.0006860044	-0.0041696248	0.0038229434	-0.0035418584	0.0053108856	0.008685628	0.0047429837	-0.0015100961	-0.0057803174	0.0064918506	0.0080292	-0.0018105438	0.008068327	0.001392583	-0.0036458494	-0.006765168	-0.002824765	0.0058519123	0.0076743024	-0.0053393934	0.0040871217	-0.003906627	-0.0022447756	0.0076140035	0.0040832823	0.00045411408	-0.008620252	-0.00954655	-0.0015528012	-0.0077695935	-0.004062656	-0.007265532	0.0069108466	-0.0026753128	-0.0077635366	-0.009243505	0.0034620082	0.0019098242
