GenomeID	D2V01	D2V02	D2V03	D2V04	D2V05	D2V06	D2V07	D2V08	D2V09	D2V10	D2V11	D2V12	D2V13	D2V14	D2V15	D2V16	D2V17	D2V18	D2V19	D2V20	D2V21	D2V22	D2V23	D2V24	D2V25	D2V26	D2V27	D2V28	D2V29	D2V30	D2V31	D2V32	D2V33	D2V34	D2V35	D2V36	D2V37	D2V38	D2V39	D2V40	D2V41	D2V42	D2V43	D2V44	D2V45	D2V46	D2V47	D2V48	D2V49	D2V50
GCF_000021425.1	0.0072807474	-0.0013183285	-0.004652151	0.0012230199	-0.00030101612	-0.0006234818	0.0063233734	-0.007992435	-0.007567374	0.0072327666	-0.005006546	0.004975307	-0.008404917	-0.0076663443	0.00033387568	0.005163239	-0.0052697198	-0.0019924948	0.005403786	-0.0014960903	-0.0099963695	0.007985193	0.00841029	0.009778025	0.0007326789	-0.006133805	0.0057208934	-0.004665523	0.007664533	-0.0063135917	6.5845794e-05	-0.0001279672	-0.003771071	0.0092162695	0.0036048796	0.00159137	0.0065507917	-0.009289344	0.009842245	0.002775209	0.0061170603	0.008134257	0.006195538	0.004239301	0.0075889565	-0.0090309	-0.009945137	0.0016844856	-0.006461726	-0.0053044176
GCF_000022705.1	0.0068344558	-0.00893648	0.0081548635	-0.002988508	-0.0068329778	0.0061652134	-0.009993134	0.005963433	0.008194986	-0.0014776466	0.004382704	0.006269282	0.0012820163	0.0078028264	-0.009559382	-0.009354499	0.001362856	0.005789183	-0.005487183	-0.0063973116	0.004365477	-0.006639487	-0.0009234007	-0.0046313023	-0.0005047097	0.0006109887	0.0057600704	0.002856005	0.00261267	-0.009851095	0.0045183813	-0.0061679794	0.008368026	0.0009437023	-0.0027344634	0.0091386745	-0.0049060346	0.009198492	0.004983693	-0.005355974	0.003143899	-0.0034829406	0.0004648479	0.003952345	6.719516e-05	-0.002290104	-0.0023079612	0.0066172704	0.0022589143	-0.0055882335
GCF_000025245.2	-0.0046944353	0.007272418	-0.0059708282	-0.0010164035	-0.0053930227	0.007366795	0.0071225674	0.006761631	-0.00574713	-0.009325687	0.0046997163	0.009032097	-0.0053796703	0.006522625	0.00686064	0.006905237	-6.8186935e-05	-0.0035458156	0.0071780775	-0.007013222	0.005504967	0.008139388	0.008713116	-0.0024575498	-0.0010605016	0.008832494	-0.0017321986	-0.009508557	0.006103071	-0.007548887	0.0063774684	0.0037844093	-0.0036612183	-0.007930926	0.0057498254	-0.007825219	-0.009261346	-0.007817031	0.008710367	-0.004501803	-0.008039479	0.0070873355	0.009483378	0.0029266956	-0.0074818097	0.0043903925	0.001740041	-0.003509884	-0.0011956687	-0.00598091
GCF_000069945.1	-0.00091459864	7.244963e-05	0.0015072845	0.00950688	-0.0054782704	0.009411451	0.00051426905	-0.00854541	-0.0047388454	-0.003946565	-0.0056558447	0.0010368015	-0.007425062	0.0060607065	-0.0049270564	-0.004510815	-0.008201265	-0.0009412311	-0.0016158778	0.008861068	-0.0060689673	0.0074532214	-0.00015968087	-0.0037025998	0.008167662	0.0030153813	-0.006169632	0.00026103237	-0.0059610177	-0.0085026445	-0.0029491533	-0.005059921	-0.0058720238	0.0082208095	0.0032618928	0.009240634	-0.009622926	0.0014798774	-0.0047658496	-0.0017820415	-0.008995151	0.008385255	-0.0017447006	0.0005331559	0.004924105	-0.0057859793	0.0056135715	0.008877625	0.00062759104	0.0058449856
GCF_000092765.1	-0.009486378	0.008679089	-0.001412805	0.009262264	-0.008541476	-0.008399262	-0.0085226735	0.001989786	0.0034945712	0.008067176	-0.0051970626	0.007694418	-0.008022134	-0.00417105	0.0053589772	-0.002071575	0.006319043	0.0024059021	0.0042842333	0.006472315	-0.007528371	0.0006520193	0.0011017327	0.006285182	0.0062454343	0.0052376296	0.0059295124	-0.009622324	-0.005562033	0.0069566886	0.009235017	0.006338912	0.0034041638	0.00079885614	-0.00712881	0.0030700641	0.0066678594	0.006599744	0.0036456476	0.009770494	0.008893103	0.0049136267	-0.008666558	-0.0025686766	-0.009940327	0.00497491	-0.007960973	0.0058281305	0.008397193	0.0011128869
GCF_000154105.1	0.004374581	0.0036228849	0.0054307356	-0.006069859	-0.0028556425	3.9757404e-05	0.002324125	-0.00551317	-0.0036416587	0.0035382612	0.00240687	0.0010321914	-0.009855467	0.0035653065	-0.0068745604	-0.005848557	-0.00896503	0.0047325674	0.00079397904	0.005066458	0.004400068	0.0029322004	-0.0020772547	-0.0040000514	0.004467834	0.0038504421	0.00023361927	0.0072547076	0.0034278727	0.0026180996	-0.0058170315	0.009641122	0.002973111	0.005432581	0.0035638353	-0.0011091395	-0.0013053863	0.0007931351	-0.0009283596	-0.00048024635	0.0052698497	0.009388237	-0.00393959	-0.008454638	-0.003052729	-0.00047362255	0.0048824055	-0.005756503	-0.0022115482	0.008469796
GCF_000154525.1	-0.008495447	0.006461114	-0.0023479161	0.004296452	0.008394899	0.0038510538	0.0030518016	0.008348422	0.0074288375	-0.007237638	0.00090874074	-0.003292289	0.0051772194	-0.0076184287	-0.008253507	-0.00601509	0.009688693	0.009809708	0.006091184	-0.00646927	0.005319343	0.0022901748	-0.0058117528	0.0054436536	0.002362637	-0.009660622	-0.0059570787	0.0063926447	0.0024658013	0.0014229292	0.0014716925	-0.0076369406	-0.00012157474	0.0011922863	-0.007523904	-0.0022239552	0.007300388	0.004054474	-0.008173013	-0.004408687	0.0033819836	-0.009473629	0.00083694054	0.0044590943	0.0062657385	0.0015592582	-0.00033410036	-0.006433585	-0.007385479	-0.0014213267
GCF_000158635.1	0.00026244653	0.007352062	-0.003888838	0.00023162157	0.0045632385	-0.0017445742	-0.007319027	-0.0024939447	0.009697711	-0.0051925485	-0.0040168106	0.0091105355	0.009741719	-0.0058533656	0.0051118517	-0.0026690487	0.0033194222	0.007269826	-0.00893565	-0.0046369303	0.003033502	0.004191286	-0.00752349	-0.0033940668	0.008922621	-0.0025096016	-0.0051926565	-0.00013386182	0.0002405161	-0.0080205705	-0.0064690844	-0.0068319617	-0.00024148924	0.0048898947	-0.0076305475	1.3897039e-05	-4.225187e-05	-0.008284576	0.004962137	-0.0020205874	-0.0038206712	-0.0065510888	-0.007026488	-0.0013127353	0.0042609298	0.00355694	0.0022236363	-0.007478151	-0.0071590473	0.0023611658
GCF_000169015.1	-0.009829741	-0.003361884	-0.0070038377	0.0033284544	-0.007968989	0.005336858	0.0033661101	0.0014631427	0.0048482167	-0.002282038	-0.0063189957	0.0026984573	-0.0041612	0.0055935266	0.0055843913	-0.003822403	-0.0045983577	-0.0024981534	-0.0025795717	-0.0069350596	-0.0016523208	6.606621e-05	0.0033902016	-0.00974362	-0.0034857814	0.008334394	-0.0053815744	-0.00907027	0.0027422765	0.0040582074	-0.0024319738	-6.874574e-05	-0.0030747165	0.0031097496	0.007650616	-0.001672698	-0.009422742	0.0046467893	0.005206303	0.00025978818	0.006104563	-0.00097043364	0.00014193289	-0.0044693635	-0.0038727617	-0.00434213	-0.001536677	0.0065893056	0.005539434	-0.008661898
GCF_000172535.1	0.0004965298	-0.006755976	0.005238174	0.0064767306	-0.007016133	-0.009538369	-0.009965599	-0.0016143814	-0.008615902	-0.0018883408	0.009970746	0.00074669113	-0.0014356556	-0.0068286736	0.0007806662	0.0040575527	-0.0019862864	-0.004034847	-0.003665717	0.008417841	-0.0073365993	-0.0025080969	-0.009823256	0.0015295792	-0.008128617	0.004929699	-0.0056198924	0.0068034087	-0.0012696757	-0.0057939566	-0.0040747747	0.009805985	-0.005319843	0.0028548483	0.001904753	0.0024897777	-0.0032115623	-0.0064945044	-0.0003042379	-0.009315623	0.008229311	-0.003511936	0.0014349432	-0.007757748	0.0027241828	0.0036748839	-0.0094528245	-0.0036793042	-0.009852318	0.007789836
GCF_000175375.1	0.0099820085	-0.0060166125	0.0048762127	0.005215355	0.0046368106	0.000980044	-0.0074575557	-0.000113598166	0.0023057237	0.008583412	-0.0053184284	0.0007013557	0.0002849678	-0.0030379742	-0.0036325231	-0.0031895214	0.0046334937	0.008551757	-0.007320918	-0.0065300353	-0.008907046	-0.005779761	-0.0041391924	0.0010393753	0.005273881	0.0040582963	0.0016362693	-0.0026978382	0.006817534	0.00092506054	0.004165216	0.002574982	0.008159709	0.0030856358	0.00952707	-0.0009087153	-0.0065970058	-0.0067051593	-0.0051423484	-0.008475307	0.0027520312	0.0072658905	0.008671705	-0.0097773075	0.00114595	0.0097059235	-0.0022339425	0.0032247987	0.0053110714	-0.00035531243
GCF_000191885.1	0.009202008	0.0038691678	0.005827884	-0.0025714245	-0.0084804455	-0.00928207	-0.0025873897	0.006685645	-0.0045699496	-0.009955182	-0.0050796396	0.0020595083	-0.0088715535	0.0069347923	0.0022388361	-0.0009967029	-0.0002669773	-0.00867176	-0.0014821969	-0.0074515226	0.0011559816	-0.001054101	0.005739636	0.0066572414	0.0016043528	-0.00010560513	-0.0069141663	0.003005109	-7.727265e-05	0.0051352186	0.0040612854	-0.008436456	-0.0044621304	-0.0069333063	0.0015892565	-0.0016834626	-0.009894081	0.0044505834	0.008561671	0.00083258806	0.0036748913	-0.0053638145	0.0090221735	-0.0069584916	-0.0075274995	-0.008412512	-0.008624595	0.006956454	0.008220913	0.0065139118
GCF_000219915.2	-0.00030594174	-0.009052002	-0.0064260284	-0.009382315	-0.0017316606	-0.006431083	0.0027625444	-0.0014968874	0.0030123799	0.0046938956	0.0035669494	0.009801391	-0.008706101	-0.0014183302	0.009193551	-0.0026409875	0.0021532334	0.006524203	0.0084866285	-0.0058245463	0.00066484354	-0.0066648116	0.0031622588	0.008354395	-0.0076200813	0.00081430137	-0.006991285	0.004919287	-0.0007408074	-0.009485111	0.004631121	-0.0003196975	-0.00936888	-0.0020174927	0.0014957214	-0.00034360518	-0.0077749244	0.0007341299	0.0028373194	-0.0025071336	0.009143999	-0.005709126	0.007040351	0.007244325	0.0024324532	0.00729069	-0.00857243	-0.004983342	-0.0052390476	-0.0070831887
GCF_000220885.1	0.0012808557	-0.007805458	0.0022506667	-0.0020629666	-0.0024341908	0.009387372	0.002443352	0.0050098714	-0.007249502	0.0017360074	-0.005431009	-0.006266297	0.0003578736	0.00946566	0.008069945	-0.0021501079	-0.0009394281	0.0050383722	0.004337244	0.0022711942	-0.002123497	-0.0015421746	-0.009610765	-0.0011673819	-0.0019092815	0.00996339	-0.004853887	-0.000102984275	-0.0070867143	-0.004495431	-0.0021147197	0.005514084	-0.006166515	0.0026135542	-0.0040699644	-0.008590984	0.0003951463	0.008240795	0.008769277	0.00611428	0.0009595947	0.004813547	-0.003929474	-0.006395393	0.004868941	0.00425643	-0.007598591	0.004638613	-0.001084775	-0.0055289087
GCF_000224965.2	0.007922436	-0.0090260375	-0.0014967909	-8.074147e-05	-0.0035067683	0.0059827715	0.005927071	6.5592016e-05	-0.006792128	-0.0061567198	0.0071714604	-0.0060486533	-0.0072174477	0.008165983	-0.008558241	-0.0051592398	0.009690715	0.0073761237	0.0038773986	0.007062552	0.0034245027	-0.0064262273	-0.0052450798	0.0076342523	0.0032336572	-0.0027940855	0.0017035767	0.0018871753	-0.0063577616	4.025419e-05	-0.006176375	0.0068165003	-0.0030314496	0.007861302	-0.0056206407	-0.0030621854	-0.0026056706	-0.003136901	0.009072108	-0.008259035	-0.003793102	-0.004671473	-0.004588174	0.0053628166	-0.0071394052	-0.0015704529	-0.009048295	0.0015488415	0.00089359144	0.0027267605
GCF_000235585.1	-0.008903742	0.008563238	0.0014772388	-0.005165258	0.003966069	-0.006189966	0.0058116876	-0.006493852	-0.0057687345	-0.0016815305	0.005798915	0.00019844431	-0.0012534744	0.003063062	0.0023160274	0.0011769684	0.007534451	-0.0053452766	-0.006972735	0.004533604	0.009189868	-0.0013501551	-0.001866603	-0.0077682156	-0.00640662	0.0052245613	-0.00234178	-0.006096169	-0.0030764733	0.0051918356	0.0048810886	0.0042458316	0.0025595922	-0.0053182417	0.0062949313	-0.009949089	0.0029738937	-0.008296646	-0.009089714	-0.0015076984	-0.0083646	-0.0028267931	-0.0025540255	0.007384925	0.0048956163	0.0020136358	-0.005633606	0.0040064664	-0.009190663	-0.0074178544
GCF_000240765.1	-0.009686379	-0.006262294	0.005762629	0.0032717695	-0.007552451	-0.0059124897	0.0051674475	-0.0049543087	-0.0035386304	0.0016328306	0.006344622	0.005516243	-0.0015474606	-0.008117309	0.0038140756	-0.007524196	-0.002959215	-0.008995336	-0.0023258487	0.007742023	-0.006664315	-0.0018918355	-0.009701446	0.0030780558	-0.008168494	-0.009336922	0.005038708	-0.0007080353	0.0029894968	0.003671295	0.0019369931	-0.0018105551	-0.008101263	-0.009613997	-0.0034468244	0.009149338	-0.0056438087	0.0006286427	0.0022086883	-0.009037753	0.0051880446	-0.0031694388	-0.0010464502	-0.008130171	0.009861551	-0.002382048	0.0016387469	-0.007679307	-0.0029383383	-0.0075177727
GCF_000250735.1	-0.00062394363	-0.00947452	0.0084053865	-0.005106321	8.83337e-05	-0.0043904986	-0.0006860378	-0.00031482324	-0.00042984623	-0.0034558836	0.0023296073	-0.0052170125	-0.009381086	-0.0049050897	-0.0068614073	-0.005723302	-0.0043454627	0.0076613952	0.009426931	0.0010485688	-0.008649495	0.0062628645	-0.0023318627	-0.0062216534	0.0038248533	0.0075180056	0.009388234	-0.00947897	0.0015775786	0.0025053353	-0.0011717617	-0.0088894665	-0.0018109352	0.007736466	-0.0067216065	-0.009337395	0.00936986	0.0038233884	-0.00195915	0.00071047683	-0.005406842	-0.009004818	0.004263633	0.0046891524	0.0067404453	-0.0028132077	-0.0016910268	0.0051552514	0.006661865	0.008113312
GCF_000259075.1	-0.0038741862	-0.0036370577	0.003605419	0.0013864342	0.0015240218	-0.0024749686	-0.008439919	-0.0026070855	-0.005213001	-0.0008018636	-0.000214869	0.00888065	0.0017611982	0.008467743	-0.009635518	-0.0031329435	-0.007985709	0.0057732165	-0.0050333343	-0.0041607386	0.007384679	-0.006852285	0.0020690688	0.0011495627	-0.0052292706	0.0015033153	0.0039504403	0.0024664868	0.006189546	-0.008691969	0.0037682855	-0.0039577084	0.006590914	-0.0025001115	0.0024923414	-0.0005249604	0.0054246443	0.008646783	-0.008926036	-0.008920866	0.0011212785	-0.00069928914	-5.2947937e-05	-0.00978515	-0.005995596	-0.0002235361	-0.0094030425	0.00013344553	0.009276598	0.00087759114
GCF_000260715.1	0.006990922	0.0025090796	0.008555475	0.0074025476	-0.002470528	-0.005153667	-0.008641754	-0.0008713656	-0.0027370546	0.0013603239	0.0026570978	-0.00753704	0.003931175	-0.003937161	-0.0030474903	-0.0025149444	0.005718284	0.0055625257	0.009624006	0.0019847185	0.0036729674	0.008914877	0.0049019144	0.009283337	-0.009292492	0.0020347403	0.009088494	0.0027441352	-0.0059777857	-0.0057051736	-0.007997773	-0.008848337	-0.004258598	0.00563154	-0.00030325755	0.0036704391	0.008824542	0.0047942293	-0.0072155073	-0.007115618	-0.0058835153	0.008138572	0.008947285	0.0007020927	0.0032061185	-0.0012734522	-0.007950182	0.008916387	0.0058765598	0.0015474288
GCF_000273725.1	0.0024403823	0.006219588	-0.007744558	-0.00014421366	-0.0017499898	0.0010342039	-0.004811888	-0.0030164546	0.004489163	0.0038737815	0.0058577694	0.0053034998	0.009748522	-0.009554536	0.003082328	-0.007512491	-0.003325376	0.008334114	0.0063806116	-0.0071523353	-0.0021269424	0.009844408	-0.007102342	0.006353862	-0.003026509	0.008058121	0.00037834712	0.0010751033	0.009595498	-0.00068832433	-0.004198339	-0.0064358767	0.00716677	-0.0077267126	0.0072301514	0.0014814743	-0.008428665	0.008359522	-0.0037853506	-0.009290168	0.00677002	0.00049241656	0.0069326316	-0.0017583275	-0.008319981	-0.00020816726	-0.0038347915	0.0016260173	0.0037201913	0.0010726185
GCF_000277325.1	0.0021635056	-0.0007919178	0.0029515182	-0.00718921	0.0035989112	-0.005700842	0.0003978144	-0.009438733	0.0019681114	0.007639707	0.0097623775	-0.004718972	0.00689182	-0.0070450376	-0.0047056475	0.0011220486	-0.005794627	0.0073247096	0.008216417	0.0073173624	-0.004079027	0.006493048	-0.00018732347	0.006947467	0.0041398806	-0.003425585	0.00494476	-0.009202726	-0.002247581	-0.0012066852	-0.009445497	-0.0049702013	-0.002692565	-0.00019814046	0.0062989183	0.0030887716	0.0060529225	0.0087285815	0.0023693126	0.003680182	0.00489961	-0.007899425	0.00496731	-0.0018099654	0.0069402955	0.0006170713	-0.0030198328	-0.0003764489	-0.0015864797	-0.004978578
GCF_000277345.1	-0.0030875676	0.009578874	-0.009880302	-0.003968678	0.0053411	0.0084430035	-0.009284679	-0.0049163485	0.009426218	0.007195388	-0.0041911835	0.003752426	-0.009960555	0.0073222835	0.006801917	-0.004933707	0.007128484	-0.008072311	-0.00947402	0.009818231	0.0033070496	0.007743628	0.00066062296	-0.0015023124	0.0016123581	-0.0073703732	-8.7315435e-05	-0.006373294	-0.002467002	0.0069006123	0.0045060064	0.0034972774	0.008185558	-0.0044928617	-0.0036173414	-0.0011093618	-0.008649962	-0.0060889674	-0.008605271	-0.0047076102	-0.0023701054	-0.009397095	-0.007839282	0.007664198	-0.0025409595	0.0028468575	0.0050572497	-0.0012578765	0.0050817896	-0.0024987725
GCF_000307345.1	0.008502937	-0.00355158	0.0032040926	-0.005947862	-0.0013523455	0.0047910702	0.006205612	5.0420418e-05	-0.0049231946	0.0057839993	0.0054583144	0.007623119	0.008659738	-0.007022684	-0.000142898	-0.00015529321	0.008129765	-0.004037572	-0.009272662	-0.0077156117	0.004363759	-0.0053883335	0.0055405204	0.0046782936	0.002774595	-0.0032570048	-0.0022800984	-0.0026101375	-0.0052196514	0.004162278	-0.0027244738	0.0039182105	-0.0005702496	-0.0035910034	0.004220927	-0.004158352	0.0017406027	-0.005256917	-0.0066806064	-0.007763641	-0.0036136052	-0.0060699475	-0.007060202	0.0037608333	0.007884555	0.0006441349	-0.006708292	-0.0006473947	0.002520248	-0.002616625
GCF_000307495.1	-0.006739909	-0.0088955695	0.004993131	0.006630661	0.0016207737	-0.009328962	-0.009715616	-0.005543057	-0.0011121795	0.008213154	-0.0066884984	0.0025841813	0.006687965	-0.005900167	-0.00036558433	0.002119353	-0.008033226	0.007367649	-0.0076774936	0.002943897	0.007187627	-0.0068236087	-0.009314365	-0.001125369	-0.00034066694	0.0013847064	0.00010196181	-0.0077535696	-0.0005918847	-0.006562527	0.0029143633	0.007227795	0.004936903	0.0039940025	-0.009551063	-0.00031110152	0.00532094	0.0054601887	0.00879063	-0.002831132	0.00991841	-0.0007069182	0.0016328683	-0.007304648	-0.009491388	0.009100632	0.0005080959	0.007513441	0.0007355405	0.0004948344
GCF_000338095.1	-0.00035645082	-0.00095845043	-0.0010087622	0.00740691	0.0070382943	-0.0074467636	0.0023991792	0.008551679	-0.0061190627	0.008678832	-0.008715721	-0.008335147	-0.009289054	-0.007556886	-0.003502683	0.0013646716	0.0096003385	0.0068837786	-0.009774102	0.008118587	0.004704175	0.0025695262	-0.004441116	0.0004480449	0.0009210632	-0.002198806	0.006609512	-0.001801603	0.00305708	-0.0038503017	-0.0076706377	-0.007839394	0.002231619	-0.0005942756	0.0030021425	-0.001460928	0.003104113	0.0023099685	-0.006482863	-0.0086661205	-0.00052121305	-0.0015511416	-0.0031329298	0.00023709566	0.0047896216	-0.004950884	-0.001172982	-0.00049257453	-0.008730473	0.005136654
GCF_000341345.1	-0.0022650473	0.0064382334	0.0060779303	-0.0055515342	-0.0062703313	0.0047059236	8.831936e-05	0.008696136	0.002333831	0.009567396	0.003516578	-0.0007473741	0.007751149	-0.0071464297	0.0053705815	-0.0064998893	0.005206708	0.007252653	-0.006882055	0.0062145684	0.0033038799	-0.0001690977	-0.007197733	0.0085216435	0.0076109227	-0.008560935	0.0051164557	0.00075136963	0.006658755	0.00091455056	-0.0052790083	-0.0042655505	0.0019686976	-0.0066420767	0.007588442	-0.005115728	-0.00020086809	-0.005990155	0.004144823	0.0010771607	0.00895806	-0.007438321	0.0091517465	0.007121279	-0.0066851117	-0.006471661	-0.0070084278	0.003262769	-0.0068621193	0.005022654
GCF_000413395.1	0.0082008345	0.0017045441	-0.009006445	-0.006987099	0.00027469842	0.006715084	-0.009692953	0.0012834318	0.0093190605	0.0039657215	-0.0007893093	0.0062044035	-0.0037002934	0.006055484	0.0030075088	0.0010463939	-0.0029920293	-0.005522799	-0.009085431	0.0074050794	-0.0027583237	-0.008968057	-0.00096309464	-0.009575893	0.0067760088	-0.005351792	-0.0012130217	7.0243077e-06	-0.0045294254	0.002042963	0.005319904	0.0065172412	-0.0077844267	0.005624974	0.004239252	0.0007044527	0.0008343994	-0.0043260604	0.006241006	0.004165689	-0.005225007	-0.0046676015	-0.008727762	0.0032675958	-0.0011975358	-0.0025646999	0.0064293966	-0.009161048	-0.0024900504	-0.009032987
GCF_000414215.1	0.0012444364	0.0034266799	0.009794864	0.0017406459	0.0028006157	0.007796021	-0.009088098	-0.003211213	-0.007948424	-0.009292862	0.0012981563	0.0013044014	-0.0078508435	-0.0008866045	-0.008229932	-0.002319439	-0.004430017	-0.008139965	0.000931015	0.004725117	-0.008476341	-0.005254774	0.0084530525	-0.0042158016	-0.005214871	-0.0033909057	0.0023304787	0.003126477	-0.007271746	0.0074658482	-0.0025477507	0.0068300106	-0.009176891	0.0004985554	-0.0027811308	0.0056591136	-0.000900022	-0.0068138456	-0.0032564967	0.008821936	-0.0011684167	-0.005872131	0.006864244	0.005755243	-0.008646808	0.004609566	-0.0040834667	0.007846986	0.008929841	-0.007843485
GCF_000421685.1	-0.0074674147	-0.008249027	-0.006473657	0.0028525405	0.0005105492	-0.008014123	-0.0011102951	0.004128848	-0.007921795	0.009079834	0.0017587796	0.009953259	-0.007849687	0.0075377324	0.0013620894	-0.006433965	0.004720515	-0.007971119	0.001879087	0.0062811617	-0.007377271	-0.0084818145	0.0049723806	0.0026223238	0.005964652	0.002484828	0.0070330994	-0.007379474	0.0031675438	-0.008613803	-0.006692436	0.001266973	0.0061353547	-0.0012918763	0.0056378725	0.0026032908	0.008885264	-0.00079201744	-0.0018541698	0.0049868734	0.008173183	0.0044185827	-0.0054596053	0.0018896757	0.006512041	-0.00026660177	0.009092479	-0.0014993384	-0.0065236627	0.0076872064
GCF_000425445.1	0.008901667	-0.0022001236	0.009134134	0.00012718857	-0.0015238969	-0.00671023	0.009634327	-0.0073576802	-0.0059298617	0.0049744644	0.002432496	8.971478e-05	0.008224077	0.009814193	-0.0058690067	-0.0008048741	-0.0027970006	0.00907021	-0.007007118	0.00937105	-0.008165167	-0.004397845	0.0038831246	0.008703123	0.0004895288	-0.0097460635	0.0036339331	-0.0011025075	-0.001225749	-0.0071949367	-0.008237416	0.0011326333	0.0085553685	0.008291011	0.0079426635	0.009877674	0.009320217	-0.009282485	0.00084997877	0.00082807173	-0.0041405857	-0.003309324	0.0058064144	0.008352978	0.006610365	-0.0050461357	0.008293833	-0.004419645	-0.0015416752	0.00011899642
GCF_000426405.1	-0.0077443765	0.002563486	-0.0008311403	0.003989829	0.008905055	0.002810118	-0.0062312833	-0.0063630077	-0.00057908474	-0.0006653257	-0.0057487907	-0.007295718	-0.0077365087	0.0027896643	0.008356045	0.004984475	0.0047314204	0.0070619355	0.0042636828	0.009135539	-0.0038758586	-0.003756789	0.005078979	0.005648104	0.0007204252	0.009169001	-6.18771e-05	-0.0011269357	0.0026482414	0.0052343034	-0.002637556	-0.0020404707	0.0065791886	0.0057825632	-0.006865573	-0.005514996	-0.006907819	0.009144437	-0.0041560233	0.0011776292	0.0053766225	-0.0018369792	-0.0065863333	-0.008434752	-0.008892425	-0.0032959455	-0.006812189	-0.006888772	-0.0031061987	0.0036630577
GCF_000442645.1	0.005457909	0.0014782889	0.0071100076	-0.009887308	0.0038519395	-0.007426425	0.00027026254	0.004543075	-0.007899458	0.0061925706	-0.0032019222	-0.0066975206	-0.005112703	-0.0042665284	-0.001015119	-0.009726861	-0.009134977	0.0083432365	-0.0012278984	-0.002361559	-0.009082157	0.0068175816	-0.004463248	-0.0034796395	-0.005231515	-0.007828758	0.000900336	-0.0044018445	0.0044493712	-0.007944581	0.0036111788	0.00028606184	-0.008587055	0.0033130199	-0.007954957	0.008886458	0.00919416	-0.006475472	0.0020872466	0.00012750254	0.00010056555	-0.0042772144	-0.0034757892	0.0035553507	-0.008586972	0.009511025	0.0017553075	0.0076629343	0.003268624	0.00904743
GCF_000471945.1	-0.004838221	-0.0072270096	-0.0047699744	-0.001961418	0.0064258324	-0.0065020677	0.007434981	-0.0067935595	-0.009057505	0.009269605	0.0046213637	-0.00245401	-0.0056510502	0.0067475336	0.0089944	-0.008633503	-0.003489966	-0.0062772315	-0.0052181277	0.0020642024	0.0020365764	-3.7464608e-05	0.006497019	-0.007698603	-0.004413124	-0.008745405	-0.009934504	0.0045475024	-0.0008203622	-0.009823174	0.0066217207	-0.005607224	0.0031625647	0.0058332197	-0.0014817151	-0.00998428	-0.0038799527	-0.0065591875	-0.0014518726	0.007877515	-0.006580761	0.0056991186	0.0017536744	-0.0078218775	-0.0079282215	-0.001814073	-0.0014413676	0.008213306	0.0013764087	-0.0034544775
GCF_000506985.1	0.0054497514	-0.0068623116	-0.009875424	-0.0028604113	-0.007533607	-0.004841878	-0.004059964	0.007142237	-0.006721071	0.00962806	-0.0011954102	-0.0065420615	0.0019859516	-0.006229915	0.0043204227	0.0067263274	0.0037805734	0.0033397758	0.00027568443	-0.0033817564	-0.0044056233	0.009550895	0.007875405	-0.0021370146	0.0070833154	-0.0028585105	-0.0058346665	-0.00441746	-0.009197353	0.0024346951	-0.008295101	0.0008970333	-0.0028616684	0.0016539571	0.0076729185	-0.00472418	0.00571467	0.006720285	0.0041362643	-0.008263503	0.00031960913	-0.003183292	0.0017898314	0.0004348478	0.0046813292	0.0063748513	-0.0014939274	0.0015464308	0.0019935004	-0.0034532188
GCF_000511935.2	0.009857545	-0.005553462	-0.008909528	0.006551108	0.0027892871	0.0032661199	0.0042021526	0.002259441	0.008376076	-0.0040158546	-0.00019725537	0.0031365748	0.0026445307	0.0054353406	-0.0037414904	-0.0064604343	-0.00748543	0.0092671625	0.0042588967	0.0032432193	-0.008581375	0.006257674	-0.008572812	-0.002563965	0.008211592	-0.0006135115	-0.0049966215	-0.009220207	-0.0033961674	-0.008140569	0.004959515	-0.0019352859	0.005805935	0.0013308838	-0.008245127	-0.0018130499	0.00877809	-0.009403873	-0.0022441447	0.0028835642	0.006680604	-0.006249312	0.009575874	0.0006608919	-0.0041989554	0.0072294865	-0.0042634434	0.008446135	-0.009502221	-0.007174949
GCF_000517065.1	0.0023601556	0.0050775283	-0.007532512	-0.006715064	0.009134874	-0.008536951	-0.005075085	-0.00055524963	0.0058519277	0.0008313447	-0.007167924	-0.007966846	0.007279882	-0.0042964597	0.0022508868	0.0012828634	0.0020358092	0.0025289205	0.0032818937	0.0005411433	-0.004809618	0.0069243433	0.004427985	-0.0075727096	-0.0039863917	-0.0041813254	0.0049898666	0.0045446786	-0.0036853869	-0.009950961	-0.004016648	0.0051276316	0.008857887	-0.008743238	0.002445803	0.0053055747	-0.006652447	0.0066581727	0.005848301	-0.0046538636	0.00804619	0.003165323	-0.00672556	0.003435169	0.003765849	0.00909571	-0.0072700926	0.00800876	-0.0019093971	-0.006022613
GCF_000521505.1	-0.0054753353	-0.0055744993	-0.006402209	-0.008312563	-0.0050698435	0.005877808	-0.0078098606	-0.008361901	-5.2333828e-05	0.0048953453	0.00010240479	-0.0021107397	0.003944771	-0.0026642582	-0.007914984	-0.00364104	-0.005667558	0.008793012	0.008827733	-0.0068170596	0.0040970487	-0.0049418877	-0.004169329	-0.004048477	-0.0054869577	0.0037544556	-0.0071506547	-0.007980593	-0.0057616537	0.0062286565	0.0019873988	-0.007053124	0.00074314314	-0.0030060515	0.006001486	0.008942394	-0.006520193	-0.0011478707	0.0048370636	-0.003841209	0.004178578	0.0016372015	-0.0066277487	-0.005542028	-0.007548069	-0.0079791555	-0.0062113428	-0.006142733	0.0029605501	0.0015841656
GCF_000585335.1	-0.00884776	-0.005470274	-0.0010101725	0.0063794404	-0.0065031457	-0.005206934	-0.007727239	0.003192114	-0.0063196067	-0.005340736	-0.00023522091	-0.001635821	-0.0048132367	-0.00901188	-0.0045350348	-0.00017512191	-0.0046130256	-0.0059798458	0.0056644296	-0.003037436	-0.00029642534	-0.008969426	-7.809412e-05	-0.00885418	-0.008142459	0.007846343	0.0038345002	0.0062820534	0.004890987	0.0010009757	0.008359522	0.009210088	0.00716021	-0.00097359327	0.007871669	0.0049922224	0.0011651355	-0.009222881	0.0033713556	-0.0055358508	-0.0090465145	0.002275722	0.0010802085	0.008347663	0.009917483	-0.004135811	0.0052157952	0.002986249	-0.009115796	0.003583624
GCF_000612705.1	-0.0070735742	-0.00075103313	-0.0059149135	-0.00871958	-0.0053041554	0.0062082433	-0.008351055	0.0003499736	-0.008835796	0.009206513	0.0059701526	0.0037440332	0.0057224594	0.007502124	0.007092821	0.005733089	-0.0072579645	-0.004485632	-0.0008910992	-0.009176451	-0.0022372256	-0.0056181806	0.009602484	-0.0027054485	0.008466268	-0.00690204	-0.00082321884	-0.0010760062	0.003913678	0.00084054464	-0.0019340918	-0.008589154	0.001353074	-0.0071900696	0.0065544983	-0.0018521714	0.0032326232	-0.009884638	-0.0011708877	6.0437626e-05	-0.00017188989	-0.001063699	-0.00897901	0.0019916485	-0.0045908615	0.00077719096	-0.00930367	-0.009175582	-0.0036296558	-0.009259674
GCF_000614895.1	-0.0058532655	0.004289403	-0.006391162	0.0074267117	-8.740593e-05	0.009800491	-0.0025667052	-0.0027174756	-0.0010784513	0.0020739331	0.0051594498	0.0018087188	-0.008853179	0.004851328	-0.009616122	-0.0033700727	-0.0048083575	-0.0033655264	0.0064318124	0.0041014873	0.00022623457	-0.0070733475	-0.007940434	0.007215144	-0.002226814	-0.0020260669	0.0047246427	-0.0027709508	-0.0019845383	-0.008463042	-0.0048096725	0.0060753725	0.0004602963	0.003513912	-0.007377684	0.004033628	0.003580571	0.0055343425	-0.0077546206	-0.0073171146	-0.009524107	0.0041295546	0.003390995	0.009270278	-0.004605189	0.0048230593	-0.0075899092	0.0003169177	0.0030043484	0.009972047
GCF_000688435.1	0.0040872577	-0.006533194	-0.004981027	0.0074586063	0.005960859	-0.005906941	-0.0029862304	0.0062307897	-0.006188892	-0.0068754363	0.008908845	0.0025319573	0.0015550579	0.0032453989	0.009984776	-0.007822388	-0.0059884847	-0.004282935	0.007463887	-0.0069669927	-0.0046050064	0.009236044	0.008584468	-0.00023342653	0.009502029	0.0018588959	0.0041566365	-0.009407241	0.008439461	-0.0015374537	0.0044833473	-0.00014492283	0.0050890483	-0.008776676	-0.0020919382	0.003460735	-0.0037632477	-0.00026472856	0.0074923974	-0.0018779323	0.009285673	0.00560287	-0.0091719525	0.0038687363	0.0019294637	-0.0032489132	-0.0077258917	-0.009688858	0.0020166265	-0.000982545
GCF_000695895.1	0.007355836	-0.00032930143	0.0027740495	-0.0012748821	0.0025346002	0.00962269	-0.0027196312	-0.0010372241	0.0013080707	0.009423686	-0.0066709854	-0.007391375	0.0038005998	-0.0014843962	-0.00043669273	0.0018717233	-0.007168114	0.0077826506	-0.00954986	0.009222658	-0.0066825575	-0.0016043273	0.00646552	-0.009208549	0.006251105	-0.0058410414	0.0033789957	0.0010866369	0.0042108973	-0.008838269	-0.0051373276	0.005627857	0.0009251913	-0.0012941338	0.007948371	0.0011805011	-0.00093075813	0.005499032	-0.0066407016	0.0040026507	0.005488876	0.006762148	0.008379621	0.0053952076	0.003984576	0.0031244056	-0.009711898	-0.006690397	-0.008996459	-0.0042774933
GCF_000712295.1	-0.006497696	-0.002749982	0.006068271	0.005041156	-0.0031748475	0.00032841606	-0.0003470068	0.0033931222	-0.0014046356	-0.00083289825	0.0077614756	-0.006447754	-0.0077800513	0.009751422	-0.0045438856	0.0063262815	-0.0032717218	0.008938825	0.00025040473	0.009662861	0.006484578	-0.0026809445	-0.004306747	0.0013377392	-0.001306141	0.0012994049	0.00298129	-0.0076971343	-0.008643192	0.008097124	0.0013628049	-0.0052580056	0.0004682409	0.009944518	0.0038313463	0.008498136	-0.0057352404	0.008197745	-0.004751061	-0.0033634228	0.005189292	0.0033777375	-0.007142003	-0.0082243	0.008982445	0.0049727173	0.007995466	0.0023333398	0.0063515897	0.0048464867
GCF_000741485.1	0.00015465007	0.00928697	0.008666422	0.00435635	-0.0025762827	-0.0082834605	0.00591496	-0.006978438	-0.007959885	-0.008188696	-0.0010449924	0.0070252432	-0.001171458	-0.0019382944	-0.0022943611	0.008150237	0.0002540433	0.008611047	0.0032853186	-0.00385463	0.004631597	0.005953486	-0.00261046	-0.005669358	0.004036297	0.0032829188	0.0051277275	0.0019941765	-0.006627125	-0.008400395	-0.0050756293	0.0060205613	0.0024672628	-0.0067771864	0.004484614	-0.0025270344	-0.0013246826	-0.008849149	0.00779087	0.004817706	-0.0014440988	0.0076106433	0.0024468661	-0.006582526	-0.005671169	0.008437737	0.0019170442	0.008400993	0.00028726863	-0.004648125
GCF_000741645.1	-0.009280498	-0.0054985937	-0.009211319	0.0025410396	0.0028257722	0.0092835855	-0.008600564	0.0048598684	0.0026238437	0.0048999516	0.005662479	-0.007504264	-0.009554541	-0.004593715	-0.0023644695	-0.0048908023	0.0001435213	0.0023063147	-0.0032527356	-0.0063010184	-0.0011887759	-0.006526288	0.0076895747	-0.00081357994	-0.007613319	0.0039748023	0.0064947447	-0.0022174807	-0.005880131	0.0014377035	0.0031129087	-0.0019433293	-0.004429371	-0.00051333796	0.009769497	0.008750098	-0.005779474	0.007612475	0.007543786	0.008900505	0.008091884	-0.0076800766	-0.001471824	-0.0031169185	0.009403604	-0.0033799687	-0.009241456	-0.0025695704	0.00703553	0.0040785335
GCF_000741775.1	-0.008384615	0.0052336236	-0.0046517565	0.0050274245	0.0071190926	-0.008554229	0.0024882536	0.0018458625	0.0004775162	0.003701777	-0.006815314	0.0038341072	-0.009575606	0.0078045283	-0.0052448367	-0.0052595953	-0.0064467513	-0.0019874012	0.0016021249	-0.006104047	-0.00870999	0.0058975746	-0.007981796	0.0046314807	-0.003450877	0.007215256	-0.008866985	0.007505086	0.0066269585	-0.008513342	0.009612709	-0.009424171	0.0018168519	-0.0034426947	0.009072787	-0.0065822876	-0.002768274	0.0060653687	-0.0076594446	0.0018120359	-0.002900003	-0.0086149555	0.005910143	9.1007513e-07	0.009930826	0.007606073	-0.0027543919	-0.0048003984	0.0053090816	-0.0039790743
GCF_000771185.1	0.001713755	0.007767105	-0.0037771638	0.009312721	0.0018722103	-0.005304172	-0.008744937	0.007898737	-0.009675112	0.005946175	0.008101743	-0.0014623245	-0.009270409	0.0063939495	-0.009282333	-0.0075343545	-0.00817279	-0.008095656	-0.0060431673	-0.0032209172	-0.0007967689	-0.0069860443	0.008152676	-0.00273635	-0.0072886297	-0.004209422	-0.0056388723	-0.0022800919	-0.009999587	-0.005281108	0.0037355449	0.005423369	-0.0034431107	-0.009227008	0.005401355	-0.0017401294	0.00066235755	0.0042434544	-0.008399424	0.0018190407	-0.007248602	-0.0072959526	0.0059048156	-8.242856e-06	0.004700065	0.003968487	-0.006917632	0.0038413235	-0.0090073375	-0.0064110043
GCF_000771245.1	0.009547491	0.0052500493	0.0069998973	0.0060913637	-0.008679831	-0.0010221545	0.0027087522	-0.003722736	0.0034187788	0.00835776	0.0063248924	-0.0034987235	0.009674482	0.009503077	0.00038202794	-0.009165641	0.0065572043	-0.0068637542	-0.0036941161	0.005684215	-0.003399123	0.0006470954	-0.008058108	-0.0030148574	-0.006295671	-0.0022782146	-0.0049539967	0.0016555684	0.004095572	-0.003337163	0.006004376	-0.0017666174	0.0016005592	-0.0070655923	-0.0034172398	-0.0048580365	-6.0346738e-05	0.008410649	0.006974512	0.0015234377	0.0024332933	-0.0022476546	-0.007068454	-0.0015532655	0.009598382	-0.0050095976	-0.009735334	0.005478298	-0.0047137854	-4.141462e-05
GCF_000816205.1	-0.002819089	-0.0077490048	-0.008622196	-0.0059635234	0.009813641	0.0004714856	-0.005513959	0.0020797504	-0.006029203	0.0006217099	-0.0082507925	0.009700083	-0.0011618348	-0.008974157	0.0021665327	-0.005477343	-0.0028468356	-0.005086404	-0.007494942	-0.0018313219	0.007853878	-0.0050885286	0.009043815	-0.00041261595	0.00027580722	-0.008358686	-0.008199903	0.003967084	-0.0005158733	-0.0038102355	0.0027755671	-0.0023392441	-0.008431891	0.009818131	0.006788915	0.0017284866	0.0021389695	0.0014442798	-0.009668158	0.00019448383	-0.00994926	0.0020033726	0.002672645	-0.0039894483	-0.0045847767	0.004480451	-0.0012997942	-0.00195907	0.00076551357	0.00844682
GCF_000817045.1	-0.0032820122	-0.004040805	-0.0031767187	0.002309362	-0.007545478	-0.009729275	-0.0077300915	0.009064329	-0.0049668	0.0032221228	-0.0034328003	-0.0034276538	-0.0025689758	0.008594324	0.005045053	0.009541401	0.0033812108	0.009898642	-0.005406696	-0.009507416	-0.0054572965	0.005090674	0.009031376	-0.009139118	0.009786206	-0.0067133023	0.0077264537	0.009839649	-0.007052229	0.0011817656	0.0026669884	0.0068451413	0.0019233173	-0.00045671687	0.0034704339	0.006216983	0.0027685645	-9.925353e-05	0.0024976577	0.0021570993	0.0042375815	-0.0016199893	0.0002682758	-0.0029400282	0.0007451772	0.0012458742	0.0054362216	0.0021421039	0.0036555857	0.006352239
GCF_000818055.1	-0.0022652156	0.0047084275	0.0018890803	0.00012645485	-0.0022634584	-0.008812781	-0.009514301	0.0076964227	0.009715797	-0.006052958	-0.008886895	0.009983826	0.0017866599	0.006791006	0.0040508104	0.00024959966	-0.0007958613	-0.00883543	-0.006178786	0.0026919069	0.0014198106	-0.008579027	-0.007183459	0.00496723	0.009948497	0.008454041	-0.005211389	0.0064285873	0.0018881242	-0.008252515	0.007289617	0.0088851685	0.005196415	0.0070105884	0.002869732	0.0054220073	-0.0019973246	-0.0022769598	-9.4066876e-05	0.009440299	-0.007239782	-0.0056868126	0.005073739	0.0076035094	0.0019689258	-0.00033832915	-0.0029327762	-0.0040647592	0.002785707	0.007986071
GCF_000819445.1	0.00048479642	-0.0029090291	0.005985675	0.0051145074	-0.0045395624	0.007304777	-0.0043029683	0.007128471	0.0068212664	0.00016761216	-0.008761314	-0.0066911224	0.004976942	0.00046481672	-0.008896697	0.0026451612	-0.0071422695	0.0003957199	-0.002975643	8.677899e-05	0.0048805517	-0.0058118035	-0.0007870177	0.0090535525	-0.0056932983	-0.0099206725	0.0040108245	-0.0016350291	-0.001595821	-0.008207283	0.009424999	0.005007465	-0.0064598164	0.003137442	-0.005772666	0.0017081741	0.008039466	0.00491074	-0.007361366	0.0018477029	-0.0064271525	-0.001961183	-0.0074535385	0.00959557	-0.0006604006	-0.0011191388	-0.0068027223	0.0077287536	-0.004713792	0.0054271044
GCF_000835165.1	-0.008274489	-0.0038288604	-0.0054835062	-0.0014819372	-0.00013858877	0.008671347	0.009693984	-0.0024135304	0.0012161583	0.008399424	-0.00043076073	-0.0034464665	-0.0078305295	0.007766683	-0.006625808	0.007350893	0.00074863323	0.0054888865	0.009556773	0.0017707465	-0.0007758009	0.009040105	-0.0062632556	0.008232526	-0.00571406	-0.00889775	-0.005984729	0.0094220815	0.008723919	0.00028500444	-0.007610915	-0.007989624	-0.009591165	0.0045138714	0.0078891795	-0.008272054	-0.0046492694	-0.0078056375	0.0048277415	-0.0012860865	0.00084210956	0.0057875635	0.009705815	0.003046514	-0.0023416968	-0.000110206565	0.0008308704	-0.0028794669	-0.008653763	-0.0047802944
GCF_000943545.1	0.0030469827	-0.009386614	0.008606211	0.0098470785	0.0017603994	0.0048774392	-0.007583654	0.002520608	-0.0014582395	-0.0051044463	0.0006769614	-0.003244857	-0.00023965548	0.0007082055	-0.0019788875	-0.006503108	0.009395224	-0.003659872	-0.009362759	-0.0021540357	0.009387236	-0.0013445254	0.00995812	-0.0014460351	0.0075601186	-0.0012160509	0.006486548	-0.00595057	0.0011654056	-0.0003387419	-0.00820337	-0.0055573247	0.0006449023	0.003402916	0.0062810765	-0.00079377595	0.009478861	-0.0076540397	0.003153651	0.0015991941	-0.003936092	0.005092234	-0.006599483	7.770524e-05	-0.0021390007	0.0024022043	0.007554016	0.009901412	0.0042417175	0.0009512649
GCF_000974365.1	0.0011639808	-0.0015663863	0.00012315705	-0.0048165666	-0.0022433603	0.003881244	-0.0049223197	0.0073106233	0.0018212254	0.0040371274	-0.0058802166	-0.0010460651	0.0028976828	-0.0022621434	-0.001941348	0.0007795031	-0.009054821	0.0049186093	0.0041260286	-0.0042530084	-0.0047357054	-0.004941324	-0.005679888	0.0041247457	0.007959151	0.0017893711	0.008865277	0.00052895927	-0.0032394617	-0.009573319	-0.00539765	0.008620498	0.006535346	-0.0054659555	-0.005568745	0.0066506467	0.00056538155	0.0043722605	0.0010484662	0.0002173996	0.0019769468	-0.0014630769	0.008283149	0.0010648913	-0.006842192	-0.0006708405	0.009435636	-0.009830546	0.005463804	0.00076779234
GCF_001021045.1	0.0073791766	0.0030444865	-0.009398045	0.0062057953	-0.0045043095	-0.009136411	-0.0021280118	-0.008634539	-0.009811028	0.009587502	0.009382867	0.008816303	0.0025048992	-0.008374702	-0.004887194	0.005144311	-0.0063369293	0.0034124504	-0.0061979764	0.00045198592	-0.0042301575	-0.0071359095	0.00815921	-0.004121274	0.0008193742	-0.006052129	-0.0028805642	-0.009382873	0.002618334	0.0031167925	-0.004974783	-0.0073651043	-0.007370018	-0.007818335	0.007641122	-0.005071555	-0.0090111215	0.006808444	-0.0007946267	-0.0026457927	0.008354481	0.007359599	-0.0021977515	-0.0065025063	-0.0038931721	-0.0006315132	-0.0009826515	7.51687e-05	0.003930491	-0.0056590596
GCF_001039715.1	-0.007073747	0.004671814	-0.001910797	0.0012743565	-0.0070013325	-0.006706942	-0.0031502827	0.0013480749	0.003275941	-0.004901085	0.0032329534	0.0033128918	-0.0013072321	-0.0039505507	0.0054547293	0.009403665	0.0094869835	0.008131809	0.007933271	-0.0004630787	-0.0048860908	-0.002413565	0.0042993487	-0.0064370427	-0.007892348	-0.0012575694	-0.003253583	-0.0071022487	0.0018906308	0.00045161403	0.0059663937	0.009233952	0.004100391	-0.00188235	0.0021846632	-0.006092306	0.0034889504	0.006039556	0.00040000654	-0.008627031	-0.007768577	0.0017488976	-0.0034597612	-0.005525902	-0.0024531698	-0.009719728	-0.0047383853	-0.001364349	0.008992285	0.00016796714
GCF_001053765.1	-0.001525695	-0.008524862	0.006563749	0.001408709	-0.0072633172	-0.0074393777	-0.0063614156	0.00939772	-0.0071855006	-0.0007577138	-0.0022033346	-0.005565123	-0.001678533	-0.0077830246	0.0092506055	0.0015376029	0.00075868436	-0.0033705703	-0.0050233216	-0.0010311153	-0.009823019	0.00033499193	-0.0056671347	0.0013069321	0.007612189	0.0045996606	0.005339036	-0.003816474	-0.0053991694	0.00567198	-0.0073709404	-0.0022755675	-0.008146955	-0.0007002596	0.008230223	-0.0038004844	0.0077344305	0.008830902	0.001413542	-0.009171079	-0.00162235	0.0072177188	0.0018679332	-0.0067619123	0.008547188	0.0060299817	0.007276392	-0.009835191	-0.00999602	0.0026892917
GCF_001056295.1	-0.0053232014	0.0017040707	0.005055443	0.00342356	-0.009046744	0.0017572542	-0.0060526994	-0.007836291	-0.0075729275	-0.0037681786	0.008559703	0.0026892312	-0.00027492296	0.00606538	-0.005928154	0.008215144	-0.0074840104	0.00041981344	-0.001538153	-0.002362548	0.00038483026	-0.009010822	-0.006054325	0.008044302	0.0025489742	-0.008727201	-0.0003379716	0.008387737	0.0029190802	0.004789523	0.009577203	0.008091123	-0.0012110125	-0.0052817515	0.008191465	-0.007848276	-0.0095095	0.0064566103	0.009006564	-0.0034552773	6.582027e-05	0.001265068	-0.0003820946	-0.0026669935	-0.0014539025	0.0050507444	-0.009184589	-0.008083762	0.0066252514	-0.0057592355
GCF_001263835.1	-0.008720733	0.008887601	0.00839384	0.0012817172	0.0032259435	-0.0083281165	0.00035933088	-0.006203833	0.007737307	-0.007282955	0.008391382	0.00044450967	0.0027981778	-0.0067669055	-0.002213262	-0.0036676573	0.004151993	0.0051679504	0.009345691	-0.0041422863	0.0061761867	-0.009810746	-0.00040232204	0.00972501	-0.009538662	-0.0072433334	0.0068721515	7.604643e-05	-0.0061782384	0.0024075375	-0.006225951	-0.005635448	-0.007289527	-0.0010472442	-0.007727879	-0.00452858	-0.004675656	-0.001978873	0.0019309915	-0.0028562737	-0.007632246	-6.821814e-05	0.0036025194	0.0036615254	0.0042676055	0.0067898803	0.0015170072	-0.008547752	0.006215375	-0.001019978
GCF_001263865.1	-0.0021720773	0.0009625624	-0.0028715013	-0.008571079	0.0077092247	0.0027087282	-0.0025751828	0.0037402466	0.0006822814	-0.003374628	0.0023862799	0.003072373	0.007832338	-0.008700948	0.0011708996	-0.006268302	-0.0054460485	-0.0044868165	0.0067712134	0.0087885875	0.009495569	0.006872697	-2.9467003e-05	0.008696684	-0.0071640206	0.008597629	-0.0076536913	-0.0027580915	0.00916799	0.006729294	-0.00890467	0.008517835	0.0033359143	0.0034601695	-0.0071606385	-0.004360549	0.0012476476	-0.0059341774	0.0051782825	-0.0042396067	0.005674182	-0.0057762167	0.0029285299	0.004078744	0.008920188	-0.00049436284	0.0054073865	0.008086479	-0.0009400695	-0.0010719711
GCF_001263945.1	-0.0045064217	0.0041637146	-0.008040282	-0.005842315	0.0071291025	0.008292863	-0.005762228	-0.006557012	-0.0011442124	0.005184375	-0.009753575	-0.0014222412	0.0069669955	-0.007884182	0.006898183	-7.663815e-06	-0.007965009	-0.007891097	-0.008224597	-0.0023218829	0.0034491194	-0.0051488066	0.0013157126	0.0063163447	-0.008461053	0.0076689636	-0.0033604074	0.008825191	-0.0023032115	0.009359838	-0.0068584555	0.004514322	-0.009740404	-0.0051114107	0.008588349	0.0002636243	0.0016076328	0.009124715	-0.007845795	0.0070546055	0.008593296	-0.009045234	-0.00948041	-0.0056244936	0.0054725586	-0.0025798976	-0.0088228565	0.007472404	-0.0062580085	0.0035091685
GCF_001263975.1	-0.0041092415	0.006870507	0.00722608	-0.0073083155	-0.007307993	-7.440995e-05	0.0074430746	-0.0026276074	-0.0061770566	0.0067124176	-0.004734126	0.0046681617	-0.00924908	-0.0030099403	0.0012778064	-0.0031575512	-0.002120122	0.00025863995	-0.0009616366	-0.007655363	0.007252059	-0.004680644	0.0076638167	0.0062770736	0.0018400587	0.008322659	-0.0007360147	0.00082487724	-0.0044961963	-0.004029385	-0.009692447	-0.0029344496	0.0058690673	0.006728511	0.0021856932	-0.0065498315	0.0035862287	0.0059361905	0.006210046	0.009858166	0.00066307915	0.009225582	0.0027482067	0.001562463	-0.008446458	0.0047422717	-0.0065297335	-0.0001836973	0.0010047099	0.0077022915
GCF_001263985.1	0.0052169017	-0.007441912	0.0036183354	0.00282145	-0.0010794721	-0.0037338303	0.008006048	-0.0026080995	-0.008142968	-0.003179493	0.0016365224	0.003176646	0.0034676918	0.008841697	0.008934091	-0.003607118	0.000993604	-0.006379294	0.0052496316	0.0071362676	0.006867983	-0.004037171	-0.0029122499	0.004114791	-0.009399557	-0.0083647715	-0.0030929847	-0.00826149	-0.008863096	0.00032991052	-0.0061064535	0.0005352934	0.00754135	-0.0029999898	0.001052613	-0.00036236533	-0.0012692214	-0.008583986	-0.00618069	0.006037468	0.0034668497	-0.0045978487	0.008812031	-0.008232752	-0.0073844274	-0.0035367042	-0.0011588704	0.008326265	-0.0049450044	-0.0016354468
GCF_001264015.1	0.006676817	0.0037417482	-0.0019572654	-0.009183196	0.0021693374	0.0056074727	0.009860999	0.004601192	-0.004530081	0.0062939306	-0.009900892	-0.008675346	-0.0061188946	0.0059800125	0.007311942	-0.008261102	-0.0053445473	0.006579216	0.0050012344	-0.0034818095	-8.058166e-06	0.002661912	-0.009752228	0.0055526616	0.0023757285	0.0064684697	0.008570461	0.0055644996	0.005397912	-0.0017475002	0.004987374	-0.005468705	0.00028921984	-0.008791969	-0.0026274452	-0.0087515665	0.006868653	-0.005473423	0.003133142	0.0049824314	-0.005328412	-0.0028801262	0.007155879	-0.0025027082	-0.008221017	-0.000992229	-9.69019e-06	-0.0024463478	0.003922486	0.0011169165
GCF_001264055.1	0.0005606832	-0.0035995536	-0.007792827	0.0021664414	-0.0009287528	-0.0012920728	0.0017804785	0.004096464	0.00094081525	0.0015304441	0.0022363123	0.008163905	-0.005501665	0.0036402284	-0.008248499	0.004768145	0.003837685	0.0014814568	-0.0036627816	-0.0010092879	-0.0017252528	0.0038108972	0.006086738	0.0070405854	0.004309593	-0.0010639101	0.0026756942	0.008589286	-0.008436796	-0.0074641667	-0.0057466086	-0.0023713936	0.0017641186	-0.00085817685	-0.005427368	0.0057888124	0.0017843642	0.0007433105	0.0015431513	-0.004967253	0.0008076735	-0.0031919156	0.002766755	0.0076360493	0.003374429	0.003233809	0.003489703	-0.002683641	-0.006302255	-0.002568457
GCF_001310955.1	-0.0016417532	-0.0023078911	-0.009692992	-0.0024654046	0.0036319694	0.009203618	0.0062601864	0.003475749	-0.004660468	0.0021385825	0.007943814	0.008106394	-0.0050859503	0.009902079	-0.0025570896	-0.0017615331	-0.00070408214	0.008955283	-0.003936596	-0.0072660055	-0.008606071	-0.0022881716	0.008571665	-0.0035773043	0.0069655296	-0.0055288747	0.0033201547	0.0005785148	0.0028992244	-0.0072886087	0.0040659006	-0.002070077	0.0056019966	0.0075527327	-0.0014948967	-0.0005622826	0.0032080414	-0.0010041982	0.005669374	0.009180091	0.009605175	0.009326296	-0.0042093694	5.6209614e-05	-0.006209964	0.008389493	-0.0094164675	-0.0048608305	0.006395334	0.0008123047
GCF_001404575.1	0.006861686	-0.007092218	-0.0027680155	0.002173894	-0.0021432396	-0.005900794	0.0060598855	0.00521612	-0.0056967945	-0.007109955	0.005016054	0.0009047293	0.006215231	-0.0039670425	-0.0058926973	0.006460698	-0.0043902434	0.007750784	-0.009147812	-0.002830697	-0.0062065385	0.0016612341	-0.005063335	-0.005099983	-0.00033730987	-0.004470379	-0.004383557	-0.00856913	0.00015731683	-0.007231435	-0.0034889842	0.0019013189	0.003149735	-0.005289617	-0.0042953114	0.009067794	0.00087690837	-0.0057379734	-0.0025187195	-0.0022192067	-0.0072041834	0.0043932013	-0.0053467667	0.00718993	-0.009786344	-0.006911579	0.0047298274	0.00885288	-0.007447704	0.000469012
GCF_001405515.1	0.0013568599	-0.0020215344	-0.004069697	0.0043849987	-0.0007360701	0.0006857827	0.002464129	0.0014041957	0.002125435	-0.005868947	-0.004029525	-0.005386094	0.005133102	0.007973621	0.007984247	-0.0061376337	-0.005148588	-0.005718541	0.0063338196	-0.0051769167	0.004722164	-0.0033589585	0.0073379716	0.00087750005	0.0040017855	-0.0019254868	-0.0010267042	0.00961593	0.001776373	0.0073587317	0.00083279423	0.007716404	-0.007991482	0.0041632117	0.0054732226	-0.0086608175	0.008979493	-0.00043847595	-0.0014727223	-0.0007675329	0.0028434368	0.0009710411	-0.0015689953	-0.008349021	0.008323698	0.004469528	-0.0069390335	0.0038793522	0.0090669645	-0.0007223468
GCF_001405955.1	0.0068127085	-0.0023272594	-0.0012461037	0.008358887	-0.004909285	0.0077477666	-0.002063324	0.0007420482	0.008425235	0.0008407277	-0.0074732234	-0.00032258048	-0.002421134	-0.007238796	0.0052233334	-0.009427572	0.0052937404	-0.0047409344	-0.0029263545	0.005526692	-0.008920143	0.003873402	0.0062814625	0.008458754	0.00050768955	-0.00018875071	0.008014113	0.0006971866	-0.003487373	-0.0042486046	0.009572596	0.009897304	-0.0025504974	-0.0033055767	0.004017893	-0.0062777246	0.007305802	-0.00450335	0.0002981784	-0.0073029683	0.00910894	0.00045734842	0.00074972963	-0.008527737	0.00034681673	-0.0030996548	0.0025670792	-0.0089262165	0.00045385896	0.0019531485
GCF_001535605.1	0.0038783413	0.009835931	0.0066411323	0.00824142	-0.009567742	-0.0062305015	-0.009490003	0.0043066037	-0.0069716577	0.005878397	0.0061647147	0.006819241	0.0096659	0.0061084377	0.004033184	-0.0032673583	0.005969347	-0.001895351	0.0057289214	-0.0045866123	-0.0006488535	0.0040441863	-0.007964133	-0.008587525	-0.004052898	-0.006829557	-0.008440994	0.0030875364	0.0026090099	0.00039257595	-0.005873055	0.0004004662	0.0028121476	-0.0017748849	0.0061652884	0.0009042947	0.00908742	-0.0033097512	0.005932643	0.005310141	-0.0015810308	-0.008506039	-0.0062078796	-0.00748729	-0.009661011	-0.00900116	0.002214244	0.0041283225	-0.0011085932	-0.007993767
GCF_001551835.1	0.0029003364	0.009248225	0.0016966785	0.0077527687	-0.0029828516	-0.0031354954	-0.0013965709	-0.0020568357	0.006710509	0.003072978	-0.0091507295	-0.0075837323	-0.005934409	0.0010032596	0.0077472473	-0.004176026	-0.0050989753	-0.0057088584	0.0006483939	-0.00017305108	0.008468828	-0.0031856764	0.008129082	0.008785643	0.0050324067	0.008150282	-0.004378247	0.0005825053	0.0028484908	0.006125656	-0.0032740927	0.004905053	0.0023883039	0.0018012462	-0.004162399	0.004355617	0.0033040876	0.009784068	0.00032954363	0.00983055	0.0015672612	-0.0075921216	0.00042175263	0.0049088215	0.0074314396	0.00820269	-0.0063806083	0.0016522331	0.004686467	-0.0004160744
GCF_001571025.1	0.0051238392	-0.0011038056	-0.0011406167	0.0070818863	-0.0072822687	-0.0008371229	-0.00012674689	0.0061153863	-0.008107531	-0.0018285679	-0.008927876	0.008519761	-0.0037650631	-0.0064947326	0.0009049032	0.0038910334	-0.009728809	-0.0047968854	0.007308801	-0.0018370787	-0.0068507814	0.00379212	-0.0019267541	0.0055238297	-0.00126193	0.00030317326	0.006341638	-0.0028425548	-0.00041014573	2.648022e-05	-0.0038076527	-0.0082033025	0.008077953	-0.0007111476	0.009367533	0.0029378878	0.008652943	-0.0070322794	0.004473402	0.0013303795	-0.0070012873	-0.00049887376	-0.0038548	0.0036663122	0.004592395	-0.0013330217	-0.0033368585	-0.0065132934	-0.009878614	0.008302775
GCF_001571425.1	0.004980752	-0.003883785	0.005255656	-0.0009353948	-0.0005656675	0.0033914866	0.00052235037	0.009244298	-0.0046831905	-0.006700379	-0.0014719735	-0.008629195	0.004178454	0.00592812	0.002889575	-0.005060758	-0.005482371	0.0057391403	0.0014633102	0.00095019443	-0.006257073	-0.009527582	-0.008583336	0.0051827547	0.008039322	0.0043606423	0.008632901	0.0050182845	0.0011105742	-0.009241886	0.005352651	0.00022757686	-0.009336391	0.0019448709	0.0065728226	-0.0039051408	0.00032378276	-0.0037589157	-0.002562148	0.00783682	0.009344961	-0.0030094322	0.008501308	-0.0026064494	-0.0037302496	-0.009340293	0.0057844073	0.002177373	-0.008645482	-0.0015491403
GCF_001652705.1	0.008279921	0.0097711515	0.008966962	0.0001345712	-0.001056788	0.00471515	0.006501129	0.0015836317	0.003813638	0.006117612	0.005768837	-0.0012396933	-0.008246639	-0.00289892	-0.00015258756	0.0095897345	0.0060803015	0.006642878	-0.0030190332	-0.00456171	-0.0014355605	-0.008132553	-0.0064832964	0.008883806	0.0007722944	-0.0044895867	0.004129128	-0.007551884	-0.008846378	0.0022883962	0.0021817088	0.0053949854	-0.007213092	-0.007983964	-0.0052535036	0.0018699408	0.0036520641	0.009566023	-0.0063229403	0.0027233416	-0.0015084633	-0.009996049	0.008991723	0.005352445	-0.008719709	-0.00018865688	0.00342882	-0.0014889166	0.0006320798	0.009780392
GCF_001678855.1	0.0009778605	0.008740508	-0.0072181807	0.00627732	-0.0025853903	0.0085483175	-0.0063954894	0.0037374685	-0.0053822678	0.0029603406	0.0033632107	0.0076033897	1.7006705e-05	0.009376184	0.006953324	0.007745286	0.003772454	0.0058554155	-0.003586682	0.003115103	0.00044605	0.009599546	0.008647841	0.0050493195	-0.004651707	0.006417263	-0.008346711	-0.009371956	-0.00015769343	0.0058983755	0.009365748	-0.0042825094	0.00500648	-0.0024149143	0.004126522	-0.006915602	-0.0026778905	0.0014545006	-0.00995056	-0.0043561524	0.008461727	0.002079599	-0.006009107	-0.009420864	0.008720032	0.008393065	-0.007352717	-0.0048835687	0.006240817	0.005808646
GCF_001688645.2	-0.00027798006	-0.0005239773	0.004996171	0.001710042	-0.00974204	0.0074180854	0.0021911184	-0.0016623395	0.00108807	0.0041307323	0.0013638918	0.0040896474	0.0057359715	0.005119663	0.006397363	-0.00991507	-0.00663767	0.0055888956	0.0093602035	0.0024144063	-0.0022477	-0.0080031175	0.0047263224	-0.0006192721	0.006309095	0.00028325414	-0.0048801014	-0.0014565593	0.0010754413	0.009502658	-0.005306198	-0.0058014947	0.0049032755	0.006681397	-0.0014765528	-0.004879101	0.0067722686	-0.00661867	0.0073928484	0.005903576	-0.007677353	-0.0033765847	-0.0019620128	0.003674952	0.0049314704	-0.0013449518	-0.0011217345	-0.0078559015	-0.0054394538	-0.0054970183
GCF_001701045.1	0.006359202	-0.0012361136	-0.006646623	0.0062681986	0.004430118	0.008711365	-0.008407346	-0.004297328	-0.003156003	0.0019198703	-0.002511577	-0.0046177604	0.008598028	0.008325555	0.0037659968	-0.0071035	-0.00014320102	-0.006115756	0.0016523165	-0.0073013557	0.0068190303	-0.0067486493	0.009040596	0.0062317047	-0.0073367767	-0.0019216627	-0.008874786	0.0031298017	0.008354993	0.0045424923	0.0088463	0.0022630594	-0.0026846882	0.0063603786	-0.0032649979	0.0013906049	-0.0049943747	0.0058297976	0.00043498244	0.0052077197	-0.006781735	-0.004680545	0.005532145	0.0039425534	0.005452221	0.0029554658	-0.0040760934	0.0068923114	-0.0069517684	-0.0006846731
GCF_001757415.1	-0.0032362826	0.005659075	0.0088536795	-0.005204401	-0.0028685767	0.0058021075	0.0070511177	0.0059595527	-0.009444965	-0.0036606528	0.0041691298	-0.0005912211	-0.004442009	-0.009078705	0.0080348	0.006537303	-0.000933965	-0.0042092307	-0.00698922	-0.005052474	-0.0015818441	-0.0053076227	-0.00093299616	0.00803171	0.0029301317	0.007923315	0.0071005165	-0.0047199293	-0.0069743786	0.0015894414	0.0096877515	-0.007971791	0.0016729463	-0.000306268	0.00080637075	0.008841865	-0.0055238935	0.008924652	0.007830934	-0.0014902565	0.00073367247	0.007148357	-0.004380668	-0.0048418203	0.004568781	0.0055974424	0.0009058597	0.005323831	-0.0043096794	0.0073074526
GCF_001757465.1	-0.0022014426	-0.0041552526	-0.0074642585	-0.00433261	0.0033759538	0.0011221252	-0.0025087935	0.007375879	-0.0015475765	0.0020640176	0.009029154	-0.0044542323	0.005996041	-0.0022783212	-0.0019741477	0.0062213917	0.0067368755	0.006744291	0.0071325637	0.0052826894	-0.0052677216	-0.0026924377	-0.008907684	0.0040120143	-0.0023753245	0.006483356	-0.008285321	-0.0038656762	-6.686474e-05	0.007232215	0.0031502608	-0.008211816	0.009276657	0.004313694	0.008326849	-0.0096470695	-0.004085793	-0.003642728	-0.0025036596	-0.009192793	-0.0089218365	0.0015159663	0.0018589068	-0.009404776	-0.0055920864	0.0045068227	0.00828943	-0.0026978704	-0.0030002748	-0.008542091
GCF_001757485.1	0.0006269611	0.0093955165	0.0068051135	0.0059793456	-0.0070986412	0.0061986702	0.0066933897	-0.002797441	0.005341926	-0.001682096	-0.0041774064	0.005984895	-0.007767591	-0.0068372367	0.007935757	0.0018389534	-0.00775886	-0.009285656	-0.003296087	-0.007206781	0.0035282455	0.005896567	-0.004885309	0.007045097	0.008577966	-0.006938109	0.0069068572	0.004105302	0.0024296662	0.004823226	0.008082182	-6.730888e-05	0.004291048	-0.0007692986	-0.00035708857	0.0027741455	0.0054999813	-0.0031013975	-0.00022735508	0.0007523958	-0.0029441752	-0.009743185	-0.0004129998	0.009220836	-0.00580318	0.003817586	0.0081467	-0.005103782	0.0066872295	0.006570179
GCF_001757495.1	-0.0075927405	-0.008644403	-0.008151045	-0.0024294348	-0.008748767	-0.0063181906	0.0029081565	-0.0010200794	0.005807742	-0.005474486	0.009857216	0.004736905	-0.009743607	-0.0013522523	0.008912112	-0.0059884368	-0.006280599	0.0011197724	0.0021818327	-0.006741142	0.0018930695	-0.0067232344	-0.00096147624	0.0062201894	0.0065251975	0.0050578695	0.006879343	0.0017883566	0.009414339	-0.0065433253	0.0013012978	0.0028251966	-0.00069241825	-0.0062765046	-0.0053154784	-0.00801289	-0.0024323429	0.000928669	-0.0011973411	-0.005742547	0.009427239	0.009241964	0.005093674	0.001910714	-0.0017253916	-0.00665952	0.00878563	0.004352667	0.007984409	0.00017350039
GCF_001757565.1	-0.005606832	-0.0022007897	0.00010234767	-0.009207745	0.005790693	-0.0036779153	0.0058967825	4.079087e-05	0.0023598862	0.009353953	0.0054171234	-0.0026002915	0.000800367	-0.008696913	0.00783577	0.0034943353	-7.5297634e-05	-0.0017860754	0.006511682	0.0022181442	0.009715289	0.009855196	0.003735484	0.0048762597	0.0086925365	-0.0025175195	-0.0049812538	-0.0064688567	-0.0010588389	-0.005924686	0.0027010646	-0.006909715	-0.0021815435	0.008495095	-0.0018559902	-0.00636868	-0.009501964	-0.007016261	-0.004228459	0.0045638448	-0.00032265313	-0.0042113774	3.111804e-05	0.007511817	0.0020113382	0.004324882	0.006649657	-0.008086157	0.008755684	-0.0068224976
GCF_001892925.1	0.00081339694	0.0057174284	0.00052117347	-0.008893052	-0.0005039213	-0.007725166	-0.009924177	0.0014775007	-0.0035898641	-0.00380138	-0.0013178454	0.005441829	0.0096509885	-0.00020261375	0.0036397018	0.00912436	0.0042847563	0.006995708	0.004726201	-0.0020001887	0.009518918	-0.0016839397	0.0053344797	0.00058558944	-0.006613496	0.006051691	0.007901934	0.00013155563	-0.0060556433	0.0065242024	0.004957494	-0.0032512627	0.00086542655	-0.0089406455	0.000650977	0.0020140144	0.009867206	0.0060493182	0.008000994	-0.009446506	0.002278466	0.007974176	0.0025992768	0.0029274414	0.0056361645	0.0034036727	-0.003498895	-0.00646502	0.001358435	-0.003911158
GCF_002078355.1	0.0019150564	-0.002831605	0.0009092656	0.0064455434	-0.009920832	-0.008374231	-0.009133888	1.2868636e-05	0.0015573931	-0.0018450045	-0.0037723132	-0.008977881	0.0045118374	-0.008501545	0.007115995	0.007564312	0.0022415724	-0.008666988	-0.0032966346	-0.00347086	-0.007868929	0.008320013	0.0055765174	0.005729794	-0.0072700265	-0.0048320196	-0.00092680653	0.004385243	0.003088655	0.008750843	-0.009030433	-0.00037805038	-0.0032091916	0.0027077622	0.0041364254	-0.0028380924	0.008716138	0.00043602282	-0.009278689	-0.002576852	0.009062319	-0.0007219497	-0.0057434454	0.005468011	-0.0020969424	-0.0018830937	0.00048337306	0.00666387	-0.0025548975	-0.000764921
GCF_002201795.1	0.0011262827	0.0043303184	0.005980743	-0.0008991263	0.0015059814	-0.0011853689	0.007874736	0.00957565	-0.0011075026	0.0007446045	0.00019171578	-0.0061983834	-0.00058092637	-0.0022703824	0.0047441027	-0.008536847	0.0068944027	0.0059668524	-0.006158626	-0.0047767577	0.009607847	0.0035854788	0.004036239	0.0018492633	-0.009813388	0.0007535229	-0.00072195317	0.0028613037	-0.0033229098	-0.007850424	0.005578501	-0.0053808037	0.008958305	-0.004843291	0.0067393654	0.0076219244	-0.009385735	-0.009995067	-0.0053351326	0.009499298	-0.0021596735	-0.0053562773	-0.0044925367	0.004253924	0.0037664196	-0.004443285	0.007932785	0.0009813888	-0.003782024	0.00590528
GCF_002220485.1	0.00898273	-0.003486655	0.009522218	0.002329699	0.0041163806	-0.003330635	-0.008150392	0.0034811974	0.00396221	0.00945801	-0.0069107157	-0.004681787	0.0060622147	-0.007298118	0.0063781925	-0.0032686954	-0.0070631886	0.008732991	0.003834234	0.008689676	0.0020483874	-0.007384087	5.6434623e-05	-0.0034985137	0.008131565	-0.004986922	-0.004672768	-0.004987071	-0.00466436	-0.0074206097	-0.0052546677	-0.0058279163	0.0058160434	0.0077617653	0.0064127557	0.0030781126	0.0016980353	-0.0038941214	-0.006676277	0.008955316	-0.0039499328	0.0073506306	0.009284027	2.0240452e-05	0.007664865	0.0057186335	0.004988622	0.0044999532	-0.003265167	0.008244969
GCF_002221565.2	-0.007731295	0.007521906	-0.0057120454	-0.0022908181	-0.004405245	0.008954601	-0.0046303775	-0.009428749	0.009777041	-0.0017061838	-0.0003996981	-0.0010588083	0.003842616	0.0015289325	0.006795663	-0.0016270078	-0.006812797	0.009390008	-0.0041521452	-0.00580738	-0.0020161262	0.008549476	-0.001858152	0.0015552875	-0.007970039	0.005619369	0.005277116	-4.660519e-05	0.009945199	-0.008503218	-0.0019316061	-0.005156802	-0.004053564	-0.0071908487	-0.008609049	0.00043448946	-0.001162161	0.0012059753	0.0023398919	0.009699006	0.0069492813	0.0010530843	0.0020828152	-0.009070899	0.000531404	-0.00872774	0.0031848354	0.008534213	-0.009886545	-0.0035794359
GCF_002222615.2	0.0021583005	0.003121322	-0.0067340857	0.0043320875	-0.0071349298	-6.3222353e-07	-0.0070245345	0.009431481	0.00380793	-0.0007645247	0.0054129334	0.0058796066	-0.0051723463	0.005031242	-0.0059790565	-0.0022410888	-0.0034914606	-0.002460013	0.006850699	-0.0069086347	0.008037425	0.006596653	0.00079761527	0.009416159	0.0075758724	-0.0065020914	-0.0003417584	0.0050183004	-0.00033256676	0.0028823002	0.003593356	-2.4374232e-05	-0.0020024022	0.00029161279	-0.0071018916	-0.007527449	-0.009328818	0.0019625768	-0.002798721	-0.0028190196	-0.0015611475	0.0013338205	-8.098797e-05	-0.0012052002	-0.0021253543	-0.002753852	0.004725071	0.002960235	0.0009318491	-0.007629653
GCF_002914815.1	-0.0056466297	0.008452849	0.009131574	0.008652977	0.0012615888	-0.0037018687	-0.0032803568	-0.0056370585	-0.0067046224	0.0045328992	0.008415095	-0.003946675	-0.0036331406	-0.002162865	-0.0033664654	0.0043951473	0.0047570453	0.009271966	-0.0061574415	-0.009922308	-0.005742391	-0.0013886746	0.008488808	-0.002280768	0.0032564837	-0.00074516993	0.00015314537	-0.00559772	0.0013952461	0.0005210872	-0.0049795136	0.00089901965	-0.0065583913	0.008358386	-0.008567495	-0.0031646222	-0.007993122	-0.0047095395	-0.00066954124	-0.0018481251	-0.008000598	0.008269611	0.0030841879	0.0052346783	-0.009616185	0.008157643	-0.006826914	0.0045247604	0.005197687	0.0076493346
GCF_002914895.1	-0.005309344	0.005540125	-0.0032450415	-0.0063085416	0.0031290734	-0.0048527136	0.0021805766	-3.8299986e-05	-8.6843735e-05	-0.008802665	-0.0012299066	0.0019389507	0.008714367	0.0027277952	-0.004455254	-0.0032545296	0.009782893	-0.006358285	0.007853144	-0.00066923123	-0.008740614	-0.0058006956	-0.0019708143	0.004804958	0.0026990934	-0.009118867	-0.0023178817	-0.0018105526	-0.0039736712	-0.0018214657	-0.009012416	0.0037112643	-0.0014709318	-0.007654882	0.005285367	-0.0037110928	0.003955374	-0.0051117972	-0.009701423	-0.00867439	0.0060526496	-0.008669086	-0.006910908	0.0046577677	0.008039072	0.0032248967	-0.0058341706	0.0071427096	0.007722478	0.00049671624
GCF_002959715.1	-0.0039913175	0.007004082	-0.0068930085	-0.009404455	-0.0069083315	0.0078101815	-0.008592045	0.0067537143	-0.002136095	0.0037142592	-0.0069139567	-0.0008968807	0.006483544	-0.00391415	-0.0041346434	0.0014891616	0.0069150203	-0.008853975	0.0064914026	-0.0012139258	-0.008333171	0.002264243	0.0021434696	-0.0033527033	-0.0027997477	0.009474948	-0.008314926	-0.0080961855	-0.0038830815	0.009272156	-0.004436067	-0.009770301	0.0036589508	-0.009210831	0.003669998	-0.007268046	0.004484625	-0.0068279165	-0.005729777	0.0078305015	-0.006503464	-0.008933726	-0.006573093	0.0031543686	-0.0024374065	-0.0031516585	0.004744537	0.00068422256	-0.0039859456	0.008266334
GCF_003003035.1	0.0026829308	0.0005478954	0.0014201452	0.004285856	-0.006378934	0.006614149	0.004120554	-0.005814005	-0.007865964	-0.004131703	-0.0022482052	0.008905881	-0.007920094	-0.005071951	0.0010977896	-0.008085121	-0.004131785	0.0018676249	0.0068499767	-0.0064888727	-0.0014121764	0.0057900134	-0.004186364	0.0043379883	-0.0024499001	-0.0010786038	0.009290498	0.00925875	0.004051486	0.00026488208	0.005062759	-0.00092436245	0.004017644	-0.0018218172	0.008276885	-0.0020994518	-0.005513014	0.0011559807	-0.009055215	-0.0027610918	0.0017851369	0.0028667657	0.0042512254	0.0063771694	0.008332437	-0.0037936512	0.008829441	0.004870178	-0.006876154	-0.0025712908
GCF_003030465.1	0.009291932	0.0031952653	-0.009762321	0.009707728	-0.009770613	-0.006629288	-0.0013845848	-0.0006817853	-0.0083476445	-0.0039615654	-0.0068266653	0.009326662	-0.0055512916	0.003577072	-0.0019128295	0.0052594487	-0.0083691655	-0.009476258	0.009212696	0.0049365666	0.0095841605	0.005472519	0.009834378	-0.008986697	-0.0058287415	-0.006425964	-0.0028691567	0.0045026676	0.004086411	-0.0028064803	-0.0038934518	0.00014383356	-0.0031869719	-0.007856593	0.0041051726	0.0035119005	0.009448388	-0.0045481846	0.0039697154	-0.0065591116	-0.0036983343	-0.0034691242	0.0036147796	-0.00014227082	0.0066972086	0.0076260027	-0.0060513527	-0.0014839447	0.0074752746	-0.005874237
GCF_003094775.1	0.0073091397	0.008127227	0.0004735251	0.00853544	0.0077206083	0.0073423344	0.0035805919	0.0007887477	-0.009506449	-0.0016755501	-0.0029940193	0.005610603	-0.0025105826	-3.3532924e-05	-0.008133829	0.003331435	0.0006534752	-0.004274826	0.0061785486	-0.0005922948	-0.0077670063	0.0039644293	-0.0005574778	-0.0038268608	-0.001491973	0.008289508	0.0063085593	0.002196429	-0.002008648	-0.004968769	0.008015057	-0.0013705519	0.008739767	0.006443543	0.00226965	-0.0028473127	-0.0042953063	0.0023633917	-0.0011325508	0.009953684	-0.008504264	-0.0037960007	-0.0006257124	0.0032610663	-0.0011513593	-0.0019695568	0.004777092	0.0074842987	-0.0034802607	-0.002246199
GCF_003094815.1	-0.0072060945	-0.0065868977	-0.0028228795	0.006226732	0.0035056947	-0.0053492393	0.008235518	0.007132647	0.0013384294	0.0074871504	-0.006714002	-0.0067662965	-0.0067599653	-0.006477327	-0.0055270963	0.008685664	0.006024516	-0.0022189613	0.0017617955	0.004929446	0.0048718625	-0.0051051867	0.0003276362	0.0047386982	0.0037639102	0.0055111	0.005815304	-0.0019572892	-0.0050422098	0.0077403286	-0.0018326554	0.008110065	0.004853031	0.0035808664	0.00555211	0.002686289	0.00794413	-0.0023598075	0.002198758	0.0053609326	0.0072059594	0.0042204717	0.0027550808	0.0053458535	-0.0072948327	0.007226707	-0.0036210655	0.0011434735	-0.0035806068	0.0011389478
GCF_003094835.1	-0.005913686	0.004066573	-0.0069785444	-0.0007592135	-0.0052259658	0.009605118	0.0035932148	0.0096072275	0.009768656	-0.008870135	-0.0035082216	-0.0022542886	0.006506348	0.0074152877	0.0019845925	-0.0064127706	0.0030920682	0.0031247712	0.008501826	0.006143888	-0.004940322	0.008055596	0.006510325	-0.0057641948	-0.0016393652	-0.0099130655	0.006865466	-0.0098025	-0.008331954	-0.001898795	-0.004149692	0.009930855	0.00088335277	-0.00043486396	0.0033416608	0.006792163	-0.0027410346	-0.0019337201	0.0055742534	0.0066057257	-0.0071646934	-0.0012834014	0.002915267	0.0033499033	-0.008323647	-0.0016529644	-0.009287635	-0.0074473126	-0.009367204	-0.008386593
GCF_003094875.1	0.00481491	0.007043724	-0.0063284147	-0.009452175	0.00016828522	-0.008063621	0.00927888	0.0051034056	-0.005478603	0.004403344	0.0016300393	0.0023270424	-0.007290861	0.0065367944	0.0057341633	-0.007933437	0.0051127393	0.008891909	-0.00831941	-0.0050556436	0.0072562103	0.0017655052	-0.0016507739	0.009201336	0.0072805043	0.00891496	0.007991666	0.00022639363	0.0076121907	-0.006775137	0.0046147895	0.00025452973	-0.0027624909	0.00036390644	0.0021704307	-0.0074656866	-0.0026042745	-0.0058525084	0.0007175617	-0.008646369	-0.0031017275	0.008493355	-0.007109381	0.00818815	-0.00619187	-0.005420015	-0.007849619	0.007546785	-0.0074205627	-0.009832774
GCF_003094895.1	-0.002566255	-0.00019251257	0.0094646625	0.009886203	0.0066767675	0.009442322	-0.0025577843	-0.00269718	0.0075005805	0.00024840212	0.005477012	0.002886231	-0.0076527447	0.0018274769	0.0026727414	-0.00058072153	-0.004737614	0.009674421	-0.009972925	0.009669416	-0.00053644413	-0.004007229	0.0046408777	-0.003677788	-0.0059600305	-0.0018499625	-0.006838546	0.0073290784	-0.0077474685	-0.007774768	0.0077358442	0.00016637375	0.008997454	0.0021045706	-0.002849007	-0.008071045	-0.007195208	-0.008215017	0.0060405214	0.009760881	0.004339153	-0.0023548382	-0.009256181	0.006290073	-0.008366395	0.008867026	-0.004276227	-0.007568746	-0.008093998	-0.00040597556
GCF_003094915.1	0.004527394	0.0015673209	0.00035622218	-0.007834074	-0.0065548755	-0.004704345	-0.0020244955	0.0033949355	-0.007081508	-0.0054292916	-0.0059627225	-0.0015896823	-0.008039304	-0.0047027715	-0.0005526328	-0.0035385746	-0.00010179934	-0.0012802925	-0.0067923483	-0.0055734906	0.00082616636	0.00722867	0.009423065	-0.009706246	0.0004195037	0.005424855	0.0075863684	0.00029060335	0.0009140953	0.0012054195	4.4356344e-05	0.007347945	0.0010456697	-0.0052683963	-0.008752413	-0.0028943375	0.0012185983	-0.009948484	0.0025357567	-0.0061234473	0.0054665045	-0.0010097652	-0.005679101	-0.0075726192	0.00712828	-0.0059227296	0.0069037965	0.009526859	-0.007944973	0.00074602885
GCF_003095015.1	-0.00837239	0.0025267857	0.0071417056	-0.0023031386	0.008396043	-0.008388903	0.0010273998	0.0028697553	0.00050024624	-0.0064506014	-0.00070998684	0.0015992495	0.00023096439	0.005754401	0.008423375	0.008086698	-0.005926942	0.008054496	0.005812804	0.009571486	-0.0053863744	-0.001435458	0.008917768	0.0035578636	0.001540022	0.0063080788	0.0095545035	0.0017686747	-2.6483514e-05	0.0027659833	0.004279384	0.006611216	0.0083443	-0.00087540306	0.0021174366	-0.0032778904	-0.004520282	0.0002570615	0.003955861	0.0024078246	-0.0016603852	0.0037037076	-0.0018594449	-0.0021562625	0.0067537655	0.004430903	0.001390213	0.005964761	-0.004529883	-0.0021092151
GCF_003095055.1	-0.004427625	0.0069211433	0.0024510478	-0.0037079994	0.009384576	0.008850697	0.00095174834	-0.006964816	0.0065748305	0.0024685326	-0.004668658	0.007403397	0.008914354	-0.0058754003	-0.0058022155	-0.009323922	-0.0028189367	0.0069176243	0.0074256575	0.0023593078	-0.0063784695	0.0033342305	0.0038491066	0.0059877075	0.0068743643	0.005535069	0.000971693	-0.0005444931	0.0033485652	-0.009329687	-0.002463013	-0.00076997763	-0.0064122616	0.0023540389	0.0055163833	0.003071127	-0.0046958346	0.0051511643	-0.007821443	-0.008040403	0.0050880737	0.004694139	-0.003218573	-0.005208165	-0.0042795767	0.0013927164	0.006682463	0.0039147586	-0.0046403576	0.008211569
GCF_003095075.1	-0.0033024314	-0.007182287	-0.00062088046	-0.008016768	0.0004453018	-0.005015399	0.003987337	0.007474471	0.0051490553	-0.002130249	0.003351427	-0.0027552182	0.009306696	0.006209164	0.0071487343	0.00013114288	-0.004753818	0.0014648319	-0.0025585957	-0.0096364785	0.0061320546	0.007642843	0.009461675	-0.009503125	-0.00028176152	-0.0029588907	-0.0024237542	-0.0065946947	0.0069961417	0.009515243	-0.0046378733	0.0037614368	-0.000584769	-0.0051695816	-0.007594385	0.000456882	0.004185525	-0.009636069	0.0093404185	0.0020239695	-0.0006620953	0.006351417	0.0044059735	-0.00037178703	0.0020524415	-0.0055969367	-0.005998802	0.008768902	-0.00801806	0.0054832115
GCF_003095115.1	-0.0010935033	-0.009415993	0.0035925163	0.0033632254	-0.0035844708	-0.0006392407	-0.0040356736	-0.008690114	-0.004042823	0.0017004618	-0.0073682927	-0.009426753	0.00817446	-0.0024411636	-0.0060713235	0.007825872	0.008598532	-0.006558205	0.0042250194	-0.0014786572	-0.0009969533	0.0072517395	0.004115876	0.006036451	0.0048315814	-0.009537045	0.001171635	0.008753998	0.00067323114	0.0024285798	-0.0034919255	0.007427901	0.0003239714	0.0006119201	-0.005114315	0.0018802508	-0.008014087	0.008552292	0.0022199543	-0.009559798	0.007242978	-0.004694708	-0.008399634	-0.0037878684	0.00045068117	-0.003533056	-0.009789343	-0.0070829066	-0.0057158517	-0.009003044
GCF_003337725.1	-0.0045494325	-0.006434278	-0.00021703765	-0.007039909	-0.0046693743	-0.009751143	-0.001554394	0.004010157	-0.0055606193	0.00649419	-0.009974666	0.00759649	-0.0070930338	0.007867836	-0.0065929587	0.003383932	-0.009688718	0.0040777875	-0.006087819	0.0046803495	0.007926843	-0.009629826	-0.004062104	0.0039272862	0.00016699152	-2.1318252e-05	-0.0053227097	-0.0023801178	0.0029195563	-0.0060651074	-0.0015349584	0.0029056894	-0.007568952	-0.009082454	0.00093107973	0.004406179	-0.008079672	-0.0091710165	-0.008936318	-0.0044168383	0.002684622	-0.0049160514	-0.0037599527	-0.0032016865	-0.0065015727	0.0065142284	-0.007880261	0.00719774	0.0031631023	3.732684e-05
GCF_003390755.1	-0.006723719	-0.0046277815	0.00787182	-0.007054202	0.008645398	-0.004019498	-0.008820753	-0.009018893	-0.0017971612	0.0031552291	0.006698192	6.0956176e-05	-0.004508488	0.0067630243	0.0020218282	-0.003783764	-0.006574487	0.0036938628	0.00092860474	0.0035603738	0.0026713333	0.0072596413	-0.00886948	0.003692415	-0.008610053	-0.0019517681	0.0024716188	-0.002561625	-0.004489507	-0.004901392	-3.400325e-05	-0.0024322062	0.0030331593	0.007203487	0.0050368947	0.007985472	0.0010902914	0.0017356821	-0.0029406496	0.0042129867	0.009855171	0.00851429	0.002714063	0.0027329223	-0.006271087	0.002892385	-0.004566946	0.0058302153	0.0025421693	-2.4211447e-05
GCF_003428375.1	-0.0059240703	-0.006293484	-0.00051764725	0.0035028146	0.00014567624	-0.0032619555	-0.0075966683	-0.0089149475	-0.0021734121	0.007437923	-0.0045324476	-0.0005219783	-0.007904214	-0.0064753364	-0.003752984	0.00061128405	-0.0033970242	0.005127421	-0.0093317805	-0.0010416971	-0.006301654	0.008731604	0.0036279159	0.006229238	-0.0061596152	-0.0036226893	-0.0040113092	-0.0068245195	-0.008129126	-0.005877075	-0.008718762	0.0033655334	0.0020205027	0.0048967884	-0.006776123	0.0014090344	0.0048160586	0.009925389	0.0021090172	-0.009393263	0.0072843474	-0.003506515	-0.008853445	-0.0011288604	-0.0018387759	-0.0041065663	0.005602295	-0.0042958376	0.0067792153	-0.00645647
GCF_003438025.1	0.0067839217	-0.006587332	-0.0060184933	0.0017751461	0.009226528	-0.0051176758	-0.009349707	-0.0005603748	0.0056193667	0.007999836	-0.000112208865	0.0026248898	-0.008346679	-0.0007799908	0.0063456413	0.00016832139	0.0005395298	-0.0042038434	-0.0016411645	-0.0009031109	0.009045461	0.0011713286	-0.00078734494	0.0041504544	0.0031522992	-0.00684279	-0.009839988	0.0024993946	0.00043640452	-0.008923369	0.0013004278	0.0075470083	0.0063032024	0.0060569025	0.0061336714	-0.008900068	-0.00021000433	-0.0049262443	0.0081183985	-0.009196502	0.006458758	-0.003313877	-2.2214293e-05	0.0035796883	-0.009007613	-0.003672219	0.005071612	-0.008043287	0.0071193627	-0.003848974
GCF_003438425.1	-0.0034055493	-0.009817332	0.0019283107	0.006714914	-0.006641233	-0.00791128	0.0053500324	0.0008615524	-0.0052281525	0.006634264	0.0004794136	0.0006727387	0.001177306	-0.0034067	0.0012355552	0.0018265311	0.004601779	0.004795899	0.007221491	0.0060841967	-0.0074840304	-0.0047437837	-2.7438273e-05	-0.00628299	-0.002514507	-0.0021341748	0.007944702	0.005350671	0.0015295827	-0.00052771723	0.0052409885	0.00068548974	0.0026281343	0.008806252	-0.00065625476	0.008580226	-0.009181929	-0.009626807	0.004194724	-0.005027245	0.0020911598	0.0054795644	-0.009788329	-0.00801448	-0.00098973	0.0033849285	0.009379847	0.0064748405	-0.00087354425	-0.001908161
GCF_003438545.1	0.009410163	-0.00019016312	-0.005553525	0.00171817	0.00034250168	0.00012389629	-0.0023172235	-0.009320173	-0.0063212253	0.003501062	0.003612725	-0.0032059948	-0.008786212	-0.004643424	0.00084134587	-0.0013509911	-0.0013053655	0.0013329252	-0.0064832354	-0.0059458776	-0.00015814156	-0.004181727	-0.00952619	0.00096621935	0.009621791	0.005735165	-0.009902427	0.00342604	0.0055622347	-0.005122651	-0.0048646783	0.009053721	-0.0057645934	-0.0014154371	-0.0025648125	0.0026316822	0.005075556	0.006807709	-0.0027399946	-0.0005080584	0.0018814027	-0.004208292	0.0029984713	-0.0032595033	0.0043396167	-0.0018086497	0.009545206	0.0020381128	-0.0022929981	0.00723034
GCF_003438565.1	0.001142087	0.005715248	0.0059583215	0.00088132865	0.0050462573	-0.0031933074	-4.0336632e-05	-0.009839053	-0.0017035234	-0.00040735578	-0.00087945384	0.009663282	0.006011468	0.00607166	0.003971563	0.008386937	0.0053567467	-0.0075544757	-0.0055358037	0.002921262	-0.001872389	-0.00010663521	-0.0034581665	-0.0039745504	-0.0012510943	0.0014445623	-0.0032930821	0.007667636	0.003935021	0.0034269087	-0.0036526702	0.009799987	-0.0032899126	0.009356707	0.0027110537	-0.0077879215	0.0008958404	-0.009447098	0.009658729	-0.008554191	-0.004008897	0.0025507738	-0.008859845	-0.0031069294	0.00871047	-0.004621882	-0.0028302954	0.0044419277	-0.0035155888	0.0039177733
GCF_003438825.1	0.0024853568	-0.001496685	0.00038057583	-0.0072904592	0.00039201003	-0.00056447415	-0.007488498	-0.008030589	-0.0019045877	0.0011204329	0.004443449	-0.0021883792	0.003421461	0.0025966358	-0.002720533	0.0031198398	-0.0049280436	0.009691589	0.007969078	-0.008572182	-0.0066511543	0.0026981314	0.007096233	0.0017543565	-0.009983388	-0.005788039	-0.009395669	-0.0029815417	0.0045707137	0.0037010892	-0.008444344	-0.00321687	-0.008569966	0.008852392	0.009773579	0.004229362	-0.0078407815	0.004550729	0.0012532687	0.00026475562	0.009224275	-0.009892916	-0.009122142	-0.00826551	-0.006846519	-0.008281231	0.005173164	6.68344e-05	-0.008326799	-0.0050511197
GCF_003438945.1	-0.0040841005	0.0075074993	0.0039794953	-0.0034736483	0.0062027713	-0.0036033597	-0.009456525	0.004728633	0.006121764	0.0018534589	0.0018990362	-0.0035387788	-0.008645131	0.007662959	-0.0077492716	0.009210192	-0.008191475	0.0014981928	0.007159731	-0.0038810398	0.0066999844	0.0008395129	-0.002519154	-0.0048285266	-0.0016550613	-0.0005347406	-0.0012976978	0.009177728	-0.0047503435	0.007700831	0.00060911156	0.007396223	0.009135762	0.008865859	-0.001517178	-0.0014176801	-0.007681178	-0.0060810843	-0.0047019036	-0.008882071	-0.0033267506	-0.0019964336	0.0020333133	-0.0009727359	-0.0020603887	-0.0005835667	0.008980546	0.0032992074	-0.0034904836	-0.0015019303
GCF_003439005.1	-0.009492243	-0.0051651974	-0.0057791565	0.008885299	0.0060550445	0.0068247407	-0.0027829283	0.0033717984	0.0009804802	0.0049863495	0.008486623	-0.0020941463	-0.00860694	-0.0040920875	0.0036580157	0.0060249334	-0.00078708737	-0.00021017707	0.0020050022	-0.009664371	0.0040874374	-0.0017370051	0.001792437	0.00082381343	-0.00124815	0.00973457	-0.0035440852	-0.008622037	-0.008113732	-0.0013185039	-0.009837332	-0.0035245677	-0.005349562	-0.0067300014	0.0074652378	-0.007054546	-0.004447223	0.0040712575	-0.006612506	-0.0030746923	0.009079691	-0.009860258	-0.0069808066	-0.008742285	-0.0044572395	0.008789119	-0.0015045865	0.008482357	0.004491626	0.009552275
GCF_003458275.1	0.005134046	0.008303761	0.009453117	0.008964266	0.004894813	-0.007415104	-0.0064919726	-0.004871473	0.007404242	0.005230844	-0.009278888	0.0026657924	0.0036384813	-0.003990033	-0.007836664	0.007531264	-0.0039582406	0.007037812	-0.0052359337	-0.0015431924	-0.0076487293	-0.006796044	-0.0036578556	-0.0045773	0.00395156	-0.009162671	-0.008130585	0.0042929067	-0.000694292	-0.0070603737	0.009844174	-0.0047625992	-0.0048011853	0.008496747	0.0046626297	-0.002602296	-0.0010801165	0.009510862	0.0046673813	0.0043515223	-0.009048317	-0.008128863	-0.00039530362	-0.007841675	0.0066657085	0.0009979893	-0.006874447	-0.007170021	0.0042981356	0.0007940878
GCF_003458365.1	0.00038241348	0.0017362948	-0.0060039544	-0.006042874	0.0009151498	0.0060828133	-0.0099587105	-0.0069164787	0.004765557	-0.009099619	0.002472255	-0.007884173	-0.008001962	-0.0015507346	-0.00070060714	0.0062529114	0.0087321345	-0.008200594	0.007682136	-0.0085849445	0.006691369	0.007809371	0.0037267609	-0.0026303225	-0.0068702414	-0.0031650462	0.0016495186	-0.0039147944	0.009663179	0.004933943	0.006193651	0.0007680841	-0.005790513	-0.0048656496	-0.006271449	0.0061728787	0.001998831	0.0015481664	-0.0010612938	-0.008744099	-0.0031154945	0.0014461189	0.00937628	0.0058082	-0.0063362303	-0.0050839023	-0.0011858356	0.0003624542	-0.008834576	0.0046185544
GCF_003458395.1	0.0066042854	0.0072140126	0.0036722117	-0.0033294337	-0.0059220837	-0.00621814	-0.008464169	0.0033675693	-0.0025539133	-0.0076077916	-0.005688903	-0.0052347174	-0.0051030023	-0.0035792643	-0.009246372	-0.00977864	0.000702472	0.0023377773	0.004739055	-0.008745901	-0.0018028845	0.0028130948	-0.008289583	0.008221285	0.008990889	0.005519743	-0.0023589672	0.0028908818	-0.0033336913	0.0023231192	0.008736463	0.009346	0.006920557	0.006859891	0.0064615146	-0.00545918	0.0025095055	0.002917921	-0.0076239347	0.004641507	-0.0066454555	-0.006866557	-0.0069415984	0.008314301	0.0061796927	0.0020884657	-0.0011075329	0.00572407	-0.007810367	0.009113577
GCF_003458945.1	0.0064050467	-0.0029528898	-0.0071710516	0.0033059323	0.0016999955	0.0026100855	-0.0008244271	-0.009377694	0.003845946	-0.0037605583	-0.0026966669	-0.007038188	-0.0071117035	0.005919996	-0.008831668	0.0066306232	0.0024402458	0.008775896	0.0073747444	-0.00010124234	-0.003981444	0.006091121	0.0063640345	-0.0091380635	-0.0037102734	-0.0093994755	0.0077613867	0.0049172803	-0.0007093672	0.0069177956	-0.008548573	-0.0017738887	0.0022326664	-0.003483524	0.009745262	0.00087154505	-0.0065003033	0.0059250295	-0.0066958466	0.006830761	-0.0076908614	-0.004406011	-0.007540684	-0.005851246	0.0060776034	0.0030724558	-0.0056670867	-0.009991006	-0.0048610284	-0.0058530187
GCF_003459065.1	0.009028051	-0.0049776845	-0.009133413	0.004771249	-0.004605596	-0.002458882	-0.007110664	-0.0032198096	-0.0075301873	-0.0030532426	0.0043278923	0.0015020056	-0.0023263001	0.0029544001	-0.005786916	-0.0052934927	-0.004720206	0.0009057067	0.005391822	0.006199707	0.0041944287	-0.005839584	0.0043700263	-0.0022633616	-0.0015792269	-0.008318329	-0.0072377897	-0.0046698162	-0.009563215	-0.0024267114	-0.0012180893	-0.006742684	0.009955125	0.002134762	-0.00336973	-0.0032641527	0.0030809175	-0.00052562664	-0.005021334	-0.0003489455	-0.0007948372	-0.0032985029	-0.0052536554	0.0061435536	0.00610142	0.0040705353	0.009805306	0.0012990631	0.0030892978	0.0038328138
GCF_003459525.1	0.003072261	0.009003283	0.007332624	0.0038002173	-0.002517775	-0.002916772	-0.009839358	0.0015606269	-0.007736556	0.002137083	0.0084578665	0.008831924	-0.0023069629	0.0016783568	-0.0030456183	0.0009628975	-0.0037323744	0.0007825593	0.008012859	-0.0093734795	-0.00580028	-0.00850808	-0.00030943184	0.005505719	0.008634687	-0.004257249	0.002336798	0.009112401	0.006289234	-0.004317336	-0.0007147004	-0.001630341	0.0070065944	-0.003192727	0.0022270528	-0.008320286	0.0031395534	0.0035752282	0.009223154	-0.000323436	0.008761139	0.0077681052	-0.0044013495	0.0051244725	-0.00419823	-0.0024008234	0.008919302	-0.009810203	-0.004438138	0.005278915
GCF_003460185.1	0.005714216	0.0004325745	-0.0005107476	-0.0031592113	0.008917291	-0.005629359	-0.0072885705	7.799606e-05	0.0068002623	0.00034328282	-0.009116213	-0.0049364553	0.008346424	0.00866012	-0.009838074	0.0016880739	0.0006232258	0.00023963631	0.0006411936	0.0024954665	-0.0008845475	0.0024059066	0.00495171	0.009255877	-0.0010535539	0.008931514	0.0011378138	-0.007912571	0.007154776	-0.005998907	-0.008888838	0.0045480193	-0.0032390237	-0.0060989643	-2.279513e-06	0.00414096	-0.009249774	-0.0062343497	-0.006866069	0.0072871265	0.0073985923	0.0013668203	-0.009011166	-0.002558984	0.009350993	-0.008053122	-0.005590413	0.008640481	-0.0031824051	0.0061202105
GCF_003462745.1	-0.004581914	-0.0014135592	-0.0076683075	-0.0021101527	0.0040882453	-0.005121143	0.00019146637	-0.0001471024	0.0032093767	-0.00047197097	0.009172313	0.0035007165	-0.0005670622	0.0036519428	-0.0057211868	-0.004610229	-0.0055535994	0.006693758	-0.0016754948	0.008702029	0.0055785156	-0.0074804258	-0.0030899427	-0.0076038362	-0.002257385	-0.0004432694	-0.006991921	-0.0032192697	0.0054554907	0.006641099	-0.005116849	0.0022869017	-0.003024052	-0.006844909	0.0001503589	0.0034252205	0.009575472	-0.0034556382	-0.00017716258	-0.009043121	0.008789199	0.0069450205	-0.00011112396	-0.0037090983	-0.005246375	-0.0013283109	0.0057213884	0.0011529905	-0.0008373144	0.0065528024
GCF_003463115.1	-0.00030076798	-0.008925839	-0.002941749	-0.0032472003	0.0038587484	-0.0007923811	0.00192886	-0.009234655	0.009636827	-0.0035990893	0.008266507	0.004633301	0.0063218954	-0.008926377	0.0005068661	0.0047033853	-0.0044491715	-0.005235736	0.009018775	-0.009970422	-0.002814725	0.008491408	-0.0015317919	-0.0012363837	0.0024279219	0.0030265306	-0.0044888505	0.009558418	-0.006138681	0.0058342535	-0.0016495478	0.0038146772	0.0060009053	0.009869322	-0.0043074144	-0.0029703297	0.007008064	0.0055009797	0.0026950792	0.008447156	-0.0018613898	0.0018435806	-0.006567772	0.008737744	0.0013158403	-0.0061597866	-0.0009316351	0.00817567	0.0067280675	0.0013343589
GCF_003463165.1	-0.0053996	0.0018933122	-0.0015175061	0.0071338997	-0.00643721	-0.0026641535	0.0013636433	-0.0073458287	-0.007299739	0.002271363	0.008919517	0.00029352045	-0.006614805	0.005205531	-0.009141139	-0.009006137	-0.0051668603	0.0039339922	-0.005985791	0.0047679986	-0.0057258517	0.0001290947	0.00037839497	-0.008888005	0.00019452815	0.0073477756	-0.0038796468	0.0045669773	0.0022189121	-0.004142935	0.0062282667	-0.0092787	0.009578732	0.0016175285	-0.009235107	0.0040061926	0.002529996	0.008136872	0.009207704	0.00442529	-0.0063492437	0.0005312977	-0.0046034334	-0.008451316	0.0047306833	-0.0066491566	0.0043158797	-0.005567288	0.0032516166	-0.004368135
GCF_003464965.1	-0.00607578	-0.004449576	0.005714146	0.0046729143	0.0034522568	-0.00401019	-0.008021435	-0.0017702095	-0.0041380376	-0.0063530486	0.0021116284	-0.0071891393	0.007955368	-0.0035517921	0.0066556237	0.00067298714	-0.0035239104	-0.0053043524	0.006303891	-0.0019051728	0.0021016041	-0.0010791345	-0.0018930696	0.0036034116	-0.009611281	0.002404856	0.0018002093	-0.006539932	-0.009931131	0.0036025043	-0.0071573504	-0.0005433134	-0.0051047355	0.008450899	-0.0081323115	-0.0013684487	0.0013614168	0.0032036959	-0.0061837872	-0.0039867926	5.5619046e-05	0.003413635	-0.001745961	-0.00078005204	0.0010689838	0.0001583917	-0.0036606847	-0.009625355	0.005149324	0.0010195399
GCF_003465625.1	0.008354146	-0.0005253837	-0.00051049114	0.004434805	0.0007006449	-0.0074958047	0.009311731	-0.005023943	0.006439075	-0.0030002655	-0.0086644795	-0.0013124768	0.0052701924	0.004803022	0.0070489277	0.007711992	-0.0036124443	0.0013004728	-0.009397943	0.0035429085	-0.0012518591	-0.008816887	-0.008607688	0.009353815	-0.002430181	0.0062969835	0.0040027886	-0.0095936665	-0.008136268	-0.0051083495	-0.009832375	0.00053877645	-0.004473963	0.0021704223	-0.001983264	-0.008539927	-0.0020698158	0.0071089654	-0.0022698296	0.0011456982	-0.0043802876	-0.0035498363	0.005901306	-0.0012598273	-0.0073329792	-0.008835609	0.006839654	0.0035793856	0.006419971	0.008960588
GCF_003468175.1	0.003642127	-0.006711205	-0.0065291794	-0.0019672124	0.0020452025	-0.0058537098	0.0036608803	-0.0023211194	0.004479714	-0.004715282	-0.0045459527	0.0025646605	-0.0026282193	0.0067897984	0.008244206	-0.0009761296	0.0010672745	0.0053920927	-0.006691886	-0.0018278334	-0.009573495	-0.0014140778	-0.008374373	0.008228767	0.0026274114	0.0024483118	0.0019122664	-0.007420385	-0.0077769808	0.0063428143	0.0021918353	-0.0042661387	-0.0028200718	-0.007504682	0.008223006	0.0062559755	0.0056457175	-0.0010658017	0.00541288	0.006512849	-0.0034353998	-0.008570664	0.00089797954	0.0011702647	0.006450041	0.0023762537	-0.008768344	0.008372076	0.0039682845	-0.009733095
GCF_003468355.1	-0.0068716933	0.0054256706	-0.0011477093	0.001227911	0.0016057665	0.0022553345	-0.0021573466	-0.0089346	-0.00895798	0.0028117776	-0.008728457	-0.009247056	0.007858003	0.0066856095	-0.0023669156	0.005999635	0.0027905542	0.005021329	-0.0013675512	1.7447552e-05	0.0074129542	0.00459401	-0.0075821755	0.0026535124	0.0041055223	-0.009871088	-0.0011336833	-0.006323982	0.0061028255	0.008651232	0.003929062	-0.009267596	0.008143845	0.0019060178	0.0006993242	-0.00026191495	0.0036360756	-0.0019552931	0.0040238714	8.184724e-05	-0.0054063876	0.0010401909	-0.007788333	0.00923536	-0.0041490626	-0.0005637126	0.0071500847	-0.009085541	-0.009848402	0.0024851153
GCF_003468685.1	-0.005614294	-0.00016001906	-0.0075168577	0.0091059515	-0.003990354	0.009132139	0.00095144444	0.0063408753	0.0037456944	-0.008247979	-0.0016534395	-0.0008112128	-0.0049295067	-0.009818979	0.0054826173	-0.002582566	0.0010720516	-0.0018223408	0.006954339	-0.0035491255	0.0054239184	0.0071690185	0.0010099183	0.002774771	-0.00045445096	-0.0005564573	0.0010648982	-0.007844144	0.009207786	-0.0020944814	0.009528902	0.0014846291	0.009020146	0.0030332615	0.008766144	-0.0016004747	-0.007134616	-0.0031118474	0.0087775085	0.003187251	0.007667022	0.0030056168	0.009600526	0.0042632823	0.007154229	0.0024426477	0.00407133	-0.002846218	0.0025848772	-0.003474856
GCF_003468785.1	0.0037317185	0.0041902494	-0.007555486	0.0025892083	0.008676108	-0.007711557	0.0066375025	-0.0012540271	0.008295355	-0.0021454112	0.008888941	0.0068385783	-0.0083493795	-0.007432549	-0.0068085524	-0.009397642	0.009725885	0.005237635	-0.0019491403	0.009069656	0.0011394123	-0.0024850399	-0.008923128	-0.002694548	-0.0016419857	-0.0047095506	-0.0066719675	0.0035792785	-0.005988153	-0.0021285773	-0.0054904073	-0.006716371	-0.0066779945	0.009979439	0.0092681395	0.0011808897	-0.006829549	-0.0071937437	-0.0014377388	-0.0060532554	-0.0034016033	0.009643269	-0.0037889008	0.002470228	-0.009514468	0.002425257	-0.0024041357	-0.007362826	0.00054199854	-0.0058995746
GCF_003469115.1	0.009675652	-0.0017411237	0.009785184	0.006699343	-0.001753378	-0.009948942	-0.004058501	-0.0005782682	0.0046993927	-0.00876919	-0.00029116805	0.00029672176	-0.0063051307	0.00047275584	-0.0014243074	0.00810741	-0.004748251	-0.00016987023	-0.007823676	0.007211452	-0.00815635	-0.009521057	0.0057869474	0.008913408	0.0062386575	-0.00515428	-0.0035587538	-0.007833169	-0.0059084427	0.0022009078	-0.00378289	-0.0026050713	-0.0065079653	-0.008645756	0.0032497044	0.0025073863	0.00014151652	0.008542165	0.0065237265	0.0038347703	0.0069310865	-0.00020965512	0.0069529656	-0.0002094291	0.00082272076	0.009290841	0.0045785834	0.0034972073	-0.0033587604	-0.005563731
GCF_003469635.1	0.0043336884	-5.134521e-05	0.009057295	0.0029896277	-0.006514028	-0.00041696208	0.00630409	0.007290625	-0.0032824678	-0.0029990242	0.0038962653	-0.0038773448	0.0029152776	-9.788171e-05	-0.004935312	-0.009745981	-0.0023925558	-0.0011787583	-0.0010774019	0.005460171	-0.004640611	-0.0010996559	0.0018029248	-0.0021097856	-0.007572971	0.0029252502	0.007920127	0.0072236103	0.009653654	-0.005981129	-0.00085862126	0.0097668	0.0032858793	-0.008843289	-0.005893434	-0.0031668025	-0.0067196074	0.0053220913	-0.0009344638	-0.008167698	0.0020799886	0.0047277547	0.008028065	0.0016803758	0.0051520113	-0.006160036	-0.0016777085	0.009160124	-0.00081054296	0.0021131407
GCF_003469855.1	-0.006968115	0.005347171	-0.00532205	-0.0018389128	0.007427321	-0.008740874	-0.001658236	-0.00048186272	-0.0076784445	-0.006332389	0.0062756464	-0.005118829	0.0008431014	0.007912312	0.007912524	0.0044466606	0.009336675	0.008659127	-0.003297185	-0.0082330555	0.00044930118	-0.0068014716	0.0026268729	0.0011655522	0.00976563	-0.0016410648	0.0038535642	-0.0021976128	0.0037071076	0.0014208341	-0.0034934485	0.0011850265	0.0016926603	0.0048560165	-0.0029099167	-0.0005172697	0.0013714316	-0.0050361915	-0.00048537808	0.0016533049	-0.0050468696	0.008507525	0.0055995886	0.001952428	-0.00992477	0.0049755443	-0.0020772952	-0.00043873562	-0.0031776386	0.008289328
GCF_003470005.1	0.005372354	-0.009102386	-0.0045240205	-0.0019103964	-0.007975708	0.0021545927	-0.0042402414	-0.0051532825	0.0045200335	0.0011540018	0.009652334	0.00863923	0.008529043	-0.0041488493	-0.0048500965	0.00047344496	0.0090805385	-0.001467357	-0.00055167475	-0.0018573633	-0.007929732	0.0061571975	-0.005463129	-0.0055877776	0.004191887	0.005153606	0.0023089673	0.006713539	0.0074858093	0.007762117	-0.007030323	-0.0031334055	-0.008607525	-0.005735831	0.00024818757	0.0022584875	0.002550747	0.004672568	-0.0014221529	0.0021399406	0.0052133994	0.0074087945	-0.003090963	0.0003448335	0.009392887	-0.009556402	0.0035708363	-0.004593223	0.007918793	-0.00036952447
GCF_003470305.1	0.009121096	-0.006746255	-0.0015954494	-0.004767867	0.0064640213	0.001394711	0.0047852197	0.0044062864	-0.0016476414	-0.009041621	-0.0040709767	0.0041311895	-0.00553935	-0.0005940075	0.009068356	-0.0029636095	-0.008101868	0.009142242	-0.004271428	0.009611214	-0.00072914176	-0.0026765724	-0.0062846434	0.0026927807	-0.0005753396	0.008435786	0.004299209	0.00063044584	0.00030001	0.0049067205	-0.0047208164	0.008348442	-0.009354803	0.009904893	0.0070222416	0.007723578	0.008847108	-0.0075253267	-0.008801398	-0.0069870013	-0.0039515705	0.00035566365	0.006632538	-0.00056657067	0.009724309	0.0023658779	-0.004341787	0.00040022735	-0.009200036	-0.00049904076
GCF_003470465.1	0.0021609175	-0.007339927	0.0071906955	0.00010639333	0.0012088721	-0.0046564606	0.009121135	-0.00039044963	-0.007830216	0.003720531	0.0006383592	0.0023881823	0.0015309299	0.009709475	0.0023802752	-0.005353371	-0.0032583314	-0.0053043715	0.0036762208	-0.0027287991	0.00848771	0.008643063	-0.0051077874	-0.0043213447	-0.0067557897	0.007013311	-0.0084727425	-0.0058654915	-0.002511629	0.008821719	0.009383034	0.0062058526	-0.008761361	-0.009807244	0.004452129	0.009607008	-0.008473108	-0.00048128783	0.005874434	-0.0031386097	0.0015982224	-0.0084842015	0.001597825	-0.00079845416	0.0018079507	0.0025544239	-0.0018746306	0.004663999	0.006632124	-0.0002633856
GCF_003470675.1	0.006505037	-0.003364099	0.0036088696	-0.004172218	-0.009348988	-0.0036932598	-0.007069086	0.008870508	0.0011563412	-0.009170812	-0.008218975	0.005475925	-0.009922185	-0.0074753216	0.008258105	0.00080906984	-0.008437786	0.0031782715	0.0014691585	-0.008781515	0.0062275897	-0.0074569006	-0.00423898	-0.0024017016	-0.0010724328	0.0011022161	-0.0011961983	0.008414803	-0.0040151994	-0.0086670015	-0.0072476147	0.008287568	0.009713699	-0.009787444	0.0021747502	-0.0010890634	0.0031735809	-0.00939691	0.00081863435	0.0014751907	0.0019255639	0.0076687764	-0.0056712995	0.008573323	0.0029848095	0.003845123	0.008660962	0.008283323	0.0033042864	-0.0024305684
GCF_003470705.1	-0.0004150753	0.00887143	0.009038869	-0.0075784824	0.00152029	-0.0003717464	0.005757398	0.003694844	-0.008993744	-0.0023869646	0.009731233	0.0033081912	0.00078144704	-0.0010494505	-0.0019201796	0.0017528614	-0.005306542	0.004780147	-0.00096122385	-0.005088902	0.00065240625	-0.0025244085	0.005198576	-0.0027782496	-0.0024598537	0.0058946414	-0.00094665244	-0.004035955	-0.0050232983	-0.007386351	-0.008900794	-0.005855388	0.0022388948	0.009093683	0.009049406	0.0069100237	-0.004250982	-0.00844291	7.105393e-05	-0.0047525587	-0.0011063879	-0.009177708	0.008968045	0.0072914776	0.00579511	-0.006334721	-0.006604274	-0.009738233	0.0046682633	-0.006178144
GCF_003474345.1	-0.0072384663	0.009951992	0.008894857	-0.0071611735	-0.0030872012	0.009364472	0.0032242942	-0.009364038	-0.0045414437	0.00863718	-0.0051678354	-0.003962548	0.006022677	0.0083842175	-0.0073283548	0.0016422954	-0.007744287	-0.0025626079	0.0030872016	0.0054953685	0.00022362624	-0.0030174118	-0.0017834653	-6.386899e-05	-0.009862736	0.008797515	-0.007051613	0.009819503	0.0029380713	-0.009179286	-0.0008559668	-0.0067929095	0.0066358713	0.009116703	0.0003678816	0.0028937224	-0.00077389466	0.0069427355	0.0067589497	0.0018428406	-0.005518258	0.0032838637	0.007880599	-0.0012785097	0.0048759533	-0.0032836273	0.00465279	0.004105887	-0.00542408	0.00528588
GCF_003474945.1	0.0057277563	-0.009131369	0.008230891	-0.0012962185	-0.0013328282	-0.00042825428	-2.5341218e-05	0.0059159547	0.0056368303	-0.0028562886	0.0059087477	-0.006926505	0.008573022	-0.002892326	-0.0010252908	0.008810869	-0.0039999513	-0.0054139555	-0.0038197082	0.008175729	-0.0028243626	0.008863629	0.0020855693	-0.0013270786	0.007017474	0.0050885337	-0.007618312	-0.0068631936	0.007771989	-0.0021497414	-0.009057287	0.009868885	-0.00050013047	0.007443635	0.0067951563	-0.0072308797	0.0066505913	-0.004609509	0.006567095	-0.008105708	-0.0024510538	0.00593191	-0.0044955546	-0.0056121824	0.008950518	0.007327067	-0.008435218	0.009801049	-0.0029955618	0.0030253883
GCF_003474995.1	-0.009219713	-0.0006515817	-0.009160403	-0.004219123	-0.009940628	-0.009478117	0.0053408165	-0.0036449737	-0.0003817939	0.0052255476	0.0050190324	0.0095195705	-0.007196321	0.00440167	0.0017769727	-0.0062568863	0.0016736649	0.0056258007	-0.0023517369	0.0019263766	0.009081869	0.0034609807	-0.0023545984	0.007966648	-0.0066329963	-0.009482984	0.00932968	-0.0072608837	0.003374612	-0.006824757	0.007133135	-0.008913254	-0.007520234	-0.0074019637	-0.0009836121	-0.0026613404	0.009170389	-0.0074149584	-0.0041441163	-0.007370432	0.00031175726	-0.003406311	0.0032643883	0.002680059	-0.0036726354	0.0022507287	-0.006713328	-0.007116934	0.0054881894	-0.006509782
GCF_003475165.1	-0.0064346474	0.009789161	0.00698111	0.007197682	0.006251333	-0.0028165507	0.00954187	0.0078967605	0.009549563	-0.007001966	0.008983048	-0.00486036	-0.009979541	-0.0076085767	0.0077750604	0.0060821925	0.0081767	0.0031221344	-0.006546899	-0.005138343	0.008902329	0.000681144	0.008297493	-0.00535488	-0.006559885	-0.0023902594	0.009286364	0.007058029	-0.0093786325	0.000579797	-0.0053912792	-0.00712472	0.004668822	-0.0032703942	-0.0056066173	-0.007333117	0.009871127	0.005238226	0.0065000854	0.005388252	-0.0013660279	0.00067096343	-0.008544257	0.0057683885	-0.0017954762	0.0042764903	0.003587488	0.0075626215	0.00488885	-0.0050960574
GCF_003475265.1	-0.004768905	-0.0065826075	0.003893162	-0.009109214	-0.002719067	0.00035727728	0.0042218915	-0.0088873	-0.006217604	0.002759678	0.009028022	-0.0023362439	0.005413532	-0.0056959633	-0.008694874	0.0079721445	-0.008034477	0.009357137	0.0011112768	0.0039878436	-0.0016787307	-0.0016504686	-0.0031051636	-0.0026960091	0.006138075	0.0034622047	-0.005877692	0.006398645	-0.00951752	0.0058556697	-0.005102363	0.008207302	0.005876263	-0.0057427413	0.005832422	0.005647993	0.0067242733	-0.006851618	-0.0047407774	0.00762691	-0.003762823	0.0053956574	-0.008341877	0.009884907	0.0031374337	0.0021778631	-0.0033230348	-0.0019756958	0.004751668	0.006168016
GCF_003475305.1	-0.009044861	0.0019917213	0.008295261	-0.002341016	0.009898141	-0.009966123	0.009439799	0.0050698626	0.0076532923	-0.0057455236	-0.0027488463	-0.0013242345	0.0070368154	-0.0019728653	-0.006310315	-0.0009920147	0.007316278	-0.0016393948	-3.6196074e-05	-0.0072829463	-0.009726607	-0.009456819	0.0065472005	-0.0009496733	-0.009555114	-0.0084982095	0.0028309186	0.009322712	0.0031973186	0.0045951265	0.009269579	-0.006099218	-0.008919672	-0.0075665605	0.0009286861	0.007707782	-0.004041696	-0.0034759773	0.0028243153	0.003993116	-0.008216737	-0.004779103	0.0023662956	0.006112092	0.007493061	-0.0072928555	-0.007537813	0.004168252	0.00067913637	-0.0045169163
GCF_003475825.1	-0.005760919	0.0064339596	-0.0048260572	-0.008172968	0.0025824984	0.004371575	-0.0013292015	0.0004139713	0.0032941524	0.00032381795	-0.004634648	-0.009357321	-0.0073828795	0.0064067664	0.0075067356	0.007021855	-0.009178488	0.0030450872	0.004026996	-0.002790655	-0.0031273202	-0.00944615	0.00793902	-0.0075394223	0.000497237	-0.006828722	-0.0063378746	-0.0042921193	0.0014120834	-0.009690963	-0.0029392974	-0.0028336027	-0.009917985	0.0016447116	0.0069761574	-0.0021304123	-0.0010875008	-0.0057722037	-0.0056738607	-0.004403687	-0.008043095	0.00907152	-0.009538622	0.0013198045	-0.0007407893	0.0077809114	0.006000848	-0.003700187	-0.0047398135	-0.0022976168
GCF_003508775.1	0.007306541	-0.009407196	-0.0048541664	-0.0029073968	-0.0024080013	0.0046877777	-0.00039194984	-0.00916579	0.00091320043	0.0063918037	0.00079181755	-0.0028209407	0.0037584212	0.0061419695	-0.002248863	0.0047767074	-0.009999915	-0.0037272836	-0.00025776407	-0.006016841	-0.008969683	-0.00904323	0.008038714	0.0039656255	-0.0043327417	0.0015536842	0.0027158952	-0.0077386308	-0.0005981959	-0.0012995262	0.008271959	0.005933763	-0.0031025638	0.0088140145	-0.008985075	0.0041402793	-0.008737763	0.006047245	-0.0035079916	-0.0025913902	0.008538129	-0.009731349	0.003086427	-0.0007539547	-0.0010547182	-0.00073507865	0.0033909185	-0.00061601115	-0.005306424	0.0039115194
GCF_003606305.1	0.006685484	0.009737911	0.0070971977	0.005139824	-0.006414114	-0.0055155796	0.007530637	-6.1267565e-05	-0.0037190418	-0.0057603233	-0.0045629907	0.008166378	-0.00018782272	-0.0023662094	0.008583959	-0.009683501	0.0073574325	-0.0066255787	-0.00933884	-0.00025004428	-0.00644037	-0.0021187598	0.002393576	-0.0033296037	0.0016918783	-0.0045725023	-0.0022066317	0.0013921787	-0.0020091098	-0.0075091394	-0.009856044	-0.00809406	-0.004610075	0.009132983	-0.005187613	0.003914126	-0.0028539754	-0.0056285392	-0.0040453393	0.006542292	-0.008031181	-0.0032218008	-0.0076131076	0.0053554783	-0.009212578	-0.0017329233	0.008618025	0.008198956	0.007832119	-0.005838597
